<?xml version="1.0"?>
<opencv_storage>
<!-- Created using Computer Vision System Toolbox(tm) for MATLAB(R) -->
<!-- Version 8.6.0.235573 (R2015b) -->
<!-- Compatible with OpenCV 2.4 -->
<cascade>
  <stageType>BOOST</stageType>
  <featureType>HOG</featureType>
  <height>32</height>
  <width>38</width>
  <stageParams>
    <boostType>GAB</boostType>
    <minHitRate>9.9500000476837158e-01</minHitRate>
    <maxFalseAlarm>2.5000000372529030e-02</maxFalseAlarm>
    <weightTrimRate>9.4999999999999996e-01</weightTrimRate>
    <maxDepth>1</maxDepth>
    <maxWeakCount>100</maxWeakCount></stageParams>
  <featureParams>
    <maxCatCount>0</maxCatCount>
    <featSize>36</featSize></featureParams>
  <stageNum>11</stageNum>
  <stages>
    <!-- stage 0 -->
    <_>
      <maxWeakCount>38</maxWeakCount>
      <stageThreshold>-5.8518153429031372e-01</stageThreshold>
      <weakClassifiers>
        <_>
          <internalNodes>
            0 -1 505 1.6266215592622757e-02</internalNodes>
          <leafValues>
            3.4306567907333374e-01 -6.7277169227600098e-01</leafValues></_>
        <_>
          <internalNodes>
            0 -1 573 1.7355512827634811e-02</internalNodes>
          <leafValues>
            4.6176362037658691e-01 -4.7512024641036987e-01</leafValues></_>
        <_>
          <internalNodes>
            0 -1 123 3.3387780189514160e-02</internalNodes>
          <leafValues>
            -3.1457340717315674e-01 5.1699280738830566e-01</leafValues></_>
        <_>
          <internalNodes>
            0 -1 577 3.2567486166954041e-02</internalNodes>
          <leafValues>
            -3.3534982800483704e-01 4.2460757493972778e-01</leafValues></_>
        <_>
          <internalNodes>
            0 -1 292 3.5972371697425842e-02</internalNodes>
          <leafValues>
            -2.2353050112724304e-01 4.7564247250556946e-01</leafValues></_>
        <_>
          <internalNodes>
            0 -1 556 3.5787679255008698e-02</internalNodes>
          <leafValues>
            -2.0550355315208435e-01 4.7675731778144836e-01</leafValues></_>
        <_>
          <internalNodes>
            0 -1 595 3.7712700664997101e-02</internalNodes>
          <leafValues>
            -1.2920121848583221e-01 6.4344722032546997e-01</leafValues></_>
        <_>
          <internalNodes>
            0 -1 386 2.3415308445692062e-02</internalNodes>
          <leafValues>
            -3.9420068264007568e-01 2.2334630787372589e-01</leafValues></_>
        <_>
          <internalNodes>
            0 -1 542 2.5632601231336594e-02</internalNodes>
          <leafValues>
            -2.8589096665382385e-01 2.9761958122253418e-01</leafValues></_>
        <_>
          <internalNodes>
            0 -1 38 1.3398821465671062e-02</internalNodes>
          <leafValues>
            3.6310258507728577e-01 -2.8201183676719666e-01</leafValues></_>
        <_>
          <internalNodes>
            0 -1 114 5.8964475989341736e-02</internalNodes>
          <leafValues>
            1.0241118073463440e-01 -9.0160149335861206e-01</leafValues></_>
        <_>
          <internalNodes>
            0 -1 139 1.8133593723177910e-02</internalNodes>
          <leafValues>
            2.4017021059989929e-01 -3.5171103477478027e-01</leafValues></_>
        <_>
          <internalNodes>
            0 -1 583 1.0693600401282310e-02</internalNodes>
          <leafValues>
            -7.6786810159683228e-01 1.0470804572105408e-01</leafValues></_>
        <_>
          <internalNodes>
            0 -1 375 1.8561279401183128e-02</internalNodes>
          <leafValues>
            2.4311518669128418e-01 -3.4127020835876465e-01</leafValues></_>
        <_>
          <internalNodes>
            0 -1 238 4.9030274152755737e-02</internalNodes>
          <leafValues>
            -1.1611531674861908e-01 6.9543021917343140e-01</leafValues></_>
        <_>
          <internalNodes>
            0 -1 306 1.8169209361076355e-02</internalNodes>
          <leafValues>
            2.9837092757225037e-01 -2.7141079306602478e-01</leafValues></_>
        <_>
          <internalNodes>
            0 -1 455 7.7773840166628361e-03</internalNodes>
          <leafValues>
            -9.2124944925308228e-01 7.8372217714786530e-02</leafValues></_>
        <_>
          <internalNodes>
            0 -1 236 1.3386880978941917e-02</internalNodes>
          <leafValues>
            3.4786835312843323e-01 -2.3813891410827637e-01</leafValues></_>
        <_>
          <internalNodes>
            0 -1 117 1.6373049467802048e-02</internalNodes>
          <leafValues>
            -4.2256879806518555e-01 2.0200149714946747e-01</leafValues></_>
        <_>
          <internalNodes>
            0 -1 512 2.8676792979240417e-02</internalNodes>
          <leafValues>
            1.5125906467437744e-01 -4.2484709620475769e-01</leafValues></_>
        <_>
          <internalNodes>
            0 -1 75 5.7222336530685425e-02</internalNodes>
          <leafValues>
            -1.0672871768474579e-01 7.5076264142990112e-01</leafValues></_>
        <_>
          <internalNodes>
            0 -1 119 4.1988465934991837e-02</internalNodes>
          <leafValues>
            -1.0257767140865326e-01 6.1606049537658691e-01</leafValues></_>
        <_>
          <internalNodes>
            0 -1 204 8.9903045445680618e-03</internalNodes>
          <leafValues>
            -6.2317436933517456e-01 1.1804397404193878e-01</leafValues></_>
        <_>
          <internalNodes>
            0 -1 376 1.3118237257003784e-02</internalNodes>
          <leafValues>
            3.7430506944656372e-01 -2.2768115997314453e-01</leafValues></_>
        <_>
          <internalNodes>
            0 -1 489 4.3643780052661896e-02</internalNodes>
          <leafValues>
            1.2301249057054520e-01 -6.6255593299865723e-01</leafValues></_>
        <_>
          <internalNodes>
            0 -1 449 1.8995810300111771e-02</internalNodes>
          <leafValues>
            2.8838410973548889e-01 -2.8804695606231689e-01</leafValues></_>
        <_>
          <internalNodes>
            0 -1 195 3.2498808577656746e-03</internalNodes>
          <leafValues>
            -8.9477258920669556e-01 7.1548983454704285e-02</leafValues></_>
        <_>
          <internalNodes>
            0 -1 288 5.4097995162010193e-02</internalNodes>
          <leafValues>
            -1.2964540719985962e-01 6.3369441032409668e-01</leafValues></_>
        <_>
          <internalNodes>
            0 -1 500 3.9435453712940216e-02</internalNodes>
          <leafValues>
            -1.7389820516109467e-01 4.8029404878616333e-01</leafValues></_>
        <_>
          <internalNodes>
            0 -1 239 1.1222731322050095e-02</internalNodes>
          <leafValues>
            5.0133472681045532e-01 -1.5519322454929352e-01</leafValues></_>
        <_>
          <internalNodes>
            0 -1 1 1.6912546008825302e-02</internalNodes>
          <leafValues>
            2.5094273686408997e-01 -3.0206799507141113e-01</leafValues></_>
        <_>
          <internalNodes>
            0 -1 582 9.2857237905263901e-03</internalNodes>
          <leafValues>
            -8.6678689718246460e-01 7.1091897785663605e-02</leafValues></_>
        <_>
          <internalNodes>
            0 -1 343 1.1313337832689285e-02</internalNodes>
          <leafValues>
            4.5193690061569214e-01 -1.9571258127689362e-01</leafValues></_>
        <_>
          <internalNodes>
            0 -1 251 6.8865105509757996e-02</internalNodes>
          <leafValues>
            8.6947456002235413e-02 -8.6472815275192261e-01</leafValues></_>
        <_>
          <internalNodes>
            0 -1 196 2.8472488746047020e-02</internalNodes>
          <leafValues>
            -2.4411605298519135e-01 2.6937711238861084e-01</leafValues></_>
        <_>
          <internalNodes>
            0 -1 345 1.7872499302029610e-02</internalNodes>
          <leafValues>
            3.1156396865844727e-01 -1.9296076893806458e-01</leafValues></_>
        <_>
          <internalNodes>
            0 -1 330 2.3783847689628601e-02</internalNodes>
          <leafValues>
            -2.5561660528182983e-01 2.3897260427474976e-01</leafValues></_>
        <_>
          <internalNodes>
            0 -1 220 4.2026959359645844e-02</internalNodes>
          <leafValues>
            -1.3741540908813477e-01 5.4667425155639648e-01</leafValues></_></weakClassifiers></_>
    <!-- stage 1 -->
    <_>
      <maxWeakCount>61</maxWeakCount>
      <stageThreshold>-4.8959082365036011e-01</stageThreshold>
      <weakClassifiers>
        <_>
          <internalNodes>
            0 -1 123 5.9069551527500153e-02</internalNodes>
          <leafValues>
            -4.9122807383537292e-01 4.6078431606292725e-01</leafValues></_>
        <_>
          <internalNodes>
            0 -1 501 2.0630799233913422e-02</internalNodes>
          <leafValues>
            -4.6813693642616272e-01 2.2970080375671387e-01</leafValues></_>
        <_>
          <internalNodes>
            0 -1 54 2.3900691419839859e-02</internalNodes>
          <leafValues>
            4.1314625740051270e-01 -2.7351585030555725e-01</leafValues></_>
        <_>
          <internalNodes>
            0 -1 327 4.5279767364263535e-02</internalNodes>
          <leafValues>
            -1.3778580725193024e-01 6.4924216270446777e-01</leafValues></_>
        <_>
          <internalNodes>
            0 -1 555 2.9078070074319839e-02</internalNodes>
          <leafValues>
            -2.3233202099800110e-01 3.2982781529426575e-01</leafValues></_>
        <_>
          <internalNodes>
            0 -1 284 5.5811636149883270e-02</internalNodes>
          <leafValues>
            1.0843422263860703e-01 -6.3754349946975708e-01</leafValues></_>
        <_>
          <internalNodes>
            0 -1 299 1.1992098763585091e-02</internalNodes>
          <leafValues>
            4.0118560194969177e-01 -2.4810248613357544e-01</leafValues></_>
        <_>
          <internalNodes>
            0 -1 435 3.3690672367811203e-02</internalNodes>
          <leafValues>
            1.2633083760738373e-01 -4.6386688947677612e-01</leafValues></_>
        <_>
          <internalNodes>
            0 -1 577 1.8720617517828941e-02</internalNodes>
          <leafValues>
            -6.0529696941375732e-01 1.1061301082372665e-01</leafValues></_>
        <_>
          <internalNodes>
            0 -1 68 7.3883473873138428e-02</internalNodes>
          <leafValues>
            -9.5125086605548859e-02 7.5760924816131592e-01</leafValues></_>
        <_>
          <internalNodes>
            0 -1 486 2.0139804109930992e-02</internalNodes>
          <leafValues>
            3.7831410765647888e-01 -1.4107687771320343e-01</leafValues></_>
        <_>
          <internalNodes>
            0 -1 139 7.7426237985491753e-03</internalNodes>
          <leafValues>
            3.7832039594650269e-01 -1.8249684572219849e-01</leafValues></_>
        <_>
          <internalNodes>
            0 -1 459 9.3302559107542038e-03</internalNodes>
          <leafValues>
            -7.0912003517150879e-01 8.5265971720218658e-02</leafValues></_>
        <_>
          <internalNodes>
            0 -1 387 3.5161126405000687e-02</internalNodes>
          <leafValues>
            -1.4963510632514954e-01 3.7366437911987305e-01</leafValues></_>
        <_>
          <internalNodes>
            0 -1 27 4.2752474546432495e-02</internalNodes>
          <leafValues>
            -1.3058978319168091e-01 4.6253874897956848e-01</leafValues></_>
        <_>
          <internalNodes>
            0 -1 305 2.9686011373996735e-02</internalNodes>
          <leafValues>
            1.3095346093177795e-01 -4.1523438692092896e-01</leafValues></_>
        <_>
          <internalNodes>
            0 -1 525 9.8297493532299995e-03</internalNodes>
          <leafValues>
            -7.3772817850112915e-01 7.2691991925239563e-02</leafValues></_>
        <_>
          <internalNodes>
            0 -1 557 6.6266134381294250e-02</internalNodes>
          <leafValues>
            4.6960931271314621e-02 -7.7713000774383545e-01</leafValues></_>
        <_>
          <internalNodes>
            0 -1 302 1.1913263238966465e-02</internalNodes>
          <leafValues>
            2.5804671645164490e-01 -2.1364820003509521e-01</leafValues></_>
        <_>
          <internalNodes>
            0 -1 440 3.3471874892711639e-02</internalNodes>
          <leafValues>
            -1.8335577845573425e-01 3.8322752714157104e-01</leafValues></_>
        <_>
          <internalNodes>
            0 -1 8 2.9444757848978043e-02</internalNodes>
          <leafValues>
            -2.1487204730510712e-01 2.5550982356071472e-01</leafValues></_>
        <_>
          <internalNodes>
            0 -1 81 1.2684086337685585e-02</internalNodes>
          <leafValues>
            2.9286226630210876e-01 -1.6706341505050659e-01</leafValues></_>
        <_>
          <internalNodes>
            0 -1 520 2.6103723794221878e-02</internalNodes>
          <leafValues>
            -1.9237215816974640e-01 2.8353533148765564e-01</leafValues></_>
        <_>
          <internalNodes>
            0 -1 474 2.9912330210208893e-02</internalNodes>
          <leafValues>
            2.0414687693119049e-01 -2.7033945918083191e-01</leafValues></_>
        <_>
          <internalNodes>
            0 -1 55 6.1432225629687309e-03</internalNodes>
          <leafValues>
            4.1923084855079651e-01 -1.2523388862609863e-01</leafValues></_>
        <_>
          <internalNodes>
            0 -1 372 4.6534720808267593e-02</internalNodes>
          <leafValues>
            -8.8926829397678375e-02 5.7127439975738525e-01</leafValues></_>
        <_>
          <internalNodes>
            0 -1 198 6.4883013255894184e-03</internalNodes>
          <leafValues>
            -8.2814091444015503e-01 6.2104001641273499e-02</leafValues></_>
        <_>
          <internalNodes>
            0 -1 344 1.4627548865973949e-02</internalNodes>
          <leafValues>
            4.4188305735588074e-01 -1.2615212798118591e-01</leafValues></_>
        <_>
          <internalNodes>
            0 -1 306 5.3087486885488033e-03</internalNodes>
          <leafValues>
            5.2533477544784546e-01 -8.4085509181022644e-02</leafValues></_>
        <_>
          <internalNodes>
            0 -1 486 5.2006494253873825e-02</internalNodes>
          <leafValues>
            9.4446659088134766e-02 -5.3146535158157349e-01</leafValues></_>
        <_>
          <internalNodes>
            0 -1 547 1.1692287400364876e-02</internalNodes>
          <leafValues>
            -4.9584534764289856e-01 1.0662501305341721e-01</leafValues></_>
        <_>
          <internalNodes>
            0 -1 389 3.8600318133831024e-02</internalNodes>
          <leafValues>
            -1.0082050412893295e-01 5.4541051387786865e-01</leafValues></_>
        <_>
          <internalNodes>
            0 -1 183 6.5306005999445915e-03</internalNodes>
          <leafValues>
            3.9856702089309692e-01 -1.1238145083189011e-01</leafValues></_>
        <_>
          <internalNodes>
            0 -1 214 2.7884945273399353e-02</internalNodes>
          <leafValues>
            1.5961956977844238e-01 -3.4193545579910278e-01</leafValues></_>
        <_>
          <internalNodes>
            0 -1 592 2.6227720081806183e-02</internalNodes>
          <leafValues>
            -2.0166917145252228e-01 2.4764761328697205e-01</leafValues></_>
        <_>
          <internalNodes>
            0 -1 560 1.2891091406345367e-02</internalNodes>
          <leafValues>
            -7.6985985040664673e-01 6.2819950282573700e-02</leafValues></_>
        <_>
          <internalNodes>
            0 -1 588 2.0424567162990570e-02</internalNodes>
          <leafValues>
            -3.0995446443557739e-01 1.3599686324596405e-01</leafValues></_>
        <_>
          <internalNodes>
            0 -1 332 8.7047703564167023e-03</internalNodes>
          <leafValues>
            4.0883228182792664e-01 -1.1328461766242981e-01</leafValues></_>
        <_>
          <internalNodes>
            0 -1 448 9.7644384950399399e-03</internalNodes>
          <leafValues>
            -7.0108938217163086e-01 7.4549287557601929e-02</leafValues></_>
        <_>
          <internalNodes>
            0 -1 508 1.9554175436496735e-02</internalNodes>
          <leafValues>
            2.0532695949077606e-01 -2.4401241540908813e-01</leafValues></_>
        <_>
          <internalNodes>
            0 -1 524 1.4278542250394821e-02</internalNodes>
          <leafValues>
            -3.5327947139739990e-01 1.3667564094066620e-01</leafValues></_>
        <_>
          <internalNodes>
            0 -1 78 6.4379416406154633e-02</internalNodes>
          <leafValues>
            -6.0777917504310608e-02 7.3772859573364258e-01</leafValues></_>
        <_>
          <internalNodes>
            0 -1 78 9.9979126825928688e-03</internalNodes>
          <leafValues>
            3.7357190251350403e-01 -1.1775064468383789e-01</leafValues></_>
        <_>
          <internalNodes>
            0 -1 277 2.0346486940979958e-02</internalNodes>
          <leafValues>
            -2.2432552278041840e-01 1.9080860912799835e-01</leafValues></_>
        <_>
          <internalNodes>
            0 -1 515 3.8951441645622253e-02</internalNodes>
          <leafValues>
            -1.0230250656604767e-01 3.9238053560256958e-01</leafValues></_>
        <_>
          <internalNodes>
            0 -1 108 3.2906502485275269e-02</internalNodes>
          <leafValues>
            -1.6746845841407776e-01 2.6476651430130005e-01</leafValues></_>
        <_>
          <internalNodes>
            0 -1 353 1.2394083663821220e-02</internalNodes>
          <leafValues>
            2.5110986828804016e-01 -1.6689886152744293e-01</leafValues></_>
        <_>
          <internalNodes>
            0 -1 221 2.9684718698263168e-02</internalNodes>
          <leafValues>
            -1.4270843565464020e-01 3.3917805552482605e-01</leafValues></_>
        <_>
          <internalNodes>
            0 -1 370 4.4543318450450897e-02</internalNodes>
          <leafValues>
            -9.9891774356365204e-02 4.9815532565116882e-01</leafValues></_>
        <_>
          <internalNodes>
            0 -1 582 6.2339804135262966e-03</internalNodes>
          <leafValues>
            -1. 4.5697167515754700e-02</leafValues></_>
        <_>
          <internalNodes>
            0 -1 433 3.3260028809309006e-02</internalNodes>
          <leafValues>
            -2.2641995549201965e-01 1.8930129706859589e-01</leafValues></_>
        <_>
          <internalNodes>
            0 -1 461 1.8219947814941406e-02</internalNodes>
          <leafValues>
            4.4674894213676453e-01 -9.9533826112747192e-02</leafValues></_>
        <_>
          <internalNodes>
            0 -1 231 2.4599138647317886e-02</internalNodes>
          <leafValues>
            1.4906565845012665e-01 -2.9692420363426208e-01</leafValues></_>
        <_>
          <internalNodes>
            0 -1 59 2.0659305155277252e-02</internalNodes>
          <leafValues>
            2.5307101011276245e-01 -1.6055759787559509e-01</leafValues></_>
        <_>
          <internalNodes>
            0 -1 482 1.1192036792635918e-02</internalNodes>
          <leafValues>
            -6.0658353567123413e-01 7.2033740580081940e-02</leafValues></_>
        <_>
          <internalNodes>
            0 -1 126 1.2192195281386375e-02</internalNodes>
          <leafValues>
            2.6729044318199158e-01 -1.6972310841083527e-01</leafValues></_>
        <_>
          <internalNodes>
            0 -1 264 5.6360419839620590e-02</internalNodes>
          <leafValues>
            -5.9279445558786392e-02 7.6011610031127930e-01</leafValues></_>
        <_>
          <internalNodes>
            0 -1 8 1.9473439082503319e-02</internalNodes>
          <leafValues>
            -2.8457033634185791e-01 1.4067842066287994e-01</leafValues></_>
        <_>
          <internalNodes>
            0 -1 148 2.3857675492763519e-02</internalNodes>
          <leafValues>
            1.6599334776401520e-01 -2.8211084008216858e-01</leafValues></_>
        <_>
          <internalNodes>
            0 -1 254 1.0526131838560104e-02</internalNodes>
          <leafValues>
            -4.8814117908477783e-01 1.0175850987434387e-01</leafValues></_>
        <_>
          <internalNodes>
            0 -1 357 1.8534786999225616e-02</internalNodes>
          <leafValues>
            -3.1025907397270203e-01 1.3775041699409485e-01</leafValues></_></weakClassifiers></_>
    <!-- stage 2 -->
    <_>
      <maxWeakCount>87</maxWeakCount>
      <stageThreshold>-3.4448048472404480e-01</stageThreshold>
      <weakClassifiers>
        <_>
          <internalNodes>
            0 -1 52 4.4941850006580353e-02</internalNodes>
          <leafValues>
            -4.7257384657859802e-01 1.3475176692008972e-01</leafValues></_>
        <_>
          <internalNodes>
            0 -1 577 2.1750692278146744e-02</internalNodes>
          <leafValues>
            -5.0928765535354614e-01 1.1020162701606750e-01</leafValues></_>
        <_>
          <internalNodes>
            0 -1 595 9.9104922264814377e-03</internalNodes>
          <leafValues>
            -6.4782810211181641e-01 9.9491007626056671e-02</leafValues></_>
        <_>
          <internalNodes>
            0 -1 143 1.5438398346304893e-02</internalNodes>
          <leafValues>
            2.6782491803169250e-01 -2.7504476904869080e-01</leafValues></_>
        <_>
          <internalNodes>
            0 -1 351 3.4451089799404144e-02</internalNodes>
          <leafValues>
            1.5865516662597656e-01 -3.5033190250396729e-01</leafValues></_>
        <_>
          <internalNodes>
            0 -1 599 8.3144959062337875e-03</internalNodes>
          <leafValues>
            -7.6448267698287964e-01 4.1442129760980606e-02</leafValues></_>
        <_>
          <internalNodes>
            0 -1 493 3.6292992532253265e-02</internalNodes>
          <leafValues>
            -1.4175216853618622e-01 3.7922990322113037e-01</leafValues></_>
        <_>
          <internalNodes>
            0 -1 381 3.1749613583087921e-02</internalNodes>
          <leafValues>
            1.1085241287946701e-01 -3.7659046053886414e-01</leafValues></_>
        <_>
          <internalNodes>
            0 -1 587 1.9448172301054001e-02</internalNodes>
          <leafValues>
            -4.1215661168098450e-01 1.5534478425979614e-01</leafValues></_>
        <_>
          <internalNodes>
            0 -1 376 1.9936284050345421e-02</internalNodes>
          <leafValues>
            1.1996719241142273e-01 -3.2219877839088440e-01</leafValues></_>
        <_>
          <internalNodes>
            0 -1 521 7.9836640506982803e-03</internalNodes>
          <leafValues>
            -4.9256405234336853e-01 7.3593869805335999e-02</leafValues></_>
        <_>
          <internalNodes>
            0 -1 3 1.5709873288869858e-02</internalNodes>
          <leafValues>
            1.9730460643768311e-01 -2.1753320097923279e-01</leafValues></_>
        <_>
          <internalNodes>
            0 -1 491 9.3147614970803261e-03</internalNodes>
          <leafValues>
            -4.5605051517486572e-01 8.0595880746841431e-02</leafValues></_>
        <_>
          <internalNodes>
            0 -1 145 1.2254968285560608e-02</internalNodes>
          <leafValues>
            2.5800827145576477e-01 -1.8317787349224091e-01</leafValues></_>
        <_>
          <internalNodes>
            0 -1 130 6.2711555510759354e-03</internalNodes>
          <leafValues>
            -5.0462490320205688e-01 7.8949391841888428e-02</leafValues></_>
        <_>
          <internalNodes>
            0 -1 311 2.1496692672371864e-02</internalNodes>
          <leafValues>
            -2.3461496829986572e-01 1.6255666315555573e-01</leafValues></_>
        <_>
          <internalNodes>
            0 -1 75 7.8213714063167572e-02</internalNodes>
          <leafValues>
            -3.8522489368915558e-02 8.5655659437179565e-01</leafValues></_>
        <_>
          <internalNodes>
            0 -1 302 1.1855806224048138e-02</internalNodes>
          <leafValues>
            2.0150697231292725e-01 -1.6710361838340759e-01</leafValues></_>
        <_>
          <internalNodes>
            0 -1 578 1.7443895339965820e-02</internalNodes>
          <leafValues>
            -3.7169843912124634e-01 1.0376767069101334e-01</leafValues></_>
        <_>
          <internalNodes>
            0 -1 308 1.0896213352680206e-02</internalNodes>
          <leafValues>
            2.6707038283348083e-01 -1.5181568264961243e-01</leafValues></_>
        <_>
          <internalNodes>
            0 -1 506 6.2564346008002758e-03</internalNodes>
          <leafValues>
            -8.9400982856750488e-01 3.8686737418174744e-02</leafValues></_>
        <_>
          <internalNodes>
            0 -1 402 6.5413430333137512e-02</internalNodes>
          <leafValues>
            3.6161608994007111e-02 -6.8427747488021851e-01</leafValues></_>
        <_>
          <internalNodes>
            0 -1 72 8.2656443119049072e-03</internalNodes>
          <leafValues>
            2.6743108034133911e-01 -1.4227111637592316e-01</leafValues></_>
        <_>
          <internalNodes>
            0 -1 480 7.9343140125274658e-02</internalNodes>
          <leafValues>
            3.2623030245304108e-02 -9.6657514572143555e-01</leafValues></_>
        <_>
          <internalNodes>
            0 -1 598 2.0484015345573425e-02</internalNodes>
          <leafValues>
            -2.0145776867866516e-01 1.5666389465332031e-01</leafValues></_>
        <_>
          <internalNodes>
            0 -1 424 3.3413268625736237e-02</internalNodes>
          <leafValues>
            -1.5082414448261261e-01 2.1687255799770355e-01</leafValues></_>
        <_>
          <internalNodes>
            0 -1 138 9.6233002841472626e-03</internalNodes>
          <leafValues>
            -4.8635804653167725e-01 6.4335070550441742e-02</leafValues></_>
        <_>
          <internalNodes>
            0 -1 257 5.1380559802055359e-02</internalNodes>
          <leafValues>
            -5.4485492408275604e-02 5.7468038797378540e-01</leafValues></_>
        <_>
          <internalNodes>
            0 -1 365 5.3304404020309448e-02</internalNodes>
          <leafValues>
            -6.6925965249538422e-02 4.3717163801193237e-01</leafValues></_>
        <_>
          <internalNodes>
            0 -1 495 2.6901187375187874e-02</internalNodes>
          <leafValues>
            1.5009373426437378e-01 -2.3140090703964233e-01</leafValues></_>
        <_>
          <internalNodes>
            0 -1 362 5.3370264358818531e-03</internalNodes>
          <leafValues>
            -6.2737053632736206e-01 5.7550508528947830e-02</leafValues></_>
        <_>
          <internalNodes>
            0 -1 558 4.2066477239131927e-02</internalNodes>
          <leafValues>
            -8.6196258664131165e-02 3.8031804561614990e-01</leafValues></_>
        <_>
          <internalNodes>
            0 -1 498 7.8862207010388374e-03</internalNodes>
          <leafValues>
            -9.2979919910430908e-01 3.5835459828376770e-02</leafValues></_>
        <_>
          <internalNodes>
            0 -1 589 3.0641317367553711e-02</internalNodes>
          <leafValues>
            1.0545848309993744e-01 -2.5933861732482910e-01</leafValues></_>
        <_>
          <internalNodes>
            0 -1 436 6.7331358790397644e-02</internalNodes>
          <leafValues>
            4.7847811132669449e-02 -6.9591146707534790e-01</leafValues></_>
        <_>
          <internalNodes>
            0 -1 317 3.4309938549995422e-02</internalNodes>
          <leafValues>
            -1.8078896403312683e-01 1.8786221742630005e-01</leafValues></_>
        <_>
          <internalNodes>
            0 -1 291 4.2852848768234253e-02</internalNodes>
          <leafValues>
            9.5020242035388947e-02 -3.2249784469604492e-01</leafValues></_>
        <_>
          <internalNodes>
            0 -1 499 4.0546968579292297e-02</internalNodes>
          <leafValues>
            -1.1119851469993591e-01 3.2952612638473511e-01</leafValues></_>
        <_>
          <internalNodes>
            0 -1 507 2.0564563572406769e-02</internalNodes>
          <leafValues>
            1.5842321515083313e-01 -2.3831117153167725e-01</leafValues></_>
        <_>
          <internalNodes>
            0 -1 11 2.5574728846549988e-02</internalNodes>
          <leafValues>
            -1.7773027718067169e-01 2.0351812243461609e-01</leafValues></_>
        <_>
          <internalNodes>
            0 -1 278 7.2615027427673340e-02</internalNodes>
          <leafValues>
            -5.2941285073757172e-02 5.6089550256729126e-01</leafValues></_>
        <_>
          <internalNodes>
            0 -1 394 6.2429616227746010e-03</internalNodes>
          <leafValues>
            -7.6841747760772705e-01 4.1548077017068863e-02</leafValues></_>
        <_>
          <internalNodes>
            0 -1 378 2.2476639598608017e-02</internalNodes>
          <leafValues>
            1.4249628782272339e-01 -2.0424231886863708e-01</leafValues></_>
        <_>
          <internalNodes>
            0 -1 282 1.6805385239422321e-03</internalNodes>
          <leafValues>
            7.7409535646438599e-01 -3.8089677691459656e-02</leafValues></_>
        <_>
          <internalNodes>
            0 -1 136 7.1772467344999313e-03</internalNodes>
          <leafValues>
            -5.0372231006622314e-01 6.6993661224842072e-02</leafValues></_>
        <_>
          <internalNodes>
            0 -1 397 9.9372221156954765e-03</internalNodes>
          <leafValues>
            -5.0413984060287476e-01 5.0268772989511490e-02</leafValues></_>
        <_>
          <internalNodes>
            0 -1 53 1.2958792038261890e-02</internalNodes>
          <leafValues>
            2.8382730484008789e-01 -9.4763025641441345e-02</leafValues></_>
        <_>
          <internalNodes>
            0 -1 553 4.2723033577203751e-02</internalNodes>
          <leafValues>
            8.5470736026763916e-02 -3.0500835180282593e-01</leafValues></_>
        <_>
          <internalNodes>
            0 -1 106 1.2354511767625809e-02</internalNodes>
          <leafValues>
            2.7042880654335022e-01 -1.1536220461130142e-01</leafValues></_>
        <_>
          <internalNodes>
            0 -1 432 1.5209640376269817e-02</internalNodes>
          <leafValues>
            -3.3458551764488220e-01 8.4245398640632629e-02</leafValues></_>
        <_>
          <internalNodes>
            0 -1 434 3.2625321298837662e-02</internalNodes>
          <leafValues>
            7.8173078596591949e-02 -4.1029509902000427e-01</leafValues></_>
        <_>
          <internalNodes>
            0 -1 31 3.9051533676683903e-03</internalNodes>
          <leafValues>
            4.2874082922935486e-01 -8.0277770757675171e-02</leafValues></_>
        <_>
          <internalNodes>
            0 -1 503 4.3885495513677597e-02</internalNodes>
          <leafValues>
            5.9882890433073044e-02 -5.2936184406280518e-01</leafValues></_>
        <_>
          <internalNodes>
            0 -1 528 4.3839845806360245e-02</internalNodes>
          <leafValues>
            5.7253584265708923e-02 -4.5660296082496643e-01</leafValues></_>
        <_>
          <internalNodes>
            0 -1 514 2.6450702920556068e-02</internalNodes>
          <leafValues>
            -1.6478748619556427e-01 1.8875525891780853e-01</leafValues></_>
        <_>
          <internalNodes>
            0 -1 22 2.2510956972837448e-02</internalNodes>
          <leafValues>
            -2.8096270561218262e-01 1.0797044634819031e-01</leafValues></_>
        <_>
          <internalNodes>
            0 -1 99 3.9755120873451233e-02</internalNodes>
          <leafValues>
            1.0579262673854828e-01 -3.0889987945556641e-01</leafValues></_>
        <_>
          <internalNodes>
            0 -1 360 1.2554170563817024e-02</internalNodes>
          <leafValues>
            -4.2976093292236328e-01 6.3623286783695221e-02</leafValues></_>
        <_>
          <internalNodes>
            0 -1 235 9.5235481858253479e-03</internalNodes>
          <leafValues>
            2.5284028053283691e-01 -1.3306435942649841e-01</leafValues></_>
        <_>
          <internalNodes>
            0 -1 129 3.2955005764961243e-02</internalNodes>
          <leafValues>
            -1.0045620054006577e-01 2.8060233592987061e-01</leafValues></_>
        <_>
          <internalNodes>
            0 -1 596 1.9727643579244614e-02</internalNodes>
          <leafValues>
            1.8148311972618103e-01 -1.7502897977828979e-01</leafValues></_>
        <_>
          <internalNodes>
            0 -1 491 6.5086288377642632e-03</internalNodes>
          <leafValues>
            -5.9521710872650146e-01 4.9428809434175491e-02</leafValues></_>
        <_>
          <internalNodes>
            0 -1 107 1.2064308859407902e-02</internalNodes>
          <leafValues>
            3.0672848224639893e-01 -9.6865303814411163e-02</leafValues></_>
        <_>
          <internalNodes>
            0 -1 75 6.8445511162281036e-02</internalNodes>
          <leafValues>
            -4.8765610903501511e-02 6.2066501379013062e-01</leafValues></_>
        <_>
          <internalNodes>
            0 -1 217 4.2903367429971695e-03</internalNodes>
          <leafValues>
            -6.8503433465957642e-01 4.4583953917026520e-02</leafValues></_>
        <_>
          <internalNodes>
            0 -1 372 5.5284570902585983e-02</internalNodes>
          <leafValues>
            -5.4739482700824738e-02 5.5809515714645386e-01</leafValues></_>
        <_>
          <internalNodes>
            0 -1 187 1.3246115297079086e-02</internalNodes>
          <leafValues>
            2.0738945901393890e-01 -1.3262806832790375e-01</leafValues></_>
        <_>
          <internalNodes>
            0 -1 600 3.4398663789033890e-02</internalNodes>
          <leafValues>
            -1.1960610002279282e-01 2.5965094566345215e-01</leafValues></_>
        <_>
          <internalNodes>
            0 -1 321 1.3317257165908813e-02</internalNodes>
          <leafValues>
            3.1538772583007813e-01 -7.9460024833679199e-02</leafValues></_>
        <_>
          <internalNodes>
            0 -1 424 1.4100428670644760e-02</internalNodes>
          <leafValues>
            -5.3233277797698975e-01 6.0474492609500885e-02</leafValues></_>
        <_>
          <internalNodes>
            0 -1 41 9.7961481660604477e-03</internalNodes>
          <leafValues>
            -4.8730975389480591e-01 4.8238985240459442e-02</leafValues></_>
        <_>
          <internalNodes>
            0 -1 380 3.3312063664197922e-02</internalNodes>
          <leafValues>
            8.3017677068710327e-02 -3.0630341172218323e-01</leafValues></_>
        <_>
          <internalNodes>
            0 -1 165 2.4511264637112617e-03</internalNodes>
          <leafValues>
            -7.8729319572448730e-01 3.1703799962997437e-02</leafValues></_>
        <_>
          <internalNodes>
            0 -1 392 1.8261063843965530e-02</internalNodes>
          <leafValues>
            -2.3179835081100464e-01 1.2131395936012268e-01</leafValues></_>
        <_>
          <internalNodes>
            0 -1 73 2.2455263882875443e-02</internalNodes>
          <leafValues>
            1.4122062921524048e-01 -2.2265625000000000e-01</leafValues></_>
        <_>
          <internalNodes>
            0 -1 587 2.3388311266899109e-02</internalNodes>
          <leafValues>
            -2.4013532698154449e-01 1.3125260174274445e-01</leafValues></_>
        <_>
          <internalNodes>
            0 -1 17 2.1848333999514580e-02</internalNodes>
          <leafValues>
            1.3669405877590179e-01 -2.4021692574024200e-01</leafValues></_>
        <_>
          <internalNodes>
            0 -1 396 2.1357163786888123e-02</internalNodes>
          <leafValues>
            -1.7450065910816193e-01 1.6034542024135590e-01</leafValues></_>
        <_>
          <internalNodes>
            0 -1 155 4.8052328638732433e-03</internalNodes>
          <leafValues>
            -8.8750350475311279e-01 3.5455323755741119e-02</leafValues></_>
        <_>
          <internalNodes>
            0 -1 306 3.1866380013525486e-03</internalNodes>
          <leafValues>
            4.1822096705436707e-01 -7.1373514831066132e-02</leafValues></_>
        <_>
          <internalNodes>
            0 -1 135 5.0694551318883896e-03</internalNodes>
          <leafValues>
            4.5566776394844055e-01 -5.7287298142910004e-02</leafValues></_>
        <_>
          <internalNodes>
            0 -1 472 1.1877071112394333e-02</internalNodes>
          <leafValues>
            -3.4648102521896362e-01 8.5985288023948669e-02</leafValues></_>
        <_>
          <internalNodes>
            0 -1 279 6.9002605974674225e-02</internalNodes>
          <leafValues>
            -6.7264840006828308e-02 4.8276898264884949e-01</leafValues></_>
        <_>
          <internalNodes>
            0 -1 375 2.9544066637754440e-02</internalNodes>
          <leafValues>
            8.7449952960014343e-02 -3.7855786085128784e-01</leafValues></_>
        <_>
          <internalNodes>
            0 -1 594 7.3741339147090912e-02</internalNodes>
          <leafValues>
            3.4315027296543121e-02 -7.8726226091384888e-01</leafValues></_>
        <_>
          <internalNodes>
            0 -1 189 1.2209720909595490e-02</internalNodes>
          <leafValues>
            2.1892993152141571e-01 -1.4957925677299500e-01</leafValues></_>
        <_>
          <internalNodes>
            0 -1 336 3.8616582751274109e-02</internalNodes>
          <leafValues>
            -1.0210969299077988e-01 2.8657162189483643e-01</leafValues></_></weakClassifiers></_>
    <!-- stage 3 -->
    <_>
      <maxWeakCount>100</maxWeakCount>
      <stageThreshold>-4.4846144318580627e-01</stageThreshold>
      <weakClassifiers>
        <_>
          <internalNodes>
            0 -1 339 2.6077726855874062e-02</internalNodes>
          <leafValues>
            -5.4103344678878784e-01 -9.4405591487884521e-02</leafValues></_>
        <_>
          <internalNodes>
            0 -1 153 7.3455803096294403e-02</internalNodes>
          <leafValues>
            -1.1169532686471939e-01 5.7504892349243164e-01</leafValues></_>
        <_>
          <internalNodes>
            0 -1 381 1.9745115190744400e-02</internalNodes>
          <leafValues>
            2.0541532337665558e-01 -2.0903187990188599e-01</leafValues></_>
        <_>
          <internalNodes>
            0 -1 471 1.0688200592994690e-02</internalNodes>
          <leafValues>
            -4.2674979567527771e-01 8.3778612315654755e-02</leafValues></_>
        <_>
          <internalNodes>
            0 -1 71 1.6935892403125763e-02</internalNodes>
          <leafValues>
            1.9924327731132507e-01 -2.4986824393272400e-01</leafValues></_>
        <_>
          <internalNodes>
            0 -1 450 3.5003621131181717e-02</internalNodes>
          <leafValues>
            -1.7443394660949707e-01 2.0898424088954926e-01</leafValues></_>
        <_>
          <internalNodes>
            0 -1 388 1.6020864248275757e-02</internalNodes>
          <leafValues>
            -3.1056445837020874e-01 1.2061771005392075e-01</leafValues></_>
        <_>
          <internalNodes>
            0 -1 449 1.9214157015085220e-02</internalNodes>
          <leafValues>
            1.5231055021286011e-01 -2.2498054802417755e-01</leafValues></_>
        <_>
          <internalNodes>
            0 -1 266 1.3202697969973087e-02</internalNodes>
          <leafValues>
            -2.6427584886550903e-01 1.1416268348693848e-01</leafValues></_>
        <_>
          <internalNodes>
            0 -1 408 3.3857192844152451e-02</internalNodes>
          <leafValues>
            -1.1471126973628998e-01 3.1086960434913635e-01</leafValues></_>
        <_>
          <internalNodes>
            0 -1 301 4.2344935238361359e-02</internalNodes>
          <leafValues>
            -8.4842614829540253e-02 3.4996464848518372e-01</leafValues></_>
        <_>
          <internalNodes>
            0 -1 376 9.6788322553038597e-03</internalNodes>
          <leafValues>
            2.0187319815158844e-01 -1.5196119248867035e-01</leafValues></_>
        <_>
          <internalNodes>
            0 -1 225 3.8214981555938721e-02</internalNodes>
          <leafValues>
            8.8966958224773407e-02 -3.4660741686820984e-01</leafValues></_>
        <_>
          <internalNodes>
            0 -1 437 7.8435279428958893e-03</internalNodes>
          <leafValues>
            -5.7718628644943237e-01 5.0252810120582581e-02</leafValues></_>
        <_>
          <internalNodes>
            0 -1 371 1.3528190553188324e-02</internalNodes>
          <leafValues>
            1.5912507474422455e-01 -1.8297576904296875e-01</leafValues></_>
        <_>
          <internalNodes>
            0 -1 228 3.5132840275764465e-02</internalNodes>
          <leafValues>
            -1.2343646585941315e-01 2.2212705016136169e-01</leafValues></_>
        <_>
          <internalNodes>
            0 -1 9 2.9179068282246590e-02</internalNodes>
          <leafValues>
            -2.0134401321411133e-01 1.3898918032646179e-01</leafValues></_>
        <_>
          <internalNodes>
            0 -1 516 2.1994207054376602e-02</internalNodes>
          <leafValues>
            -2.1687826514244080e-01 1.2522314488887787e-01</leafValues></_>
        <_>
          <internalNodes>
            0 -1 346 1.6718812286853790e-02</internalNodes>
          <leafValues>
            -2.2730879485607147e-01 1.1700288206338882e-01</leafValues></_>
        <_>
          <internalNodes>
            0 -1 327 7.0245503447949886e-03</internalNodes>
          <leafValues>
            3.6652094125747681e-01 -8.4402367472648621e-02</leafValues></_>
        <_>
          <internalNodes>
            0 -1 575 4.9842689186334610e-02</internalNodes>
          <leafValues>
            4.3886084109544754e-02 -7.1923440694808960e-01</leafValues></_>
        <_>
          <internalNodes>
            0 -1 519 4.5015171170234680e-02</internalNodes>
          <leafValues>
            -8.0938629806041718e-02 3.4237229824066162e-01</leafValues></_>
        <_>
          <internalNodes>
            0 -1 574 1.3459328562021255e-02</internalNodes>
          <leafValues>
            -3.3348017930984497e-01 8.1637725234031677e-02</leafValues></_>
        <_>
          <internalNodes>
            0 -1 1 1.4436642639338970e-02</internalNodes>
          <leafValues>
            1.5194784104824066e-01 -1.7683653533458710e-01</leafValues></_>
        <_>
          <internalNodes>
            0 -1 179 6.3419729471206665e-02</internalNodes>
          <leafValues>
            5.0355456769466400e-02 -5.4975324869155884e-01</leafValues></_>
        <_>
          <internalNodes>
            0 -1 182 8.1457644701004028e-03</internalNodes>
          <leafValues>
            2.2141616046428680e-01 -1.2600134313106537e-01</leafValues></_>
        <_>
          <internalNodes>
            0 -1 103 1.2692749500274658e-02</internalNodes>
          <leafValues>
            -3.2578554749488831e-01 7.1730688214302063e-02</leafValues></_>
        <_>
          <internalNodes>
            0 -1 218 1.5515105798840523e-02</internalNodes>
          <leafValues>
            2.5600397586822510e-01 -1.0241591930389404e-01</leafValues></_>
        <_>
          <internalNodes>
            0 -1 216 2.6459883898496628e-02</internalNodes>
          <leafValues>
            1.3248778879642487e-01 -2.0098596811294556e-01</leafValues></_>
        <_>
          <internalNodes>
            0 -1 522 4.3000816367566586e-03</internalNodes>
          <leafValues>
            -8.6175626516342163e-01 2.7931137010455132e-02</leafValues></_>
        <_>
          <internalNodes>
            0 -1 68 7.0804387331008911e-02</internalNodes>
          <leafValues>
            -7.0784337818622589e-02 4.0474748611450195e-01</leafValues></_>
        <_>
          <internalNodes>
            0 -1 141 6.9953620433807373e-02</internalNodes>
          <leafValues>
            2.7895903214812279e-02 -8.1163620948791504e-01</leafValues></_>
        <_>
          <internalNodes>
            0 -1 459 9.3684839084744453e-03</internalNodes>
          <leafValues>
            -4.8111355304718018e-01 4.1009850800037384e-02</leafValues></_>
        <_>
          <internalNodes>
            0 -1 561 3.6501765251159668e-02</internalNodes>
          <leafValues>
            -9.3812093138694763e-02 2.3756852746009827e-01</leafValues></_>
        <_>
          <internalNodes>
            0 -1 375 1.9885964691638947e-02</internalNodes>
          <leafValues>
            9.8623625934123993e-02 -2.4007907509803772e-01</leafValues></_>
        <_>
          <internalNodes>
            0 -1 137 2.7862619608640671e-02</internalNodes>
          <leafValues>
            1.2738108634948730e-01 -1.7407813668251038e-01</leafValues></_>
        <_>
          <internalNodes>
            0 -1 473 1.1311061680316925e-02</internalNodes>
          <leafValues>
            -4.6617576479911804e-01 4.8258721828460693e-02</leafValues></_>
        <_>
          <internalNodes>
            0 -1 338 1.7984509468078613e-02</internalNodes>
          <leafValues>
            1.7804029583930969e-01 -1.4221526682376862e-01</leafValues></_>
        <_>
          <internalNodes>
            0 -1 325 5.3625732660293579e-02</internalNodes>
          <leafValues>
            -5.7199772447347641e-02 3.9309349656105042e-01</leafValues></_>
        <_>
          <internalNodes>
            0 -1 331 3.4827254712581635e-02</internalNodes>
          <leafValues>
            -9.0624727308750153e-02 2.4059404432773590e-01</leafValues></_>
        <_>
          <internalNodes>
            0 -1 67 3.1275865621864796e-03</internalNodes>
          <leafValues>
            -8.8413733243942261e-01 2.8104212135076523e-02</leafValues></_>
        <_>
          <internalNodes>
            0 -1 546 2.2464189678430557e-02</internalNodes>
          <leafValues>
            -1.5764570236206055e-01 1.4114734530448914e-01</leafValues></_>
        <_>
          <internalNodes>
            0 -1 429 2.7094710618257523e-02</internalNodes>
          <leafValues>
            -1.3690122961997986e-01 2.1268148720264435e-01</leafValues></_>
        <_>
          <internalNodes>
            0 -1 576 4.3758630752563477e-02</internalNodes>
          <leafValues>
            -8.6401447653770447e-02 2.6550078392028809e-01</leafValues></_>
        <_>
          <internalNodes>
            0 -1 565 4.4440478086471558e-02</internalNodes>
          <leafValues>
            -5.2498433738946915e-02 4.5964056253433228e-01</leafValues></_>
        <_>
          <internalNodes>
            0 -1 460 3.5812363028526306e-02</internalNodes>
          <leafValues>
            -8.0257005989551544e-02 2.8773039579391479e-01</leafValues></_>
        <_>
          <internalNodes>
            0 -1 252 1.5528052113950253e-02</internalNodes>
          <leafValues>
            -2.5567826628684998e-01 9.3965254724025726e-02</leafValues></_>
        <_>
          <internalNodes>
            0 -1 333 1.5725847333669662e-02</internalNodes>
          <leafValues>
            2.0880508422851563e-01 -1.0568510740995407e-01</leafValues></_>
        <_>
          <internalNodes>
            0 -1 123 6.3004055991768837e-03</internalNodes>
          <leafValues>
            -6.4716547727584839e-01 3.5930182784795761e-02</leafValues></_>
        <_>
          <internalNodes>
            0 -1 248 2.7408070862293243e-02</internalNodes>
          <leafValues>
            -1.6159634292125702e-01 1.2967735528945923e-01</leafValues></_>
        <_>
          <internalNodes>
            0 -1 91 5.4706834256649017e-02</internalNodes>
          <leafValues>
            -5.5961348116397858e-02 4.2482060194015503e-01</leafValues></_>
        <_>
          <internalNodes>
            0 -1 526 4.3939866125583649e-02</internalNodes>
          <leafValues>
            -8.3807855844497681e-02 2.8770107030868530e-01</leafValues></_>
        <_>
          <internalNodes>
            0 -1 115 4.5503560453653336e-02</internalNodes>
          <leafValues>
            9.1020748019218445e-02 -3.0522000789642334e-01</leafValues></_>
        <_>
          <internalNodes>
            0 -1 322 1.4078514650464058e-02</internalNodes>
          <leafValues>
            2.9227676987648010e-01 -7.9834885895252228e-02</leafValues></_>
        <_>
          <internalNodes>
            0 -1 307 1.4771090820431709e-02</internalNodes>
          <leafValues>
            2.4840025603771210e-01 -8.7362304329872131e-02</leafValues></_>
        <_>
          <internalNodes>
            0 -1 426 3.6459796130657196e-02</internalNodes>
          <leafValues>
            5.6635081768035889e-02 -4.2238339781761169e-01</leafValues></_>
        <_>
          <internalNodes>
            0 -1 572 2.1243598312139511e-02</internalNodes>
          <leafValues>
            1.0274281352758408e-01 -2.2601981461048126e-01</leafValues></_>
        <_>
          <internalNodes>
            0 -1 492 1.3771904632449150e-02</internalNodes>
          <leafValues>
            -2.6507893204689026e-01 1.0481288284063339e-01</leafValues></_>
        <_>
          <internalNodes>
            0 -1 445 4.3980043381452560e-02</internalNodes>
          <leafValues>
            -4.7048129141330719e-02 5.3074491024017334e-01</leafValues></_>
        <_>
          <internalNodes>
            0 -1 431 1.6885254532098770e-02</internalNodes>
          <leafValues>
            1.8064925074577332e-01 -1.2749345600605011e-01</leafValues></_>
        <_>
          <internalNodes>
            0 -1 197 3.8846328854560852e-02</internalNodes>
          <leafValues>
            -8.0938182771205902e-02 3.0506351590156555e-01</leafValues></_>
        <_>
          <internalNodes>
            0 -1 462 7.7063450589776039e-03</internalNodes>
          <leafValues>
            -7.7002060413360596e-01 3.2215658575296402e-02</leafValues></_>
        <_>
          <internalNodes>
            0 -1 97 1.0697484016418457e-02</internalNodes>
          <leafValues>
            -3.2629746198654175e-01 6.5052621066570282e-02</leafValues></_>
        <_>
          <internalNodes>
            0 -1 186 3.8219213485717773e-02</internalNodes>
          <leafValues>
            6.8635821342468262e-02 -3.7937906384468079e-01</leafValues></_>
        <_>
          <internalNodes>
            0 -1 128 1.2814017012715340e-02</internalNodes>
          <leafValues>
            2.9175072908401489e-01 -7.8112170100212097e-02</leafValues></_>
        <_>
          <internalNodes>
            0 -1 570 2.3625034838914871e-02</internalNodes>
          <leafValues>
            -1.2223432213068008e-01 1.6842968761920929e-01</leafValues></_>
        <_>
          <internalNodes>
            0 -1 300 2.0566720515489578e-02</internalNodes>
          <leafValues>
            1.2460563331842422e-01 -1.9207119941711426e-01</leafValues></_>
        <_>
          <internalNodes>
            0 -1 334 1.5025164466351271e-03</internalNodes>
          <leafValues>
            6.9330149888992310e-01 -3.5459332168102264e-02</leafValues></_>
        <_>
          <internalNodes>
            0 -1 277 1.7793923616409302e-02</internalNodes>
          <leafValues>
            -1.9978094100952148e-01 1.1888422816991806e-01</leafValues></_>
        <_>
          <internalNodes>
            0 -1 559 3.9877042174339294e-02</internalNodes>
          <leafValues>
            -9.9217280745506287e-02 2.8417554497718811e-01</leafValues></_>
        <_>
          <internalNodes>
            0 -1 30 1.5160161070525646e-02</internalNodes>
          <leafValues>
            1.6333298385143280e-01 -1.4602828025817871e-01</leafValues></_>
        <_>
          <internalNodes>
            0 -1 479 1.1742621660232544e-02</internalNodes>
          <leafValues>
            -4.2110762000083923e-01 7.9221569001674652e-02</leafValues></_>
        <_>
          <internalNodes>
            0 -1 262 7.9519730061292648e-03</internalNodes>
          <leafValues>
            -4.4313409924507141e-01 4.7095570713281631e-02</leafValues></_>
        <_>
          <internalNodes>
            0 -1 511 4.3693326413631439e-02</internalNodes>
          <leafValues>
            -9.2026032507419586e-02 2.3347656428813934e-01</leafValues></_>
        <_>
          <internalNodes>
            0 -1 172 2.8348151594400406e-02</internalNodes>
          <leafValues>
            1.4728453755378723e-01 -1.7464943230152130e-01</leafValues></_>
        <_>
          <internalNodes>
            0 -1 321 6.8540006875991821e-02</internalNodes>
          <leafValues>
            5.3013846278190613e-02 -4.2593252658843994e-01</leafValues></_>
        <_>
          <internalNodes>
            0 -1 88 6.8670168519020081e-02</internalNodes>
          <leafValues>
            -5.8081340044736862e-02 4.2860108613967896e-01</leafValues></_>
        <_>
          <internalNodes>
            0 -1 586 1.1091200634837151e-02</internalNodes>
          <leafValues>
            -5.3883755207061768e-01 4.2820032685995102e-02</leafValues></_>
        <_>
          <internalNodes>
            0 -1 539 7.3098838329315186e-02</internalNodes>
          <leafValues>
            -4.1477020829916000e-02 5.9571307897567749e-01</leafValues></_>
        <_>
          <internalNodes>
            0 -1 158 4.5080348849296570e-02</internalNodes>
          <leafValues>
            -9.0114176273345947e-02 2.7528741955757141e-01</leafValues></_>
        <_>
          <internalNodes>
            0 -1 215 7.9809024930000305e-02</internalNodes>
          <leafValues>
            3.5645216703414917e-02 -6.7971795797348022e-01</leafValues></_>
        <_>
          <internalNodes>
            0 -1 140 1.2572728097438812e-02</internalNodes>
          <leafValues>
            1.7941102385520935e-01 -1.3732658326625824e-01</leafValues></_>
        <_>
          <internalNodes>
            0 -1 485 2.8036870062351227e-02</internalNodes>
          <leafValues>
            -1.1467093229293823e-01 1.9949309527873993e-01</leafValues></_>
        <_>
          <internalNodes>
            0 -1 176 3.9403758943080902e-02</internalNodes>
          <leafValues>
            -9.2268921434879303e-02 2.9142481088638306e-01</leafValues></_>
        <_>
          <internalNodes>
            0 -1 241 6.2356978654861450e-02</internalNodes>
          <leafValues>
            2.3676099255681038e-02 -9.6732628345489502e-01</leafValues></_>
        <_>
          <internalNodes>
            0 -1 541 2.7504529803991318e-02</internalNodes>
          <leafValues>
            -1.3499715924263000e-01 1.6896751523017883e-01</leafValues></_>
        <_>
          <internalNodes>
            0 -1 417 5.8721385896205902e-02</internalNodes>
          <leafValues>
            -4.1914474219083786e-02 5.0096261501312256e-01</leafValues></_>
        <_>
          <internalNodes>
            0 -1 310 5.7721950113773346e-02</internalNodes>
          <leafValues>
            -5.2095636725425720e-02 4.1618287563323975e-01</leafValues></_>
        <_>
          <internalNodes>
            0 -1 425 9.9168326705694199e-03</internalNodes>
          <leafValues>
            -8.7077009677886963e-01 3.0374798923730850e-02</leafValues></_>
        <_>
          <internalNodes>
            0 -1 27 7.7513858675956726e-02</internalNodes>
          <leafValues>
            -5.0742287188768387e-02 5.3619474172592163e-01</leafValues></_>
        <_>
          <internalNodes>
            0 -1 423 1.1393640190362930e-02</internalNodes>
          <leafValues>
            3.5853108763694763e-01 -7.1559727191925049e-02</leafValues></_>
        <_>
          <internalNodes>
            0 -1 275 5.7168073952198029e-02</internalNodes>
          <leafValues>
            4.1602917015552521e-02 -5.6187158823013306e-01</leafValues></_>
        <_>
          <internalNodes>
            0 -1 338 4.7152392566204071e-02</internalNodes>
          <leafValues>
            -6.7738838493824005e-02 4.1922605037689209e-01</leafValues></_>
        <_>
          <internalNodes>
            0 -1 328 1.7786365002393723e-02</internalNodes>
          <leafValues>
            -1.9127458333969116e-01 1.2717817723751068e-01</leafValues></_>
        <_>
          <internalNodes>
            0 -1 156 2.0267087966203690e-02</internalNodes>
          <leafValues>
            1.9603453576564789e-01 -1.1363895237445831e-01</leafValues></_>
        <_>
          <internalNodes>
            0 -1 530 1.8500909209251404e-02</internalNodes>
          <leafValues>
            -2.2318695485591888e-01 1.1942273378372192e-01</leafValues></_>
        <_>
          <internalNodes>
            0 -1 236 5.9109672904014587e-02</internalNodes>
          <leafValues>
            -4.3001197278499603e-02 6.0009360313415527e-01</leafValues></_>
        <_>
          <internalNodes>
            0 -1 463 8.2889609038829803e-03</internalNodes>
          <leafValues>
            -5.6004607677459717e-01 4.7249916940927505e-02</leafValues></_>
        <_>
          <internalNodes>
            0 -1 443 4.6740844845771790e-02</internalNodes>
          <leafValues>
            3.8401089608669281e-02 -5.3893750905990601e-01</leafValues></_>
        <_>
          <internalNodes>
            0 -1 401 1.3181548565626144e-02</internalNodes>
          <leafValues>
            3.5033085942268372e-01 -6.9359444081783295e-02</leafValues></_></weakClassifiers></_>
    <!-- stage 4 -->
    <_>
      <maxWeakCount>100</maxWeakCount>
      <stageThreshold>-7.4403584003448486e-01</stageThreshold>
      <weakClassifiers>
        <_>
          <internalNodes>
            0 -1 210 5.1055774092674255e-02</internalNodes>
          <leafValues>
            -4.4915252923965454e-01 5.3003534674644470e-02</leafValues></_>
        <_>
          <internalNodes>
            0 -1 563 2.0467452704906464e-02</internalNodes>
          <leafValues>
            -2.2188083827495575e-01 2.0800174772739410e-01</leafValues></_>
        <_>
          <internalNodes>
            0 -1 298 2.7323499321937561e-02</internalNodes>
          <leafValues>
            9.0935118496417999e-02 -3.4474721550941467e-01</leafValues></_>
        <_>
          <internalNodes>
            0 -1 308 2.3045938462018967e-02</internalNodes>
          <leafValues>
            1.4718414843082428e-01 -2.3219412565231323e-01</leafValues></_>
        <_>
          <internalNodes>
            0 -1 465 4.9830819480121136e-03</internalNodes>
          <leafValues>
            -7.9437655210494995e-01 5.4955810308456421e-02</leafValues></_>
        <_>
          <internalNodes>
            0 -1 417 3.0241286382079124e-02</internalNodes>
          <leafValues>
            1.1919325590133667e-01 -2.6240846514701843e-01</leafValues></_>
        <_>
          <internalNodes>
            0 -1 273 5.1497716456651688e-02</internalNodes>
          <leafValues>
            5.2066855132579803e-02 -5.4798907041549683e-01</leafValues></_>
        <_>
          <internalNodes>
            0 -1 77 1.4804999344050884e-02</internalNodes>
          <leafValues>
            1.7063868045806885e-01 -1.5367160737514496e-01</leafValues></_>
        <_>
          <internalNodes>
            0 -1 233 5.9052342548966408e-03</internalNodes>
          <leafValues>
            -6.4178580045700073e-01 5.2705507725477219e-02</leafValues></_>
        <_>
          <internalNodes>
            0 -1 164 6.8781465291976929e-02</internalNodes>
          <leafValues>
            -6.0494747012853622e-02 4.7932016849517822e-01</leafValues></_>
        <_>
          <internalNodes>
            0 -1 570 2.6576634496450424e-02</internalNodes>
          <leafValues>
            -1.1242008209228516e-01 2.0749975740909576e-01</leafValues></_>
        <_>
          <internalNodes>
            0 -1 10 1.2689648196101189e-02</internalNodes>
          <leafValues>
            -2.1819122135639191e-01 9.9479563534259796e-02</leafValues></_>
        <_>
          <internalNodes>
            0 -1 304 3.7121541798114777e-02</internalNodes>
          <leafValues>
            6.5395534038543701e-02 -4.4710743427276611e-01</leafValues></_>
        <_>
          <internalNodes>
            0 -1 14 1.0743020102381706e-02</internalNodes>
          <leafValues>
            1.9904805719852448e-01 -1.2436595559120178e-01</leafValues></_>
        <_>
          <internalNodes>
            0 -1 534 9.4517674297094345e-03</internalNodes>
          <leafValues>
            -4.8362690210342407e-01 4.8660971224308014e-02</leafValues></_>
        <_>
          <internalNodes>
            0 -1 180 2.1539026871323586e-02</internalNodes>
          <leafValues>
            9.1977961361408234e-02 -2.5124588608741760e-01</leafValues></_>
        <_>
          <internalNodes>
            0 -1 58 2.3158758878707886e-02</internalNodes>
          <leafValues>
            1.4122381806373596e-01 -1.6338588297367096e-01</leafValues></_>
        <_>
          <internalNodes>
            0 -1 535 5.7598138228058815e-03</internalNodes>
          <leafValues>
            -8.1369721889495850e-01 2.1181901916861534e-02</leafValues></_>
        <_>
          <internalNodes>
            0 -1 306 3.0453175306320190e-02</internalNodes>
          <leafValues>
            6.2890045344829559e-02 -3.1637254357337952e-01</leafValues></_>
        <_>
          <internalNodes>
            0 -1 148 8.7653864175081253e-03</internalNodes>
          <leafValues>
            -3.2966610789299011e-01 6.4407974481582642e-02</leafValues></_>
        <_>
          <internalNodes>
            0 -1 246 1.6738271340727806e-02</internalNodes>
          <leafValues>
            1.5120595693588257e-01 -1.4183475077152252e-01</leafValues></_>
        <_>
          <internalNodes>
            0 -1 509 1.0603797622025013e-02</internalNodes>
          <leafValues>
            -2.7909836173057556e-01 9.3914382159709930e-02</leafValues></_>
        <_>
          <internalNodes>
            0 -1 225 2.6207182556390762e-02</internalNodes>
          <leafValues>
            1.2303864955902100e-01 -1.9687317311763763e-01</leafValues></_>
        <_>
          <internalNodes>
            0 -1 352 3.0384726822376251e-02</internalNodes>
          <leafValues>
            7.5488068163394928e-02 -2.6720643043518066e-01</leafValues></_>
        <_>
          <internalNodes>
            0 -1 367 1.7835907638072968e-02</internalNodes>
          <leafValues>
            1.1533117294311523e-01 -1.9951793551445007e-01</leafValues></_>
        <_>
          <internalNodes>
            0 -1 545 1.4690559357404709e-02</internalNodes>
          <leafValues>
            -2.1665543317794800e-01 9.4284921884536743e-02</leafValues></_>
        <_>
          <internalNodes>
            0 -1 303 4.2948730289936066e-02</internalNodes>
          <leafValues>
            -1.0735192149877548e-01 2.1109069883823395e-01</leafValues></_>
        <_>
          <internalNodes>
            0 -1 191 7.4187636375427246e-02</internalNodes>
          <leafValues>
            3.7095993757247925e-02 -6.6244488954544067e-01</leafValues></_>
        <_>
          <internalNodes>
            0 -1 414 1.1194002814590931e-02</internalNodes>
          <leafValues>
            3.8038930296897888e-01 -7.5360015034675598e-02</leafValues></_>
        <_>
          <internalNodes>
            0 -1 51 5.5926121771335602e-02</internalNodes>
          <leafValues>
            4.5510753989219666e-02 -4.5458698272705078e-01</leafValues></_>
        <_>
          <internalNodes>
            0 -1 167 2.1435063332319260e-02</internalNodes>
          <leafValues>
            1.6408209502696991e-01 -1.4938881993293762e-01</leafValues></_>
        <_>
          <internalNodes>
            0 -1 72 4.7836378216743469e-03</internalNodes>
          <leafValues>
            2.5338706374168396e-01 -9.0922884643077850e-02</leafValues></_>
        <_>
          <internalNodes>
            0 -1 140 1.1019965168088675e-03</internalNodes>
          <leafValues>
            -5.8672910928726196e-01 4.2723111808300018e-02</leafValues></_>
        <_>
          <internalNodes>
            0 -1 95 2.8624823316931725e-02</internalNodes>
          <leafValues>
            6.9778732955455780e-02 -2.8893792629241943e-01</leafValues></_>
        <_>
          <internalNodes>
            0 -1 476 5.4246140643954277e-03</internalNodes>
          <leafValues>
            -8.8900727033615112e-01 2.2570187225937843e-02</leafValues></_>
        <_>
          <internalNodes>
            0 -1 258 2.8012655675411224e-03</internalNodes>
          <leafValues>
            -5.1842814683914185e-01 3.3817991614341736e-02</leafValues></_>
        <_>
          <internalNodes>
            0 -1 430 3.0921857804059982e-02</internalNodes>
          <leafValues>
            -1.1123587191104889e-01 2.0996958017349243e-01</leafValues></_>
        <_>
          <internalNodes>
            0 -1 353 1.1920108459889889e-02</internalNodes>
          <leafValues>
            1.7631570994853973e-01 -1.2905608117580414e-01</leafValues></_>
        <_>
          <internalNodes>
            0 -1 439 9.8694972693920135e-03</internalNodes>
          <leafValues>
            -5.1217651367187500e-01 4.3995097279548645e-02</leafValues></_>
        <_>
          <internalNodes>
            0 -1 413 8.6712673306465149e-02</internalNodes>
          <leafValues>
            2.0356820896267891e-02 -8.0064797401428223e-01</leafValues></_>
        <_>
          <internalNodes>
            0 -1 116 1.0239254683256149e-02</internalNodes>
          <leafValues>
            3.0250263214111328e-01 -7.1128807961940765e-02</leafValues></_>
        <_>
          <internalNodes>
            0 -1 141 5.6532006710767746e-02</internalNodes>
          <leafValues>
            -2.9754154384136200e-02 6.7914116382598877e-01</leafValues></_>
        <_>
          <internalNodes>
            0 -1 178 2.3828116245567799e-03</internalNodes>
          <leafValues>
            -1. 2.7537746354937553e-02</leafValues></_>
        <_>
          <internalNodes>
            0 -1 5 5.9016920626163483e-02</internalNodes>
          <leafValues>
            -5.2196629345417023e-02 5.0073808431625366e-01</leafValues></_>
        <_>
          <internalNodes>
            0 -1 327 7.6707854866981506e-02</internalNodes>
          <leafValues>
            -3.5263773053884506e-02 5.5537778139114380e-01</leafValues></_>
        <_>
          <internalNodes>
            0 -1 211 4.9313005059957504e-02</internalNodes>
          <leafValues>
            -5.0148900598287582e-02 3.8459512591362000e-01</leafValues></_>
        <_>
          <internalNodes>
            0 -1 23 3.5852754954248667e-03</internalNodes>
          <leafValues>
            -6.9133150577545166e-01 3.1239300966262817e-02</leafValues></_>
        <_>
          <internalNodes>
            0 -1 256 5.5479407310485840e-02</internalNodes>
          <leafValues>
            3.1802486628293991e-02 -5.6702578067779541e-01</leafValues></_>
        <_>
          <internalNodes>
            0 -1 80 3.7513856659643352e-04</internalNodes>
          <leafValues>
            6.6445839405059814e-01 -3.2548855990171432e-02</leafValues></_>
        <_>
          <internalNodes>
            0 -1 265 7.9849334433674812e-03</internalNodes>
          <leafValues>
            4.3268027901649475e-01 -4.8770740628242493e-02</leafValues></_>
        <_>
          <internalNodes>
            0 -1 320 7.0500917732715607e-02</internalNodes>
          <leafValues>
            2.3440258577466011e-02 -1.</leafValues></_>
        <_>
          <internalNodes>
            0 -1 293 6.0317084193229675e-02</internalNodes>
          <leafValues>
            2.7639688923954964e-02 -5.5407577753067017e-01</leafValues></_>
        <_>
          <internalNodes>
            0 -1 203 2.4002645164728165e-02</internalNodes>
          <leafValues>
            1.4404211938381195e-01 -1.5462779998779297e-01</leafValues></_>
        <_>
          <internalNodes>
            0 -1 517 2.0728753879666328e-02</internalNodes>
          <leafValues>
            -2.3324923217296600e-01 1.0802402347326279e-01</leafValues></_>
        <_>
          <internalNodes>
            0 -1 89 6.9903796538710594e-03</internalNodes>
          <leafValues>
            3.3875980973243713e-01 -8.2737587392330170e-02</leafValues></_>
        <_>
          <internalNodes>
            0 -1 319 1.2597866356372833e-02</internalNodes>
          <leafValues>
            -2.1278917789459229e-01 9.9726833403110504e-02</leafValues></_>
        <_>
          <internalNodes>
            0 -1 591 2.9840979725122452e-02</internalNodes>
          <leafValues>
            8.6195185780525208e-02 -2.5022423267364502e-01</leafValues></_>
        <_>
          <internalNodes>
            0 -1 529 9.4801550731062889e-03</internalNodes>
          <leafValues>
            -8.5537260770797729e-01 2.1174354478716850e-02</leafValues></_>
        <_>
          <internalNodes>
            0 -1 104 3.1059237197041512e-02</internalNodes>
          <leafValues>
            1.1854934692382813e-01 -1.7857846617698669e-01</leafValues></_>
        <_>
          <internalNodes>
            0 -1 533 9.1452077031135559e-03</internalNodes>
          <leafValues>
            -5.8989387750625610e-01 3.4625634551048279e-02</leafValues></_>
        <_>
          <internalNodes>
            0 -1 315 3.4236416220664978e-02</internalNodes>
          <leafValues>
            -8.3401456475257874e-02 2.5153186917304993e-01</leafValues></_>
        <_>
          <internalNodes>
            0 -1 528 3.8257025182247162e-02</internalNodes>
          <leafValues>
            6.9268874824047089e-02 -3.2796278595924377e-01</leafValues></_>
        <_>
          <internalNodes>
            0 -1 342 9.2342957854270935e-02</internalNodes>
          <leafValues>
            -2.6990402489900589e-02 8.3599334955215454e-01</leafValues></_>
        <_>
          <internalNodes>
            0 -1 116 7.2510078549385071e-02</internalNodes>
          <leafValues>
            -2.2637760266661644e-02 6.7868328094482422e-01</leafValues></_>
        <_>
          <internalNodes>
            0 -1 40 3.3056117594242096e-02</internalNodes>
          <leafValues>
            1.0879807919263840e-01 -1.9424784183502197e-01</leafValues></_>
        <_>
          <internalNodes>
            0 -1 151 2.5882543995976448e-02</internalNodes>
          <leafValues>
            8.6714386940002441e-02 -2.3862898349761963e-01</leafValues></_>
        <_>
          <internalNodes>
            0 -1 192 3.1975377351045609e-03</internalNodes>
          <leafValues>
            -4.4863018393516541e-01 4.5537684112787247e-02</leafValues></_>
        <_>
          <internalNodes>
            0 -1 18 8.1289261579513550e-03</internalNodes>
          <leafValues>
            2.6269760727882385e-01 -1.0107529908418655e-01</leafValues></_>
        <_>
          <internalNodes>
            0 -1 347 2.1406881511211395e-02</internalNodes>
          <leafValues>
            1.5264947712421417e-01 -1.3921570777893066e-01</leafValues></_>
        <_>
          <internalNodes>
            0 -1 127 5.1628751680254936e-03</internalNodes>
          <leafValues>
            -5.6444400548934937e-01 3.6843031644821167e-02</leafValues></_>
        <_>
          <internalNodes>
            0 -1 393 2.5610031560063362e-02</internalNodes>
          <leafValues>
            1.8897202610969543e-01 -1.2566311657428741e-01</leafValues></_>
        <_>
          <internalNodes>
            0 -1 139 2.4350620806217194e-02</internalNodes>
          <leafValues>
            8.0361187458038330e-02 -2.9685795307159424e-01</leafValues></_>
        <_>
          <internalNodes>
            0 -1 284 6.6177267581224442e-03</internalNodes>
          <leafValues>
            -6.0735094547271729e-01 3.0975665897130966e-02</leafValues></_>
        <_>
          <internalNodes>
            0 -1 354 3.0515156686306000e-02</internalNodes>
          <leafValues>
            -8.1523105502128601e-02 2.6909717917442322e-01</leafValues></_>
        <_>
          <internalNodes>
            0 -1 532 3.9416737854480743e-02</internalNodes>
          <leafValues>
            -1.0550256073474884e-01 1.9938404858112335e-01</leafValues></_>
        <_>
          <internalNodes>
            0 -1 202 7.2624787688255310e-02</internalNodes>
          <leafValues>
            3.5897906869649887e-02 -6.1833810806274414e-01</leafValues></_>
        <_>
          <internalNodes>
            0 -1 344 2.3277157917618752e-02</internalNodes>
          <leafValues>
            1.6784666478633881e-01 -1.3858391344547272e-01</leafValues></_>
        <_>
          <internalNodes>
            0 -1 7 1.5154110733419657e-03</internalNodes>
          <leafValues>
            -9.4184756278991699e-01 2.0499907433986664e-02</leafValues></_>
        <_>
          <internalNodes>
            0 -1 1 4.0083536878228188e-03</internalNodes>
          <leafValues>
            3.1090694665908813e-01 -7.3478579521179199e-02</leafValues></_>
        <_>
          <internalNodes>
            0 -1 0 5.7531753554940224e-04</internalNodes>
          <leafValues>
            -7.4486941099166870e-01 3.3320147544145584e-02</leafValues></_>
        <_>
          <internalNodes>
            0 -1 487 2.7392450720071793e-02</internalNodes>
          <leafValues>
            -8.4068752825260162e-02 2.6075774431228638e-01</leafValues></_>
        <_>
          <internalNodes>
            0 -1 404 2.5575507432222366e-02</internalNodes>
          <leafValues>
            1.0425139963626862e-01 -3.1053829193115234e-01</leafValues></_>
        <_>
          <internalNodes>
            0 -1 174 6.8468833342194557e-03</internalNodes>
          <leafValues>
            -3.0345737934112549e-01 7.1081697940826416e-02</leafValues></_>
        <_>
          <internalNodes>
            0 -1 443 3.9332285523414612e-03</internalNodes>
          <leafValues>
            -8.7222230434417725e-01 2.2211488336324692e-02</leafValues></_>
        <_>
          <internalNodes>
            0 -1 377 1.4078402891755104e-02</internalNodes>
          <leafValues>
            1.2717913091182709e-01 -1.6497752070426941e-01</leafValues></_>
        <_>
          <internalNodes>
            0 -1 554 4.0771458297967911e-02</internalNodes>
          <leafValues>
            -5.0587937235832214e-02 4.2107889056205750e-01</leafValues></_>
        <_>
          <internalNodes>
            0 -1 45 5.4184845648705959e-03</internalNodes>
          <leafValues>
            -5.2630299329757690e-01 4.0878646075725555e-02</leafValues></_>
        <_>
          <internalNodes>
            0 -1 441 1.1970963329076767e-02</internalNodes>
          <leafValues>
            3.0109387636184692e-01 -8.0104775726795197e-02</leafValues></_>
        <_>
          <internalNodes>
            0 -1 21 6.1234954744577408e-02</internalNodes>
          <leafValues>
            3.5118833184242249e-02 -5.9759968519210815e-01</leafValues></_>
        <_>
          <internalNodes>
            0 -1 33 9.1176927089691162e-03</internalNodes>
          <leafValues>
            -4.2440462112426758e-01 4.5232314616441727e-02</leafValues></_>
        <_>
          <internalNodes>
            0 -1 109 4.1167519986629486e-02</internalNodes>
          <leafValues>
            -9.8210677504539490e-02 2.2402881085872650e-01</leafValues></_>
        <_>
          <internalNodes>
            0 -1 111 5.1134124398231506e-02</internalNodes>
          <leafValues>
            -3.7861019372940063e-02 5.3512144088745117e-01</leafValues></_>
        <_>
          <internalNodes>
            0 -1 411 2.4958513677120209e-02</internalNodes>
          <leafValues>
            -1.3385835289955139e-01 1.6337893903255463e-01</leafValues></_>
        <_>
          <internalNodes>
            0 -1 69 4.2566090822219849e-02</internalNodes>
          <leafValues>
            -8.6806334555149078e-02 3.0042958259582520e-01</leafValues></_>
        <_>
          <internalNodes>
            0 -1 2 1.4054235070943832e-02</internalNodes>
          <leafValues>
            1.6522559523582458e-01 -1.4129541814327240e-01</leafValues></_>
        <_>
          <internalNodes>
            0 -1 194 3.1488016247749329e-02</internalNodes>
          <leafValues>
            -8.7900087237358093e-02 2.5131869316101074e-01</leafValues></_>
        <_>
          <internalNodes>
            0 -1 263 8.2789823412895203e-02</internalNodes>
          <leafValues>
            -2.5289757177233696e-02 7.7152812480926514e-01</leafValues></_>
        <_>
          <internalNodes>
            0 -1 597 2.5172896683216095e-02</internalNodes>
          <leafValues>
            1.0661927610635757e-01 -1.9373066723346710e-01</leafValues></_>
        <_>
          <internalNodes>
            0 -1 56 1.5768865123391151e-03</internalNodes>
          <leafValues>
            -5.8089971542358398e-01 3.7318997085094452e-02</leafValues></_>
        <_>
          <internalNodes>
            0 -1 212 7.0510379970073700e-02</internalNodes>
          <leafValues>
            -2.4216245859861374e-02 8.6610978841781616e-01</leafValues></_></weakClassifiers></_>
    <!-- stage 5 -->
    <_>
      <maxWeakCount>100</maxWeakCount>
      <stageThreshold>-7.5479382276535034e-01</stageThreshold>
      <weakClassifiers>
        <_>
          <internalNodes>
            0 -1 27 2.4712797254323959e-02</internalNodes>
          <leafValues>
            -4.7297295928001404e-01 -1.3448275625705719e-01</leafValues></_>
        <_>
          <internalNodes>
            0 -1 61 2.0258933305740356e-02</internalNodes>
          <leafValues>
            -1.6801892220973969e-01 1.6922116279602051e-01</leafValues></_>
        <_>
          <internalNodes>
            0 -1 567 1.7108665779232979e-02</internalNodes>
          <leafValues>
            1.4357919991016388e-01 -2.2663943469524384e-01</leafValues></_>
        <_>
          <internalNodes>
            0 -1 392 1.3224484398961067e-02</internalNodes>
          <leafValues>
            -3.0226799845695496e-01 1.1503620445728302e-01</leafValues></_>
        <_>
          <internalNodes>
            0 -1 181 4.6402532607316971e-03</internalNodes>
          <leafValues>
            3.3217072486877441e-01 -7.3489911854267120e-02</leafValues></_>
        <_>
          <internalNodes>
            0 -1 564 9.8949402570724487e-02</internalNodes>
          <leafValues>
            3.9395573548972607e-03 -7.5941348075866699e-01</leafValues></_>
        <_>
          <internalNodes>
            0 -1 583 3.6231897771358490e-02</internalNodes>
          <leafValues>
            8.7615184485912323e-02 -2.9847463965415955e-01</leafValues></_>
        <_>
          <internalNodes>
            0 -1 373 2.5998830795288086e-02</internalNodes>
          <leafValues>
            -9.5959417521953583e-02 2.1492937207221985e-01</leafValues></_>
        <_>
          <internalNodes>
            0 -1 355 2.0491871982812881e-02</internalNodes>
          <leafValues>
            -2.1028597652912140e-01 1.0739287734031677e-01</leafValues></_>
        <_>
          <internalNodes>
            0 -1 164 8.6665764451026917e-02</internalNodes>
          <leafValues>
            -4.2811125516891479e-02 4.7454082965850830e-01</leafValues></_>
        <_>
          <internalNodes>
            0 -1 295 8.0214291810989380e-02</internalNodes>
          <leafValues>
            2.1568797528743744e-02 -6.9956427812576294e-01</leafValues></_>
        <_>
          <internalNodes>
            0 -1 6 6.0305215418338776e-02</internalNodes>
          <leafValues>
            2.2634403780102730e-02 -6.8091553449630737e-01</leafValues></_>
        <_>
          <internalNodes>
            0 -1 501 1.3958025723695755e-02</internalNodes>
          <leafValues>
            -4.3880867958068848e-01 4.7060295939445496e-02</leafValues></_>
        <_>
          <internalNodes>
            0 -1 312 7.0236802101135254e-02</internalNodes>
          <leafValues>
            -3.0479153618216515e-02 7.3130148649215698e-01</leafValues></_>
        <_>
          <internalNodes>
            0 -1 327 9.1352373361587524e-02</internalNodes>
          <leafValues>
            -3.4287974238395691e-02 5.9733992815017700e-01</leafValues></_>
        <_>
          <internalNodes>
            0 -1 253 8.5362248122692108e-02</internalNodes>
          <leafValues>
            2.4519553408026695e-02 -8.1541943550109863e-01</leafValues></_>
        <_>
          <internalNodes>
            0 -1 318 2.6741724461317062e-02</internalNodes>
          <leafValues>
            -1.2302791327238083e-01 1.8032500147819519e-01</leafValues></_>
        <_>
          <internalNodes>
            0 -1 209 1.4414712786674500e-02</internalNodes>
          <leafValues>
            -2.3299627006053925e-01 9.8954334855079651e-02</leafValues></_>
        <_>
          <internalNodes>
            0 -1 39 9.3136467039585114e-03</internalNodes>
          <leafValues>
            2.3685631155967712e-01 -8.7664313614368439e-02</leafValues></_>
        <_>
          <internalNodes>
            0 -1 239 1.8917474895715714e-02</internalNodes>
          <leafValues>
            9.4919346272945404e-02 -2.2421495616436005e-01</leafValues></_>
        <_>
          <internalNodes>
            0 -1 363 4.0521346032619476e-02</internalNodes>
          <leafValues>
            8.4879182279109955e-02 -2.4123135209083557e-01</leafValues></_>
        <_>
          <internalNodes>
            0 -1 444 4.3330807238817215e-03</internalNodes>
          <leafValues>
            -1. 1.3539946638047695e-02</leafValues></_>
        <_>
          <internalNodes>
            0 -1 124 4.5846387743949890e-02</internalNodes>
          <leafValues>
            5.7329948991537094e-02 -3.3135372400283813e-01</leafValues></_>
        <_>
          <internalNodes>
            0 -1 329 2.3783605545759201e-02</internalNodes>
          <leafValues>
            1.2726333737373352e-01 -1.6634100675582886e-01</leafValues></_>
        <_>
          <internalNodes>
            0 -1 579 4.9744546413421631e-02</internalNodes>
          <leafValues>
            3.2051164656877518e-02 -6.0436260700225830e-01</leafValues></_>
        <_>
          <internalNodes>
            0 -1 42 9.1663405299186707e-02</internalNodes>
          <leafValues>
            1.9087556749582291e-02 -7.6675301790237427e-01</leafValues></_>
        <_>
          <internalNodes>
            0 -1 451 3.2315816730260849e-02</internalNodes>
          <leafValues>
            7.6391085982322693e-02 -2.6047989726066589e-01</leafValues></_>
        <_>
          <internalNodes>
            0 -1 149 2.5174682959914207e-02</internalNodes>
          <leafValues>
            -1.8277043104171753e-01 1.0423335433006287e-01</leafValues></_>
        <_>
          <internalNodes>
            0 -1 247 9.7090877592563629e-02</internalNodes>
          <leafValues>
            2.7350354939699173e-02 -8.2540988922119141e-01</leafValues></_>
        <_>
          <internalNodes>
            0 -1 143 2.8786059468984604e-02</internalNodes>
          <leafValues>
            5.9826884418725967e-02 -3.2843443751335144e-01</leafValues></_>
        <_>
          <internalNodes>
            0 -1 280 4.2120921425521374e-03</internalNodes>
          <leafValues>
            -8.7450939416885376e-01 1.7721340060234070e-02</leafValues></_>
        <_>
          <internalNodes>
            0 -1 548 8.2036539912223816e-02</internalNodes>
          <leafValues>
            1.4123015105724335e-02 -8.7228298187255859e-01</leafValues></_>
        <_>
          <internalNodes>
            0 -1 139 2.7954755350947380e-03</internalNodes>
          <leafValues>
            3.2436504960060120e-01 -6.0963977128267288e-02</leafValues></_>
        <_>
          <internalNodes>
            0 -1 562 8.2271695137023926e-03</internalNodes>
          <leafValues>
            -2.9865178465843201e-01 7.2534240782260895e-02</leafValues></_>
        <_>
          <internalNodes>
            0 -1 456 2.5019720196723938e-02</internalNodes>
          <leafValues>
            1.0311875492334366e-01 -1.8127538263797760e-01</leafValues></_>
        <_>
          <internalNodes>
            0 -1 404 3.5657264292240143e-02</internalNodes>
          <leafValues>
            4.5038785785436630e-02 -4.0164878964424133e-01</leafValues></_>
        <_>
          <internalNodes>
            0 -1 183 5.1574677228927612e-02</internalNodes>
          <leafValues>
            -3.6116272211074829e-02 6.9711440801620483e-01</leafValues></_>
        <_>
          <internalNodes>
            0 -1 430 4.4998113065958023e-02</internalNodes>
          <leafValues>
            -5.7529702782630920e-02 3.2657420635223389e-01</leafValues></_>
        <_>
          <internalNodes>
            0 -1 17 3.9752777665853500e-02</internalNodes>
          <leafValues>
            3.9717581123113632e-02 -4.6935951709747314e-01</leafValues></_>
        <_>
          <internalNodes>
            0 -1 49 9.6051543951034546e-02</internalNodes>
          <leafValues>
            1.8059942871332169e-02 -8.3275312185287476e-01</leafValues></_>
        <_>
          <internalNodes>
            0 -1 276 6.7428767681121826e-02</internalNodes>
          <leafValues>
            1.7800435423851013e-02 -8.0661892890930176e-01</leafValues></_>
        <_>
          <internalNodes>
            0 -1 229 7.0673793554306030e-02</internalNodes>
          <leafValues>
            -4.1011858731508255e-02 5.8596640825271606e-01</leafValues></_>
        <_>
          <internalNodes>
            0 -1 542 1.1736826971173286e-02</internalNodes>
          <leafValues>
            -4.5717918872833252e-01 5.5498909205198288e-02</leafValues></_>
        <_>
          <internalNodes>
            0 -1 467 1.8600845709443092e-02</internalNodes>
          <leafValues>
            2.2844551503658295e-01 -8.5372649133205414e-02</leafValues></_>
        <_>
          <internalNodes>
            0 -1 255 6.0417845845222473e-02</internalNodes>
          <leafValues>
            -3.4715168178081512e-02 5.0633716583251953e-01</leafValues></_>
        <_>
          <internalNodes>
            0 -1 184 5.6654871441423893e-03</internalNodes>
          <leafValues>
            2.3455725610256195e-01 -7.7366515994071960e-02</leafValues></_>
        <_>
          <internalNodes>
            0 -1 484 2.1799685433506966e-02</internalNodes>
          <leafValues>
            -1.2580785155296326e-01 1.6682901978492737e-01</leafValues></_>
        <_>
          <internalNodes>
            0 -1 211 1.2126224115490913e-02</internalNodes>
          <leafValues>
            2.4119091033935547e-01 -7.3640830814838409e-02</leafValues></_>
        <_>
          <internalNodes>
            0 -1 5 7.5296419672667980e-03</internalNodes>
          <leafValues>
            -2.6567807793617249e-01 7.5692407786846161e-02</leafValues></_>
        <_>
          <internalNodes>
            0 -1 201 3.0625481158494949e-02</internalNodes>
          <leafValues>
            -8.0417588353157043e-02 2.4187497794628143e-01</leafValues></_>
        <_>
          <internalNodes>
            0 -1 518 4.7909520566463470e-02</internalNodes>
          <leafValues>
            -7.9456977546215057e-02 2.4497254192829132e-01</leafValues></_>
        <_>
          <internalNodes>
            0 -1 454 7.7021032571792603e-02</internalNodes>
          <leafValues>
            3.5406265407800674e-02 -5.6415224075317383e-01</leafValues></_>
        <_>
          <internalNodes>
            0 -1 161 4.6368576586246490e-03</internalNodes>
          <leafValues>
            5.5021250247955322e-01 -3.7167277187108994e-02</leafValues></_>
        <_>
          <internalNodes>
            0 -1 403 5.5349133908748627e-03</internalNodes>
          <leafValues>
            -6.0808598995208740e-01 3.9222847670316696e-02</leafValues></_>
        <_>
          <internalNodes>
            0 -1 274 2.1522313356399536e-02</internalNodes>
          <leafValues>
            -1.6797171533107758e-01 1.0684269666671753e-01</leafValues></_>
        <_>
          <internalNodes>
            0 -1 286 9.6836767625063658e-04</internalNodes>
          <leafValues>
            7.8389936685562134e-01 -2.4581164121627808e-02</leafValues></_>
        <_>
          <internalNodes>
            0 -1 285 2.8808061033487320e-03</internalNodes>
          <leafValues>
            -7.9335451126098633e-01 2.8439538553357124e-02</leafValues></_>
        <_>
          <internalNodes>
            0 -1 152 9.7387671470642090e-02</internalNodes>
          <leafValues>
            -2.6987463235855103e-02 8.4141999483108521e-01</leafValues></_>
        <_>
          <internalNodes>
            0 -1 77 5.6527331471443176e-02</internalNodes>
          <leafValues>
            -3.3342253416776657e-02 5.2042460441589355e-01</leafValues></_>
        <_>
          <internalNodes>
            0 -1 77 1.4204293489456177e-02</internalNodes>
          <leafValues>
            1.5951554477214813e-01 -1.3309513032436371e-01</leafValues></_>
        <_>
          <internalNodes>
            0 -1 540 4.4470578432083130e-02</internalNodes>
          <leafValues>
            5.1114991307258606e-02 -3.5070383548736572e-01</leafValues></_>
        <_>
          <internalNodes>
            0 -1 88 2.8916642069816589e-02</internalNodes>
          <leafValues>
            1.3107451796531677e-01 -1.3051253557205200e-01</leafValues></_>
        <_>
          <internalNodes>
            0 -1 358 6.1326615512371063e-02</internalNodes>
          <leafValues>
            -4.5986481010913849e-02 3.9098259806632996e-01</leafValues></_>
        <_>
          <internalNodes>
            0 -1 420 4.2072746902704239e-02</internalNodes>
          <leafValues>
            5.6247752159833908e-02 -3.5497686266899109e-01</leafValues></_>
        <_>
          <internalNodes>
            0 -1 183 1.4899560250341892e-02</internalNodes>
          <leafValues>
            1.0836657136678696e-01 -1.6214050352573395e-01</leafValues></_>
        <_>
          <internalNodes>
            0 -1 125 7.1780338883399963e-02</internalNodes>
          <leafValues>
            -2.0469201728701591e-02 9.6147537231445313e-01</leafValues></_>
        <_>
          <internalNodes>
            0 -1 314 1.3084823265671730e-02</internalNodes>
          <leafValues>
            -2.2238890826702118e-01 8.3091624081134796e-02</leafValues></_>
        <_>
          <internalNodes>
            0 -1 333 2.1601121872663498e-02</internalNodes>
          <leafValues>
            1.5346610546112061e-01 -1.4449799060821533e-01</leafValues></_>
        <_>
          <internalNodes>
            0 -1 340 5.8213518932461739e-03</internalNodes>
          <leafValues>
            -6.5035426616668701e-01 3.1128762289881706e-02</leafValues></_>
        <_>
          <internalNodes>
            0 -1 38 2.9564267024397850e-03</internalNodes>
          <leafValues>
            3.3378481864929199e-01 -5.5999048054218292e-02</leafValues></_>
        <_>
          <internalNodes>
            0 -1 408 3.9285942912101746e-03</internalNodes>
          <leafValues>
            -8.4765458106994629e-01 2.2512910887598991e-02</leafValues></_>
        <_>
          <internalNodes>
            0 -1 121 5.5932439863681793e-03</internalNodes>
          <leafValues>
            -5.0997096300125122e-01 3.0172100290656090e-02</leafValues></_>
        <_>
          <internalNodes>
            0 -1 26 5.7718142867088318e-02</internalNodes>
          <leafValues>
            3.4555509686470032e-02 -4.8367697000503540e-01</leafValues></_>
        <_>
          <internalNodes>
            0 -1 478 3.4999806433916092e-02</internalNodes>
          <leafValues>
            8.5026338696479797e-02 -2.1498063206672668e-01</leafValues></_>
        <_>
          <internalNodes>
            0 -1 18 7.1507442044094205e-04</internalNodes>
          <leafValues>
            6.2375372648239136e-01 -3.5046596080064774e-02</leafValues></_>
        <_>
          <internalNodes>
            0 -1 259 1.5449138358235359e-02</internalNodes>
          <leafValues>
            2.5332009792327881e-01 -6.1068363487720490e-02</leafValues></_>
        <_>
          <internalNodes>
            0 -1 433 4.4504892081022263e-02</internalNodes>
          <leafValues>
            -9.4717495143413544e-02 1.9435723125934601e-01</leafValues></_>
        <_>
          <internalNodes>
            0 -1 169 9.5374137163162231e-03</internalNodes>
          <leafValues>
            -3.5993474721908569e-01 4.7160305082798004e-02</leafValues></_>
        <_>
          <internalNodes>
            0 -1 87 1.0750910267233849e-02</internalNodes>
          <leafValues>
            -2.7628803253173828e-01 6.2987148761749268e-02</leafValues></_>
        <_>
          <internalNodes>
            0 -1 537 6.6771626472473145e-02</internalNodes>
          <leafValues>
            -3.2746650278568268e-02 5.8534049987792969e-01</leafValues></_>
        <_>
          <internalNodes>
            0 -1 129 3.3446215093135834e-02</internalNodes>
          <leafValues>
            -7.9493679106235504e-02 2.2960367798805237e-01</leafValues></_>
        <_>
          <internalNodes>
            0 -1 228 9.1420419514179230e-02</internalNodes>
          <leafValues>
            2.6498164981603622e-02 -8.1622296571731567e-01</leafValues></_>
        <_>
          <internalNodes>
            0 -1 442 5.0632458180189133e-02</internalNodes>
          <leafValues>
            -5.4261431097984314e-02 4.2005753517150879e-01</leafValues></_>
        <_>
          <internalNodes>
            0 -1 428 1.2771811336278915e-02</internalNodes>
          <leafValues>
            2.4105446040630341e-01 -8.2002848386764526e-02</leafValues></_>
        <_>
          <internalNodes>
            0 -1 438 3.2809913158416748e-02</internalNodes>
          <leafValues>
            -7.0492938160896301e-02 2.4788579344749451e-01</leafValues></_>
        <_>
          <internalNodes>
            0 -1 213 3.1310312449932098e-02</internalNodes>
          <leafValues>
            9.7214326262474060e-02 -1.7908175289630890e-01</leafValues></_>
        <_>
          <internalNodes>
            0 -1 48 1.0443416424095631e-02</internalNodes>
          <leafValues>
            -2.2061939537525177e-01 8.4290429949760437e-02</leafValues></_>
        <_>
          <internalNodes>
            0 -1 494 3.8215953856706619e-02</internalNodes>
          <leafValues>
            -1.0344109684228897e-01 1.9259870052337646e-01</leafValues></_>
        <_>
          <internalNodes>
            0 -1 133 4.4610284268856049e-02</internalNodes>
          <leafValues>
            -7.1016542613506317e-02 2.7197188138961792e-01</leafValues></_>
        <_>
          <internalNodes>
            0 -1 552 1.4213232323527336e-02</internalNodes>
          <leafValues>
            -2.0874464511871338e-01 8.9958257973194122e-02</leafValues></_>
        <_>
          <internalNodes>
            0 -1 423 4.9039714038372040e-02</internalNodes>
          <leafValues>
            -5.2470013499259949e-02 3.9598697423934937e-01</leafValues></_>
        <_>
          <internalNodes>
            0 -1 305 4.4554911553859711e-02</internalNodes>
          <leafValues>
            4.5028172433376312e-02 -5.3850811719894409e-01</leafValues></_>
        <_>
          <internalNodes>
            0 -1 100 3.9106473326683044e-02</internalNodes>
          <leafValues>
            -9.8779603838920593e-02 1.9264163076877594e-01</leafValues></_>
        <_>
          <internalNodes>
            0 -1 116 1.3970401138067245e-02</internalNodes>
          <leafValues>
            -2.2126863896846771e-01 8.7767228484153748e-02</leafValues></_>
        <_>
          <internalNodes>
            0 -1 117 7.4544842354953289e-03</internalNodes>
          <leafValues>
            4.3686833977699280e-01 -4.5846641063690186e-02</leafValues></_>
        <_>
          <internalNodes>
            0 -1 508 1.5350294299423695e-02</internalNodes>
          <leafValues>
            1.5748693048954010e-01 -1.2044489383697510e-01</leafValues></_>
        <_>
          <internalNodes>
            0 -1 467 8.7217157706618309e-03</internalNodes>
          <leafValues>
            -9.2936855554580688e-01 1.9634878262877464e-02</leafValues></_>
        <_>
          <internalNodes>
            0 -1 122 7.0730388164520264e-02</internalNodes>
          <leafValues>
            3.3341098576784134e-02 -4.8413026332855225e-01</leafValues></_>
        <_>
          <internalNodes>
            0 -1 92 1.7202571034431458e-02</internalNodes>
          <leafValues>
            1.9010327756404877e-01 -1.0411317646503448e-01</leafValues></_>
        <_>
          <internalNodes>
            0 -1 309 2.9946045950055122e-02</internalNodes>
          <leafValues>
            6.2570065259933472e-02 -2.7446171641349792e-01</leafValues></_></weakClassifiers></_>
    <!-- stage 6 -->
    <_>
      <maxWeakCount>95</maxWeakCount>
      <stageThreshold>-7.1889728307723999e-02</stageThreshold>
      <weakClassifiers>
        <_>
          <internalNodes>
            0 -1 43 4.5798383653163910e-02</internalNodes>
          <leafValues>
            -4.0935672819614410e-02 3.8260868191719055e-01</leafValues></_>
        <_>
          <internalNodes>
            0 -1 234 1.8108092248439789e-02</internalNodes>
          <leafValues>
            1.4398285746574402e-01 -2.3778399825096130e-01</leafValues></_>
        <_>
          <internalNodes>
            0 -1 333 1.7872309312224388e-02</internalNodes>
          <leafValues>
            -2.1425198018550873e-01 1.4657567441463470e-01</leafValues></_>
        <_>
          <internalNodes>
            0 -1 227 3.9601854979991913e-02</internalNodes>
          <leafValues>
            1.0297738760709763e-01 -3.1040644645690918e-01</leafValues></_>
        <_>
          <internalNodes>
            0 -1 477 1.1095570400357246e-02</internalNodes>
          <leafValues>
            -4.6805492043495178e-01 6.6569484770298004e-02</leafValues></_>
        <_>
          <internalNodes>
            0 -1 497 9.2994030565023422e-03</internalNodes>
          <leafValues>
            -6.0021513700485229e-01 3.5686071962118149e-02</leafValues></_>
        <_>
          <internalNodes>
            0 -1 349 5.4751686751842499e-02</internalNodes>
          <leafValues>
            -6.4410731196403503e-02 3.9308109879493713e-01</leafValues></_>
        <_>
          <internalNodes>
            0 -1 12 1.1753719300031662e-02</internalNodes>
          <leafValues>
            1.8175220489501953e-01 -1.4228098094463348e-01</leafValues></_>
        <_>
          <internalNodes>
            0 -1 393 5.8722019195556641e-02</internalNodes>
          <leafValues>
            -6.0205370187759399e-02 4.9075749516487122e-01</leafValues></_>
        <_>
          <internalNodes>
            0 -1 566 1.5310617163777351e-02</internalNodes>
          <leafValues>
            -1.8734130263328552e-01 1.3409875333309174e-01</leafValues></_>
        <_>
          <internalNodes>
            0 -1 188 2.2637654095888138e-02</internalNodes>
          <leafValues>
            1.2652340531349182e-01 -2.3671218752861023e-01</leafValues></_>
        <_>
          <internalNodes>
            0 -1 553 6.4648993313312531e-02</internalNodes>
          <leafValues>
            3.2234948128461838e-02 -7.6266807317733765e-01</leafValues></_>
        <_>
          <internalNodes>
            0 -1 66 7.8585356473922729e-02</internalNodes>
          <leafValues>
