<?xml version="1.0"?>
<opencv_storage>
<!-- Created using Computer Vision System Toolbox(tm) for MATLAB(R) -->
<!-- Version 8.6.0.235573 (R2015b) -->
<!-- Compatible with OpenCV 2.4 -->
<cascade>
  <stageType>BOOST</stageType>
  <featureType>HOG</featureType>
  <height>32</height>
  <width>38</width>
  <stageParams>
    <boostType>GAB</boostType>
    <minHitRate>9.9500000476837158e-01</minHitRate>
    <maxFalseAlarm>5.0000000745058060e-02</maxFalseAlarm>
    <weightTrimRate>9.4999999999999996e-01</weightTrimRate>
    <maxDepth>1</maxDepth>
    <maxWeakCount>100</maxWeakCount></stageParams>
  <featureParams>
    <maxCatCount>0</maxCatCount>
    <featSize>36</featSize></featureParams>
  <stageNum>9</stageNum>
  <stages>
    <!-- stage 0 -->
    <_>
      <maxWeakCount>38</maxWeakCount>
      <stageThreshold>-4.6888419985771179e-01</stageThreshold>
      <weakClassifiers>
        <_>
          <internalNodes>
            0 -1 440 1.6266215592622757e-02</internalNodes>
          <leafValues>
            3.4606206417083740e-01 -6.7425149679183960e-01</leafValues></_>
        <_>
          <internalNodes>
            0 -1 497 1.7355512827634811e-02</internalNodes>
          <leafValues>
            4.5916938781738281e-01 -4.7072857618331909e-01</leafValues></_>
        <_>
          <internalNodes>
            0 -1 101 3.3387780189514160e-02</internalNodes>
          <leafValues>
            -3.2140630483627319e-01 5.2566540241241455e-01</leafValues></_>
        <_>
          <internalNodes>
            0 -1 498 3.2567486166954041e-02</internalNodes>
          <leafValues>
            -3.2778957486152649e-01 4.2618837952613831e-01</leafValues></_>
        <_>
          <internalNodes>
            0 -1 251 3.5972371697425842e-02</internalNodes>
          <leafValues>
            -2.1818299591541290e-01 4.6850061416625977e-01</leafValues></_>
        <_>
          <internalNodes>
            0 -1 486 3.8355581462383270e-02</internalNodes>
          <leafValues>
            -1.8526373803615570e-01 5.1234710216522217e-01</leafValues></_>
        <_>
          <internalNodes>
            0 -1 518 3.7712700664997101e-02</internalNodes>
          <leafValues>
            -1.2040419876575470e-01 6.4506059885025024e-01</leafValues></_>
        <_>
          <internalNodes>
            0 -1 332 2.3415308445692062e-02</internalNodes>
          <leafValues>
            -3.8397467136383057e-01 2.1536779403686523e-01</leafValues></_>
        <_>
          <internalNodes>
            0 -1 377 2.3750599473714828e-02</internalNodes>
          <leafValues>
            2.3272126913070679e-01 -3.5264974832534790e-01</leafValues></_>
        <_>
          <internalNodes>
            0 -1 297 3.2565485686063766e-02</internalNodes>
          <leafValues>
            -2.2998264431953430e-01 4.0337914228439331e-01</leafValues></_>
        <_>
          <internalNodes>
            0 -1 412 3.6242701113224030e-02</internalNodes>
          <leafValues>
            -1.6789557039737701e-01 5.3579837083816528e-01</leafValues></_>
        <_>
          <internalNodes>
            0 -1 30 1.1648118495941162e-02</internalNodes>
          <leafValues>
            3.6154079437255859e-01 -1.9815427064895630e-01</leafValues></_>
        <_>
          <internalNodes>
            0 -1 331 1.0596826672554016e-02</internalNodes>
          <leafValues>
            -6.7373573780059814e-01 1.2732611596584320e-01</leafValues></_>
        <_>
          <internalNodes>
            0 -1 443 1.7759002745151520e-02</internalNodes>
          <leafValues>
            3.3205991983413696e-01 -2.8545275330543518e-01</leafValues></_>
        <_>
          <internalNodes>
            0 -1 506 2.9329158365726471e-02</internalNodes>
          <leafValues>
            -2.5722935795783997e-01 3.4215548634529114e-01</leafValues></_>
        <_>
          <internalNodes>
            0 -1 325 1.8561279401183128e-02</internalNodes>
          <leafValues>
            2.3518481850624084e-01 -2.8696301579475403e-01</leafValues></_>
        <_>
          <internalNodes>
            0 -1 463 9.4454847276210785e-03</internalNodes>
          <leafValues>
            -6.8162822723388672e-01 1.2528434395790100e-01</leafValues></_>
        <_>
          <internalNodes>
            0 -1 116 1.8133593723177910e-02</internalNodes>
          <leafValues>
            2.3618625104427338e-01 -3.2574993371963501e-01</leafValues></_>
        <_>
          <internalNodes>
            0 -1 511 1.8557053059339523e-02</internalNodes>
          <leafValues>
            -4.5506784319877625e-01 1.7213645577430725e-01</leafValues></_>
        <_>
          <internalNodes>
            0 -1 293 1.6061395406723022e-02</internalNodes>
          <leafValues>
            4.5232942700386047e-01 -1.7256076633930206e-01</leafValues></_>
        <_>
          <internalNodes>
            0 -1 14 3.7134587764739990e-02</internalNodes>
          <leafValues>
            -1.9984181225299835e-01 3.0201882123947144e-01</leafValues></_>
        <_>
          <internalNodes>
            0 -1 212 2.7260705828666687e-02</internalNodes>
          <leafValues>
            2.0526114106178284e-01 -3.1631651520729065e-01</leafValues></_>
        <_>
          <internalNodes>
            0 -1 255 9.0692564845085144e-03</internalNodes>
          <leafValues>
            4.5742595195770264e-01 -1.4965173602104187e-01</leafValues></_>
        <_>
          <internalNodes>
            0 -1 380 6.9160163402557373e-03</internalNodes>
          <leafValues>
            -7.9666519165039063e-01 9.9835120141506195e-02</leafValues></_>
        <_>
          <internalNodes>
            0 -1 260 1.5077429823577404e-02</internalNodes>
          <leafValues>
            3.5433453321456909e-01 -2.4408908188343048e-01</leafValues></_>
        <_>
          <internalNodes>
            0 -1 72 5.4082993417978287e-02</internalNodes>
          <leafValues>
            -9.0197712182998657e-02 7.0452916622161865e-01</leafValues></_>
        <_>
          <internalNodes>
            0 -1 275 2.4135464802384377e-02</internalNodes>
          <leafValues>
            -2.4132692813873291e-01 2.6750478148460388e-01</leafValues></_>
        <_>
          <internalNodes>
            0 -1 394 2.7612062171101570e-02</internalNodes>
          <leafValues>
            2.6985320448875427e-01 -3.0274212360382080e-01</leafValues></_>
        <_>
          <internalNodes>
            0 -1 263 1.3116814196109772e-02</internalNodes>
          <leafValues>
            3.4788542985916138e-01 -2.1607795357704163e-01</leafValues></_>
        <_>
          <internalNodes>
            0 -1 228 1.2815454043447971e-02</internalNodes>
          <leafValues>
            -4.6447160840034485e-01 1.5999953448772430e-01</leafValues></_>
        <_>
          <internalNodes>
            0 -1 278 2.1552165970206261e-02</internalNodes>
          <leafValues>
            2.3278875648975372e-01 -2.5931826233863831e-01</leafValues></_>
        <_>
          <internalNodes>
            0 -1 76 2.7890253812074661e-02</internalNodes>
          <leafValues>
            -2.5746536254882813e-01 2.6137429475784302e-01</leafValues></_>
        <_>
          <internalNodes>
            0 -1 326 9.5734084025025368e-03</internalNodes>
          <leafValues>
            4.7527515888214111e-01 -1.5457515418529510e-01</leafValues></_>
        <_>
          <internalNodes>
            0 -1 375 1.7025068402290344e-02</internalNodes>
          <leafValues>
            -4.7727128863334656e-01 1.5099698305130005e-01</leafValues></_>
        <_>
          <internalNodes>
            0 -1 1 2.3855024948716164e-02</internalNodes>
          <leafValues>
            1.8181955814361572e-01 -4.3722379207611084e-01</leafValues></_>
        <_>
          <internalNodes>
            0 -1 521 4.5273970812559128e-02</internalNodes>
          <leafValues>
            -1.0388708114624023e-01 7.2316831350326538e-01</leafValues></_>
        <_>
          <internalNodes>
            0 -1 39 6.1046581715345383e-02</internalNodes>
          <leafValues>
            -7.5675092637538910e-02 7.5103110074996948e-01</leafValues></_>
        <_>
          <internalNodes>
            0 -1 501 4.8952765762805939e-02</internalNodes>
          <leafValues>
            -7.0771090686321259e-02 7.3582941293716431e-01</leafValues></_></weakClassifiers></_>
    <!-- stage 1 -->
    <_>
      <maxWeakCount>51</maxWeakCount>
      <stageThreshold>-4.9157381057739258e-01</stageThreshold>
      <weakClassifiers>
        <_>
          <internalNodes>
            0 -1 416 3.0580544844269753e-02</internalNodes>
          <leafValues>
            1.0507246106863022e-01 -6.7806267738342285e-01</leafValues></_>
        <_>
          <internalNodes>
            0 -1 435 2.4414997547864914e-02</internalNodes>
          <leafValues>
            -5.0298464298248291e-01 2.9844561219215393e-01</leafValues></_>
        <_>
          <internalNodes>
            0 -1 436 1.9627086818218231e-02</internalNodes>
          <leafValues>
            -4.5417752861976624e-01 2.0508696138858795e-01</leafValues></_>
        <_>
          <internalNodes>
            0 -1 171 6.6909287124872208e-03</internalNodes>
          <leafValues>
            4.4550940394401550e-01 -2.0626783370971680e-01</leafValues></_>
        <_>
          <internalNodes>
            0 -1 246 5.5811636149883270e-02</internalNodes>
          <leafValues>
            1.7118272185325623e-01 -6.4624208211898804e-01</leafValues></_>
        <_>
          <internalNodes>
            0 -1 264 1.3458127155900002e-02</internalNodes>
          <leafValues>
            3.8075348734855652e-01 -2.5525903701782227e-01</leafValues></_>
        <_>
          <internalNodes>
            0 -1 231 1.5763323754072189e-02</internalNodes>
          <leafValues>
            -4.1037505865097046e-01 1.7783007025718689e-01</leafValues></_>
        <_>
          <internalNodes>
            0 -1 210 1.5180567279458046e-02</internalNodes>
          <leafValues>
            2.9751330614089966e-01 -2.7949804067611694e-01</leafValues></_>
        <_>
          <internalNodes>
            0 -1 156 4.7718942165374756e-02</internalNodes>
          <leafValues>
            -1.3642841577529907e-01 5.9513276815414429e-01</leafValues></_>
        <_>
          <internalNodes>
            0 -1 40 2.3116540163755417e-02</internalNodes>
          <leafValues>
            3.4762406349182129e-01 -1.7018090188503265e-01</leafValues></_>
        <_>
          <internalNodes>
            0 -1 445 2.6277162134647369e-02</internalNodes>
          <leafValues>
            -2.7464643120765686e-01 2.5755849480628967e-01</leafValues></_>
        <_>
          <internalNodes>
            0 -1 77 2.9174417257308960e-02</internalNodes>
          <leafValues>
            -2.1645380556583405e-01 3.5398969054222107e-01</leafValues></_>
        <_>
          <internalNodes>
            0 -1 283 3.4013479948043823e-02</internalNodes>
          <leafValues>
            -1.4792852103710175e-01 4.0570324659347534e-01</leafValues></_>
        <_>
          <internalNodes>
            0 -1 25 3.9972090162336826e-03</internalNodes>
          <leafValues>
            5.4992890357971191e-01 -1.1459681391716003e-01</leafValues></_>
        <_>
          <internalNodes>
            0 -1 153 4.9665957689285278e-02</internalNodes>
          <leafValues>
            9.0896278619766235e-02 -6.2103283405303955e-01</leafValues></_>
        <_>
          <internalNodes>
            0 -1 116 6.6084181889891624e-03</internalNodes>
          <leafValues>
            4.2015254497528076e-01 -1.5347395837306976e-01</leafValues></_>
        <_>
          <internalNodes>
            0 -1 516 1.1704150587320328e-02</internalNodes>
          <leafValues>
            -5.8957928419113159e-01 9.8778001964092255e-02</leafValues></_>
        <_>
          <internalNodes>
            0 -1 106 5.0847444683313370e-02</internalNodes>
          <leafValues>
            -8.8350243866443634e-02 7.0933604240417480e-01</leafValues></_>
        <_>
          <internalNodes>
            0 -1 209 1.5550427138805389e-02</internalNodes>
          <leafValues>
            2.4575971066951752e-01 -2.1241368353366852e-01</leafValues></_>
        <_>
          <internalNodes>
            0 -1 423 1.5769194811582565e-02</internalNodes>
          <leafValues>
            -4.5189651846885681e-01 1.1416468769311905e-01</leafValues></_>
        <_>
          <internalNodes>
            0 -1 264 3.5875819623470306e-02</internalNodes>
          <leafValues>
            9.0783648192882538e-02 -5.1940429210662842e-01</leafValues></_>
        <_>
          <internalNodes>
            0 -1 513 2.2713059559464455e-02</internalNodes>
          <leafValues>
            -3.7567594647407532e-01 1.3326479494571686e-01</leafValues></_>
        <_>
          <internalNodes>
            0 -1 286 2.2008718922734261e-02</internalNodes>
          <leafValues>
            3.0377745628356934e-01 -1.6609583795070648e-01</leafValues></_>
        <_>
          <internalNodes>
            0 -1 449 1.8513049930334091e-02</internalNodes>
          <leafValues>
            2.1570327877998352e-01 -2.1569094061851501e-01</leafValues></_>
        <_>
          <internalNodes>
            0 -1 322 4.9807004630565643e-02</internalNodes>
          <leafValues>
            -8.1955283880233765e-02 6.1159223318099976e-01</leafValues></_>
        <_>
          <internalNodes>
            0 -1 479 1.7127130180597305e-02</internalNodes>
          <leafValues>
            4.1833412647247314e-01 -1.0426639020442963e-01</leafValues></_>
        <_>
          <internalNodes>
            0 -1 257 1.9816864281892776e-02</internalNodes>
          <leafValues>
            1.9104057550430298e-01 -2.9094240069389343e-01</leafValues></_>
        <_>
          <internalNodes>
            0 -1 441 1.2884528376162052e-02</internalNodes>
          <leafValues>
            -4.8061195015907288e-01 1.0005629807710648e-01</leafValues></_>
        <_>
          <internalNodes>
            0 -1 103 5.9365332126617432e-02</internalNodes>
          <leafValues>
            6.2519811093807220e-02 -6.8644368648529053e-01</leafValues></_>
        <_>
          <internalNodes>
            0 -1 272 3.9973963052034378e-02</internalNodes>
          <leafValues>
            -1.0835706442594528e-01 4.2726951837539673e-01</leafValues></_>
        <_>
          <internalNodes>
            0 -1 445 8.7999058887362480e-03</internalNodes>
          <leafValues>
            -7.4174779653549194e-01 8.4052778780460358e-02</leafValues></_>
        <_>
          <internalNodes>
            0 -1 270 1.3487361371517181e-02</internalNodes>
          <leafValues>
            -4.7511470317840576e-01 7.1578957140445709e-02</leafValues></_>
        <_>
          <internalNodes>
            0 -1 405 8.8832583278417587e-03</internalNodes>
          <leafValues>
            -5.1044577360153198e-01 8.1318140029907227e-02</leafValues></_>
        <_>
          <internalNodes>
            0 -1 87 7.1155540645122528e-02</internalNodes>
          <leafValues>
            -7.6147437095642090e-02 6.7697799205780029e-01</leafValues></_>
        <_>
          <internalNodes>
            0 -1 487 3.7431158125400543e-02</internalNodes>
          <leafValues>
            -1.2386064976453781e-01 3.7400075793266296e-01</leafValues></_>
        <_>
          <internalNodes>
            0 -1 329 1.8899720162153244e-02</internalNodes>
          <leafValues>
            2.9903528094291687e-01 -1.5254083275794983e-01</leafValues></_>
        <_>
          <internalNodes>
            0 -1 410 1.5012092888355255e-02</internalNodes>
          <leafValues>
            -3.7595552206039429e-01 1.3618975877761841e-01</leafValues></_>
        <_>
          <internalNodes>
            0 -1 452 2.3652587085962296e-02</internalNodes>
          <leafValues>
            1.5018439292907715e-01 -2.9903709888458252e-01</leafValues></_>
        <_>
          <internalNodes>
            0 -1 491 4.7013591974973679e-02</internalNodes>
          <leafValues>
            -8.8881894946098328e-02 5.9695136547088623e-01</leafValues></_>
        <_>
          <internalNodes>
            0 -1 427 1.1324447579681873e-02</internalNodes>
          <leafValues>
            -4.4135710597038269e-01 1.1298672109842300e-01</leafValues></_>
        <_>
          <internalNodes>
            0 -1 327 5.2619413472712040e-03</internalNodes>
          <leafValues>
            4.7422617673873901e-01 -1.2724184989929199e-01</leafValues></_>
        <_>
          <internalNodes>
            0 -1 123 4.7285437583923340e-02</internalNodes>
          <leafValues>
            -6.9156445562839508e-02 6.1277627944946289e-01</leafValues></_>
        <_>
          <internalNodes>
            0 -1 336 3.2719347625970840e-02</internalNodes>
          <leafValues>
            -8.2743495702743530e-02 4.8400720953941345e-01</leafValues></_>
        <_>
          <internalNodes>
            0 -1 19 8.5777398198843002e-03</internalNodes>
          <leafValues>
            3.5722106695175171e-01 -1.3020437955856323e-01</leafValues></_>
        <_>
          <internalNodes>
            0 -1 333 3.6792680621147156e-02</internalNodes>
          <leafValues>
            -1.2159782648086548e-01 3.9576554298400879e-01</leafValues></_>
        <_>
          <internalNodes>
            0 -1 516 4.3642163276672363e-02</internalNodes>
          <leafValues>
            -8.9951939880847931e-02 5.7826113700866699e-01</leafValues></_>
        <_>
          <internalNodes>
            0 -1 116 1.2717168778181076e-02</internalNodes>
          <leafValues>
            2.7383163571357727e-01 -1.9030532240867615e-01</leafValues></_>
        <_>
          <internalNodes>
            0 -1 464 1.6046350821852684e-02</internalNodes>
          <leafValues>
            -4.4780731201171875e-01 1.0144146531820297e-01</leafValues></_>
        <_>
          <internalNodes>
            0 -1 429 8.5463114082813263e-03</internalNodes>
          <leafValues>
            -6.6037636995315552e-01 6.9455251097679138e-02</leafValues></_>
        <_>
          <internalNodes>
            0 -1 211 5.8970697224140167e-02</internalNodes>
          <leafValues>
            -7.3320001363754272e-02 7.5176310539245605e-01</leafValues></_>
        <_>
          <internalNodes>
            0 -1 320 4.6786949038505554e-02</internalNodes>
          <leafValues>
            -8.9015625417232513e-02 4.6399521827697754e-01</leafValues></_></weakClassifiers></_>
    <!-- stage 2 -->
    <_>
      <maxWeakCount>78</maxWeakCount>
      <stageThreshold>-4.5955538749694824e-01</stageThreshold>
      <weakClassifiers>
        <_>
          <internalNodes>
            0 -1 39 4.0248155593872070e-02</internalNodes>
          <leafValues>
            -4.9413019418716431e-01 1.4195583760738373e-01</leafValues></_>
        <_>
          <internalNodes>
            0 -1 498 2.1518591791391373e-02</internalNodes>
          <leafValues>
            -5.3084462881088257e-01 1.1360721290111542e-01</leafValues></_>
        <_>
          <internalNodes>
            0 -1 514 1.2593609280884266e-02</internalNodes>
          <leafValues>
            -5.9743219614028931e-01 1.0440505295991898e-01</leafValues></_>
        <_>
          <internalNodes>
            0 -1 121 1.4194417744874954e-02</internalNodes>
          <leafValues>
            2.0474259555339813e-01 -2.4743178486824036e-01</leafValues></_>
        <_>
          <internalNodes>
            0 -1 430 5.1107974722981453e-03</internalNodes>
          <leafValues>
            -7.5646281242370605e-01 7.6746173202991486e-02</leafValues></_>
        <_>
          <internalNodes>
            0 -1 520 2.0213101059198380e-02</internalNodes>
          <leafValues>
            -2.4135267734527588e-01 2.2365798056125641e-01</leafValues></_>
        <_>
          <internalNodes>
            0 -1 197 5.9506066143512726e-02</internalNodes>
          <leafValues>
            -9.8105400800704956e-02 4.1987982392311096e-01</leafValues></_>
        <_>
          <internalNodes>
            0 -1 29 2.8948327526450157e-02</internalNodes>
          <leafValues>
            9.9559977650642395e-02 -3.5714781284332275e-01</leafValues></_>
        <_>
          <internalNodes>
            0 -1 214 1.5015447512269020e-02</internalNodes>
          <leafValues>
            1.7524364590644836e-01 -2.1167629957199097e-01</leafValues></_>
        <_>
          <internalNodes>
            0 -1 402 9.2595042660832405e-03</internalNodes>
          <leafValues>
            -5.4046249389648438e-01 7.5827442109584808e-02</leafValues></_>
        <_>
          <internalNodes>
            0 -1 61 6.5211251378059387e-02</internalNodes>
          <leafValues>
            -5.5812090635299683e-02 7.0972222089767456e-01</leafValues></_>
        <_>
          <internalNodes>
            0 -1 264 3.3668866381049156e-03</internalNodes>
          <leafValues>
            4.5309856534004211e-01 -9.2950552701950073e-02</leafValues></_>
        <_>
          <internalNodes>
            0 -1 4 2.5750240311026573e-02</internalNodes>
          <leafValues>
            1.1194659024477005e-01 -3.5440200567245483e-01</leafValues></_>
        <_>
          <internalNodes>
            0 -1 511 1.9731167703866959e-02</internalNodes>
          <leafValues>
            -3.9283925294876099e-01 1.3455097377300262e-01</leafValues></_>
        <_>
          <internalNodes>
            0 -1 309 2.8148151934146881e-02</internalNodes>
          <leafValues>
            -1.6806247830390930e-01 2.1793203055858612e-01</leafValues></_>
        <_>
          <internalNodes>
            0 -1 261 3.3209376037120819e-02</internalNodes>
          <leafValues>
            -1.7417007684707642e-01 2.1795722842216492e-01</leafValues></_>
        <_>
          <internalNodes>
            0 -1 372 7.0122675970196724e-03</internalNodes>
          <leafValues>
            -7.2827512025833130e-01 5.1607672125101089e-02</leafValues></_>
        <_>
          <internalNodes>
            0 -1 21 2.0642764866352081e-02</internalNodes>
          <leafValues>
            -2.2909471392631531e-01 1.8073101341724396e-01</leafValues></_>
        <_>
          <internalNodes>
            0 -1 159 1.8585130572319031e-02</internalNodes>
          <leafValues>
            3.2830053567886353e-01 -1.3333657383918762e-01</leafValues></_>
        <_>
          <internalNodes>
            0 -1 115 1.3791846111416817e-02</internalNodes>
          <leafValues>
            -3.7928444147109985e-01 9.6866913139820099e-02</leafValues></_>
        <_>
          <internalNodes>
            0 -1 419 6.0458902269601822e-02</internalNodes>
          <leafValues>
            4.1975181549787521e-02 -8.0596601963043213e-01</leafValues></_>
        <_>
          <internalNodes>
            0 -1 59 2.3639561608433723e-02</internalNodes>
          <leafValues>
            1.3532905280590057e-01 -2.5142639875411987e-01</leafValues></_>
        <_>
          <internalNodes>
            0 -1 516 2.6351813226938248e-02</internalNodes>
          <leafValues>
            -1.7418050765991211e-01 2.2226831316947937e-01</leafValues></_>
        <_>
          <internalNodes>
            0 -1 435 4.6262111514806747e-02</internalNodes>
          <leafValues>
            -1.0945231467485428e-01 3.3611992001533508e-01</leafValues></_>
        <_>
          <internalNodes>
            0 -1 0 1.2669784948229790e-02</internalNodes>
          <leafValues>
            2.2983837127685547e-01 -1.4833486080169678e-01</leafValues></_>
        <_>
          <internalNodes>
            0 -1 381 7.9729110002517700e-03</internalNodes>
          <leafValues>
            -6.9606143236160278e-01 4.5917052775621414e-02</leafValues></_>
        <_>
          <internalNodes>
            0 -1 172 9.5159113407135010e-03</internalNodes>
          <leafValues>
            2.3520946502685547e-01 -1.2745063006877899e-01</leafValues></_>
        <_>
          <internalNodes>
            0 -1 150 2.5686338543891907e-02</internalNodes>
          <leafValues>
            1.5074071288108826e-01 -2.0162935554981232e-01</leafValues></_>
        <_>
          <internalNodes>
            0 -1 338 6.2026185914874077e-03</internalNodes>
          <leafValues>
            -8.0196779966354370e-01 3.8649626076221466e-02</leafValues></_>
        <_>
          <internalNodes>
            0 -1 490 1.2563703581690788e-02</internalNodes>
          <leafValues>
            -5.3803867101669312e-01 5.4231684654951096e-02</leafValues></_>
        <_>
          <internalNodes>
            0 -1 507 6.4467728137969971e-02</internalNodes>
          <leafValues>
            -3.5490453243255615e-02 9.4906336069107056e-01</leafValues></_>
        <_>
          <internalNodes>
            0 -1 359 4.1787382215261459e-02</internalNodes>
          <leafValues>
            -6.6004209220409393e-02 4.3040272593498230e-01</leafValues></_>
        <_>
          <internalNodes>
            0 -1 446 3.9277307689189911e-02</internalNodes>
          <leafValues>
            -1.2725591659545898e-01 2.5229737162590027e-01</leafValues></_>
        <_>
          <internalNodes>
            0 -1 325 2.9551379382610321e-02</internalNodes>
          <leafValues>
            8.3305776119232178e-02 -3.7812408804893494e-01</leafValues></_>
        <_>
          <internalNodes>
            0 -1 197 5.8500850573182106e-03</internalNodes>
          <leafValues>
            -7.1808534860610962e-01 4.5399457216262817e-02</leafValues></_>
        <_>
          <internalNodes>
            0 -1 259 6.8900406360626221e-02</internalNodes>
          <leafValues>
            -5.6048292666673660e-02 6.7218804359436035e-01</leafValues></_>
        <_>
          <internalNodes>
            0 -1 64 1.1341740377247334e-02</internalNodes>
          <leafValues>
            2.8331279754638672e-01 -1.1522270739078522e-01</leafValues></_>
        <_>
          <internalNodes>
            0 -1 474 6.3333489000797272e-02</internalNodes>
          <leafValues>
            3.3571138978004456e-02 -9.1456693410873413e-01</leafValues></_>
        <_>
          <internalNodes>
            0 -1 513 1.2623179703950882e-02</internalNodes>
          <leafValues>
            -6.7784708738327026e-01 3.3284518867731094e-02</leafValues></_>
        <_>
          <internalNodes>
            0 -1 277 4.8407278954982758e-03</internalNodes>
          <leafValues>
            3.8960266113281250e-01 -7.8015096485614777e-02</leafValues></_>
        <_>
          <internalNodes>
            0 -1 509 1.1656511574983597e-02</internalNodes>
          <leafValues>
            -5.0140088796615601e-01 6.0404501855373383e-02</leafValues></_>
        <_>
          <internalNodes>
            0 -1 43 7.9453233629465103e-03</internalNodes>
          <leafValues>
            3.0200156569480896e-01 -1.0742405802011490e-01</leafValues></_>
        <_>
          <internalNodes>
            0 -1 316 6.6294684074819088e-03</internalNodes>
          <leafValues>
            -5.0570940971374512e-01 5.8002948760986328e-02</leafValues></_>
        <_>
          <internalNodes>
            0 -1 383 2.4690892547369003e-02</internalNodes>
          <leafValues>
            2.2592318058013916e-01 -1.6168692708015442e-01</leafValues></_>
        <_>
          <internalNodes>
            0 -1 213 1.0225815698504448e-02</internalNodes>
          <leafValues>
            -4.6344578266143799e-01 7.3603615164756775e-02</leafValues></_>
        <_>
          <internalNodes>
            0 -1 25 3.6971461959183216e-03</internalNodes>
          <leafValues>
            3.8081631064414978e-01 -8.1605382263660431e-02</leafValues></_>
        <_>
          <internalNodes>
            0 -1 500 1.0459983721375465e-02</internalNodes>
          <leafValues>
            -5.4943907260894775e-01 6.5123461186885834e-02</leafValues></_>
        <_>
          <internalNodes>
            0 -1 479 8.3100199699401855e-02</internalNodes>
          <leafValues>
            2.9233230277895927e-02 -9.8025381565093994e-01</leafValues></_>
        <_>
          <internalNodes>
            0 -1 221 4.8688665032386780e-02</internalNodes>
          <leafValues>
            -7.1320712566375732e-02 4.7908869385719299e-01</leafValues></_>
        <_>
          <internalNodes>
            0 -1 112 7.1171973831951618e-03</internalNodes>
          <leafValues>
            4.0588116645812988e-01 -7.3189698159694672e-02</leafValues></_>
        <_>
          <internalNodes>
            0 -1 63 1.5163630247116089e-02</internalNodes>
          <leafValues>
            1.5906839072704315e-01 -1.9602014124393463e-01</leafValues></_>
        <_>
          <internalNodes>
            0 -1 337 2.3101335391402245e-02</internalNodes>
          <leafValues>
            2.4481552839279175e-01 -1.3284485042095184e-01</leafValues></_>
        <_>
          <internalNodes>
            0 -1 2 3.4086063504219055e-02</internalNodes>
          <leafValues>
            8.5857860743999481e-02 -4.0577217936515808e-01</leafValues></_>
        <_>
          <internalNodes>
            0 -1 412 1.2706746347248554e-02</internalNodes>
          <leafValues>
            -5.0387120246887207e-01 6.7792750895023346e-02</leafValues></_>
        <_>
          <internalNodes>
            0 -1 249 4.3017815798521042e-02</internalNodes>
          <leafValues>
            8.8966146111488342e-02 -3.4837397933006287e-01</leafValues></_>
        <_>
          <internalNodes>
            0 -1 498 3.4290313720703125e-02</internalNodes>
          <leafValues>
            -1.6367872059345245e-01 2.0722885429859161e-01</leafValues></_>
        <_>
          <internalNodes>
            0 -1 414 6.1952676624059677e-03</internalNodes>
          <leafValues>
            -7.4212032556533813e-01 4.4831808656454086e-02</leafValues></_>
        <_>
          <internalNodes>
            0 -1 193 2.8539698570966721e-02</internalNodes>
          <leafValues>
            1.0579194873571396e-01 -2.6820120215415955e-01</leafValues></_>
        <_>
          <internalNodes>
            0 -1 120 1.8059898167848587e-02</internalNodes>
          <leafValues>
            1.5511712431907654e-01 -2.1375544369220734e-01</leafValues></_>
        <_>
          <internalNodes>
            0 -1 334 3.8464754819869995e-02</internalNodes>
          <leafValues>
            -9.3503609299659729e-02 3.5746914148330688e-01</leafValues></_>
        <_>
          <internalNodes>
            0 -1 135 1.2397101148962975e-02</internalNodes>
          <leafValues>
            -2.5989219546318054e-01 1.3043402135372162e-01</leafValues></_>
        <_>
          <internalNodes>
            0 -1 69 1.3747943565249443e-02</internalNodes>
          <leafValues>
            2.1754834055900574e-01 -1.4645336568355560e-01</leafValues></_>
        <_>
          <internalNodes>
            0 -1 192 7.2799816727638245e-02</internalNodes>
          <leafValues>
            3.8773465901613235e-02 -7.9624974727630615e-01</leafValues></_>
        <_>
          <internalNodes>
            0 -1 170 2.2980000823736191e-02</internalNodes>
          <leafValues>
            1.2339954078197479e-01 -2.5101694464683533e-01</leafValues></_>
        <_>
          <internalNodes>
            0 -1 125 5.5604740977287292e-02</internalNodes>
          <leafValues>
            5.8179266750812531e-02 -5.1413619518280029e-01</leafValues></_>
        <_>
          <internalNodes>
            0 -1 239 1.3955162838101387e-02</internalNodes>
          <leafValues>
            2.4998536705970764e-01 -1.2407658994197845e-01</leafValues></_>
        <_>
          <internalNodes>
            0 -1 70 7.8688308596611023e-02</internalNodes>
          <leafValues>
            2.7113154530525208e-02 -1.</leafValues></_>
        <_>
          <internalNodes>
            0 -1 289 6.0203978791832924e-03</internalNodes>
          <leafValues>
            -6.6081637144088745e-01 3.1927291303873062e-02</leafValues></_>
        <_>
          <internalNodes>
            0 -1 9 1.4444177038967609e-02</internalNodes>
          <leafValues>
            3.2112511992454529e-01 -8.6951762437820435e-02</leafValues></_>
        <_>
          <internalNodes>
            0 -1 26 6.6645741462707520e-02</internalNodes>
          <leafValues>
            5.1692612469196320e-02 -7.2611284255981445e-01</leafValues></_>
        <_>
          <internalNodes>
            0 -1 139 1.7833510413765907e-02</internalNodes>
          <leafValues>
            -2.4776358902454376e-01 1.0987711697816849e-01</leafValues></_>
        <_>
          <internalNodes>
            0 -1 4 2.3067785426974297e-02</internalNodes>
          <leafValues>
            1.1007182300090790e-01 -2.5745785236358643e-01</leafValues></_>
        <_>
          <internalNodes>
            0 -1 222 1.1036407202482224e-02</internalNodes>
          <leafValues>
            -2.8643718361854553e-01 1.1458174139261246e-01</leafValues></_>
        <_>
          <internalNodes>
            0 -1 266 3.5612569190561771e-03</internalNodes>
          <leafValues>
            6.8110883235931396e-01 -4.5884136110544205e-02</leafValues></_>
        <_>
          <internalNodes>
            0 -1 0 3.6954313516616821e-02</internalNodes>
          <leafValues>
            6.7585363984107971e-02 -4.4294595718383789e-01</leafValues></_>
        <_>
          <internalNodes>
            0 -1 325 1.4861641451716423e-02</internalNodes>
          <leafValues>
            1.6575354337692261e-01 -1.9148109853267670e-01</leafValues></_>
        <_>
          <internalNodes>
            0 -1 443 2.7272647712379694e-03</internalNodes>
          <leafValues>
            -7.6266193389892578e-01 4.5105226337909698e-02</leafValues></_>
        <_>
          <internalNodes>
            0 -1 257 6.2459912151098251e-03</internalNodes>
          <leafValues>
            3.3929276466369629e-01 -1.0050050169229507e-01</leafValues></_></weakClassifiers></_>
    <!-- stage 3 -->
    <_>
      <maxWeakCount>87</maxWeakCount>
      <stageThreshold>-4.0960600972175598e-01</stageThreshold>
      <weakClassifiers>
        <_>
          <internalNodes>
            0 -1 431 2.9144041240215302e-02</internalNodes>
          <leafValues>
            -5.2358490228652954e-01 6.4039409160614014e-02</leafValues></_>
        <_>
          <internalNodes>
            0 -1 206 3.6307714879512787e-02</internalNodes>
          <leafValues>
            -1.7555780708789825e-01 2.7655681967735291e-01</leafValues></_>
        <_>
          <internalNodes>
            0 -1 340 1.1003026738762856e-02</internalNodes>
          <leafValues>
            -5.2375495433807373e-01 7.7939935028553009e-02</leafValues></_>
        <_>
          <internalNodes>
            0 -1 330 2.0128266885876656e-02</internalNodes>
          <leafValues>
            2.5754761695861816e-01 -1.9309581816196442e-01</leafValues></_>
        <_>
          <internalNodes>
            0 -1 97 1.4466646127402782e-02</internalNodes>
          <leafValues>
            -3.7021431326866150e-01 1.1438906937837601e-01</leafValues></_>
        <_>
          <internalNodes>
            0 -1 326 1.3053305447101593e-02</internalNodes>
          <leafValues>
            1.6360417008399963e-01 -2.1460442245006561e-01</leafValues></_>
        <_>
          <internalNodes>
            0 -1 373 1.5937184914946556e-02</internalNodes>
          <leafValues>
            -3.0625131726264954e-01 1.4185240864753723e-01</leafValues></_>
        <_>
          <internalNodes>
            0 -1 284 2.2910010069608688e-02</internalNodes>
          <leafValues>
            -2.1498584747314453e-01 1.5120506286621094e-01</leafValues></_>
        <_>
          <internalNodes>
            0 -1 277 2.1250769495964050e-02</internalNodes>
          <leafValues>
            1.3812302052974701e-01 -2.4784854054450989e-01</leafValues></_>
        <_>
          <internalNodes>
            0 -1 307 3.8899298757314682e-02</internalNodes>
          <leafValues>
            1.2924730777740479e-01 -3.0582079291343689e-01</leafValues></_>
        <_>
          <internalNodes>
            0 -1 255 9.2802084982395172e-03</internalNodes>
          <leafValues>
            2.7766743302345276e-01 -1.6463957726955414e-01</leafValues></_>
        <_>
          <internalNodes>
            0 -1 353 6.4613018184900284e-03</internalNodes>
          <leafValues>
            -6.8749344348907471e-01 3.9505001157522202e-02</leafValues></_>
        <_>
          <internalNodes>
            0 -1 464 2.6463044807314873e-02</internalNodes>
          <leafValues>
            1.5915469825267792e-01 -1.8484364449977875e-01</leafValues></_>
        <_>
          <internalNodes>
            0 -1 341 7.0271082222461700e-03</internalNodes>
          <leafValues>
            -9.1926050186157227e-01 3.3989623188972473e-02</leafValues></_>
        <_>
          <internalNodes>
            0 -1 46 1.7755610868334770e-02</internalNodes>
          <leafValues>
            2.8761747479438782e-01 -1.1064404994249344e-01</leafValues></_>
        <_>
          <internalNodes>
            0 -1 260 1.1873204261064529e-02</internalNodes>
          <leafValues>
            1.7082846164703369e-01 -1.7418929934501648e-01</leafValues></_>
        <_>
          <internalNodes>
            0 -1 459 4.5569809153676033e-03</internalNodes>
          <leafValues>
            -8.2574981451034546e-01 4.0298413485288620e-02</leafValues></_>
        <_>
          <internalNodes>
            0 -1 489 3.3685296773910522e-02</internalNodes>
          <leafValues>
            1.0091998428106308e-01 -2.7564847469329834e-01</leafValues></_>
        <_>
          <internalNodes>
            0 -1 181 4.9447767436504364e-02</internalNodes>
          <leafValues>
            3.4413456916809082e-02 -8.1734043359756470e-01</leafValues></_>
        <_>
          <internalNodes>
            0 -1 108 5.3151678293943405e-03</internalNodes>
          <leafValues>
            -4.9674913287162781e-01 5.1355298608541489e-02</leafValues></_>
        <_>
          <internalNodes>
            0 -1 434 1.3795701786875725e-02</internalNodes>
          <leafValues>
            -4.6486571431159973e-01 6.2352173030376434e-02</leafValues></_>
        <_>
          <internalNodes>
            0 -1 292 1.8115218728780746e-02</internalNodes>
          <leafValues>
            1.9762450456619263e-01 -1.5431408584117889e-01</leafValues></_>
        <_>
          <internalNodes>
            0 -1 169 1.4045743737369776e-03</internalNodes>
          <leafValues>
            5.6785547733306885e-01 -5.2259877324104309e-02</leafValues></_>
        <_>
          <internalNodes>
            0 -1 67 1.8261540681123734e-02</internalNodes>
          <leafValues>
            1.4206920564174652e-01 -1.8784533441066742e-01</leafValues></_>
        <_>
          <internalNodes>
            0 -1 447 9.9358316510915756e-03</internalNodes>
          <leafValues>
            -3.2472255825996399e-01 9.1248780488967896e-02</leafValues></_>
        <_>
          <internalNodes>
            0 -1 237 3.2722972333431244e-02</internalNodes>
          <leafValues>
            1.2327379733324051e-01 -2.1704840660095215e-01</leafValues></_>
        <_>
          <internalNodes>
            0 -1 268 2.3042038083076477e-02</internalNodes>
          <leafValues>
            1.1110740900039673e-01 -2.5494232773780823e-01</leafValues></_>
        <_>
          <internalNodes>
            0 -1 265 9.5341339707374573e-02</internalNodes>
          <leafValues>
            2.8632996603846550e-02 -8.3039009571075439e-01</leafValues></_>
        <_>
          <internalNodes>
            0 -1 241 2.1096430718898773e-02</internalNodes>
          <leafValues>
            -2.0918293297290802e-01 1.3595519959926605e-01</leafValues></_>
        <_>
          <internalNodes>
            0 -1 450 4.3673317879438400e-02</internalNodes>
          <leafValues>
            -1.1040555685758591e-01 2.4122251570224762e-01</leafValues></_>
        <_>
          <internalNodes>
            0 -1 266 9.0053416788578033e-02</internalNodes>
          <leafValues>
            4.9420628696680069e-02 -6.5799170732498169e-01</leafValues></_>
        <_>
          <internalNodes>
            0 -1 363 6.1636213213205338e-03</internalNodes>
          <leafValues>
            -8.2077342271804810e-01 2.4533240124583244e-02</leafValues></_>
        <_>
          <internalNodes>
            0 -1 1 1.4301711693406105e-02</internalNodes>
          <leafValues>
            1.4647959172725677e-01 -1.6674932837486267e-01</leafValues></_>
        <_>
          <internalNodes>
            0 -1 508 1.7998252063989639e-02</internalNodes>
          <leafValues>
            -2.5402423739433289e-01 1.0774538666009903e-01</leafValues></_>
        <_>
          <internalNodes>
            0 -1 355 5.3919486701488495e-02</internalNodes>
          <leafValues>
            -5.0417095422744751e-02 6.0355192422866821e-01</leafValues></_>
        <_>
          <internalNodes>
            0 -1 161 9.8321028053760529e-03</internalNodes>
          <leafValues>
            -3.1895476579666138e-01 9.6159964799880981e-02</leafValues></_>
        <_>
          <internalNodes>
            0 -1 57 1.3285797089338303e-02</internalNodes>
          <leafValues>
            1.6390530765056610e-01 -1.9166715443134308e-01</leafValues></_>
        <_>
          <internalNodes>
            0 -1 306 4.7930523753166199e-02</internalNodes>
          <leafValues>
            6.7744769155979156e-02 -4.2487257719039917e-01</leafValues></_>
        <_>
          <internalNodes>
            0 -1 12 1.1765491217374802e-03</internalNodes>
          <leafValues>
            6.6238701343536377e-01 -4.9981392920017242e-02</leafValues></_>
        <_>
          <internalNodes>
            0 -1 426 5.2525155246257782e-02</internalNodes>
          <leafValues>
            6.0971822589635849e-02 -4.0749037265777588e-01</leafValues></_>
        <_>
          <internalNodes>
            0 -1 372 2.1855097264051437e-02</internalNodes>
          <leafValues>
            -1.9651897251605988e-01 1.4384762942790985e-01</leafValues></_>
        <_>
          <internalNodes>
            0 -1 287 9.5145357772707939e-04</internalNodes>
          <leafValues>
            6.8028521537780762e-01 -4.2539618909358978e-02</leafValues></_>
        <_>
          <internalNodes>
            0 -1 319 1.7307685688138008e-02</internalNodes>
          <leafValues>
            2.0668044686317444e-01 -1.2038170546293259e-01</leafValues></_>
        <_>
          <internalNodes>
            0 -1 60 2.6152456179261208e-02</internalNodes>
          <leafValues>
            -1.2343421578407288e-01 2.2342741489410400e-01</leafValues></_>
        <_>
          <internalNodes>
            0 -1 424 1.2851394712924957e-02</internalNodes>
          <leafValues>
            -4.6909186244010925e-01 4.9768634140491486e-02</leafValues></_>
        <_>
          <internalNodes>
            0 -1 109 7.7509388327598572e-02</internalNodes>
          <leafValues>
            -4.8428650945425034e-02 5.7306510210037231e-01</leafValues></_>
        <_>
          <internalNodes>
            0 -1 362 6.2001213431358337e-02</internalNodes>
          <leafValues>
            -3.7871379405260086e-02 6.2035697698593140e-01</leafValues></_>
        <_>
          <internalNodes>
            0 -1 6 2.0143274217844009e-02</internalNodes>
          <leafValues>
            -2.2519920766353607e-01 1.0272867977619171e-01</leafValues></_>
        <_>
          <internalNodes>
            0 -1 456 7.3270681314170361e-03</internalNodes>
          <leafValues>
            -6.7707705497741699e-01 3.4052871167659760e-02</leafValues></_>
        <_>
          <internalNodes>
            0 -1 298 1.3217844069004059e-02</internalNodes>
          <leafValues>
            1.9307912886142731e-01 -1.3338516652584076e-01</leafValues></_>
        <_>
          <internalNodes>
            0 -1 88 3.1422700732946396e-02</internalNodes>
          <leafValues>
            1.3821120560169220e-01 -1.8120923638343811e-01</leafValues></_>
        <_>
          <internalNodes>
            0 -1 465 9.2332614585757256e-03</internalNodes>
          <leafValues>
            -4.9856773018836975e-01 4.4821228832006454e-02</leafValues></_>
        <_>
          <internalNodes>
            0 -1 200 2.4077888578176498e-02</internalNodes>
          <leafValues>
            -1.2619671225547791e-01 2.0410387217998505e-01</leafValues></_>
        <_>
          <internalNodes>
            0 -1 254 2.0297504961490631e-02</internalNodes>
          <leafValues>
            1.3077437877655029e-01 -2.2313518822193146e-01</leafValues></_>
        <_>
          <internalNodes>
            0 -1 388 1.4994187280535698e-02</internalNodes>
          <leafValues>
            1.8946810066699982e-01 -1.2964841723442078e-01</leafValues></_>
        <_>
          <internalNodes>
            0 -1 80 8.9971236884593964e-03</internalNodes>
          <leafValues>
            -3.9079096913337708e-01 7.4484907090663910e-02</leafValues></_>
        <_>
          <internalNodes>
            0 -1 394 7.6637365855276585e-03</internalNodes>
          <leafValues>
            -4.2871719598770142e-01 5.6110091507434845e-02</leafValues></_>
        <_>
          <internalNodes>
            0 -1 276 4.4926971197128296e-02</internalNodes>
          <leafValues>
            -1.1464143544435501e-01 2.4278002977371216e-01</leafValues></_>
        <_>
          <internalNodes>
            0 -1 322 8.0261304974555969e-02</internalNodes>
          <leafValues>
            -3.6572743207216263e-02 7.6137113571166992e-01</leafValues></_>
        <_>
          <internalNodes>
            0 -1 295 5.9927008114755154e-03</internalNodes>
          <leafValues>
            4.0071773529052734e-01 -5.9036273509263992e-02</leafValues></_>
        <_>
          <internalNodes>
            0 -1 271 2.8951799497008324e-02</internalNodes>
          <leafValues>
            1.8809238076210022e-01 -1.3638466596603394e-01</leafValues></_>
        <_>
          <internalNodes>
            0 -1 24 4.7337198629975319e-03</internalNodes>
          <leafValues>
            -5.3272998332977295e-01 5.0516828894615173e-02</leafValues></_>
        <_>
          <internalNodes>
            0 -1 384 3.7399411201477051e-02</internalNodes>
          <leafValues>
            -6.7041806876659393e-02 4.2289793491363525e-01</leafValues></_>
        <_>
          <internalNodes>
            0 -1 312 1.8295956775546074e-02</internalNodes>
          <leafValues>
            1.5797463059425354e-01 -1.5146139264106750e-01</leafValues></_>
        <_>
          <internalNodes>
            0 -1 146 1.1773576028645039e-02</internalNodes>
          <leafValues>
            -3.5160925984382629e-01 7.0866629481315613e-02</leafValues></_>
        <_>
          <internalNodes>
            0 -1 95 6.6009923815727234e-02</internalNodes>
          <leafValues>
            -4.5634001493453979e-02 5.4247349500656128e-01</leafValues></_>
        <_>
          <internalNodes>
            0 -1 55 3.1410716474056244e-03</internalNodes>
          <leafValues>
            -1. 3.2032210379838943e-02</leafValues></_>
        <_>
          <internalNodes>
            0 -1 131 7.8190460801124573e-02</internalNodes>
          <leafValues>
            -6.0789126902818680e-02 4.2308816313743591e-01</leafValues></_>
        <_>
          <internalNodes>
            0 -1 252 6.1586648225784302e-02</internalNodes>
          <leafValues>
            -4.4689040631055832e-02 5.2248561382293701e-01</leafValues></_>
        <_>
          <internalNodes>
            0 -1 422 1.0377801954746246e-02</internalNodes>
          <leafValues>
            -8.5609787702560425e-01 2.9692664742469788e-02</leafValues></_>
        <_>
          <internalNodes>
            0 -1 272 5.3406171500682831e-02</internalNodes>
          <leafValues>
            -6.6885851323604584e-02 3.6372911930084229e-01</leafValues></_>
        <_>
          <internalNodes>
            0 -1 46 2.2865343838930130e-02</internalNodes>
          <leafValues>
            1.8963442742824554e-01 -1.1919277906417847e-01</leafValues></_>
        <_>
          <internalNodes>
            0 -1 65 1.0190300643444061e-02</internalNodes>
          <leafValues>
            1.9331417977809906e-01 -1.2743884325027466e-01</leafValues></_>
        <_>
          <internalNodes>
            0 -1 339 7.1757575497031212e-03</internalNodes>
          <leafValues>
            -4.5201560854911804e-01 5.5397223681211472e-02</leafValues></_>
        <_>
          <internalNodes>
            0 -1 418 2.5517210364341736e-02</internalNodes>
          <leafValues>
            1.1760245263576508e-01 -2.1130101382732391e-01</leafValues></_>
        <_>
          <internalNodes>
            0 -1 411 9.1210417449474335e-03</internalNodes>
          <leafValues>
            -5.0673890113830566e-01 4.5952968299388885e-02</leafValues></_>
        <_>
          <internalNodes>
            0 -1 434 2.8273660689592361e-02</internalNodes>
          <leafValues>
            1.4034566283226013e-01 -1.6933815181255341e-01</leafValues></_>
        <_>
          <internalNodes>
            0 -1 41 1.4210549183189869e-02</internalNodes>
          <leafValues>
            2.0374736189842224e-01 -1.1411389708518982e-01</leafValues></_>
        <_>
          <internalNodes>
            0 -1 467 9.8805371671915054e-03</internalNodes>
          <leafValues>
            -4.5857796072959900e-01 5.4189395159482956e-02</leafValues></_>
        <_>
          <internalNodes>
            0 -1 376 3.0552305281162262e-02</internalNodes>
          <leafValues>
            7.6768688857555389e-02 -3.3525136113166809e-01</leafValues></_>
        <_>
          <internalNodes>
            0 -1 288 8.0752540379762650e-03</internalNodes>
          <leafValues>
            3.9578402042388916e-01 -6.9753967225551605e-02</leafValues></_>
        <_>
          <internalNodes>
            0 -1 504 1.1433332227170467e-02</internalNodes>
          <leafValues>
            -4.3206149339675903e-01 5.7480972260236740e-02</leafValues></_>
        <_>
          <internalNodes>
            0 -1 496 2.2158764302730560e-02</internalNodes>
          <leafValues>
            1.0424276441335678e-01 -2.2392188012599945e-01</leafValues></_>
        <_>
          <internalNodes>
            0 -1 259 4.5198220759630203e-02</internalNodes>
          <leafValues>
            -7.3278583586215973e-02 3.7189939618110657e-01</leafValues></_>
        <_>
          <internalNodes>
            0 -1 368 3.9976432919502258e-02</internalNodes>
          <leafValues>
            5.1418885588645935e-02 -4.4978880882263184e-01</leafValues></_>
        <_>
          <internalNodes>
            0 -1 309 1.1064861714839935e-01</internalNodes>
          <leafValues>
            2.3701263591647148e-02 -7.9269164800643921e-01</leafValues></_>
        <_>
          <internalNodes>
            0 -1 105 2.0189290866255760e-02</internalNodes>
          <leafValues>
            1.3364495337009430e-01 -1.8679687380790710e-01</leafValues></_></weakClassifiers></_>
    <!-- stage 4 -->
    <_>
      <maxWeakCount>100</maxWeakCount>
      <stageThreshold>-7.8586316108703613e-01</stageThreshold>
      <weakClassifiers>
        <_>
          <internalNodes>
            0 -1 283 5.8405667543411255e-02</internalNodes>
          <leafValues>
            -4.1635689139366150e-01 1.6853933036327362e-01</leafValues></_>
        <_>
          <internalNodes>
            0 -1 23 3.5775005817413330e-02</internalNodes>
          <leafValues>
            -1.3851529359817505e-01 2.4299921095371246e-01</leafValues></_>
        <_>
          <internalNodes>
            0 -1 269 3.1661044806241989e-02</internalNodes>
          <leafValues>
            8.2999333739280701e-02 -3.8149270415306091e-01</leafValues></_>
        <_>
          <internalNodes>
            0 -1 76 8.4244892001152039e-02</internalNodes>
          <leafValues>
            -1.1870030313730240e-02 5.7767176628112793e-01</leafValues></_>
        <_>
          <internalNodes>
            0 -1 130 2.5866145268082619e-02</internalNodes>
          <leafValues>
            9.5791175961494446e-02 -2.3680348694324493e-01</leafValues></_>
        <_>
          <internalNodes>
            0 -1 180 1.5553880482912064e-02</internalNodes>
          <leafValues>
            -3.3574897050857544e-01 7.6968200504779816e-02</leafValues></_>
        <_>
          <internalNodes>
            0 -1 476 4.0582597255706787e-02</internalNodes>
          <leafValues>
            5.7077139616012573e-02 -3.2863080501556396e-01</leafValues></_>
        <_>
          <internalNodes>
            0 -1 374 3.0007611960172653e-02</internalNodes>
          <leafValues>
            -1.0754228383302689e-01 2.1644049882888794e-01</leafValues></_>
        <_>
          <internalNodes>
            0 -1 304 3.0744075775146484e-02</internalNodes>
          <leafValues>
            9.6545286476612091e-02 -2.2434714436531067e-01</leafValues></_>
        <_>
          <internalNodes>
            0 -1 379 7.0994213223457336e-02</internalNodes>
          <leafValues>
            -4.0062382817268372e-02 5.9772622585296631e-01</leafValues></_>
        <_>
          <internalNodes>
            0 -1 345 1.2014022096991539e-02</internalNodes>
          <leafValues>
            -2.2547595202922821e-01 1.0243526846170425e-01</leafValues></_>
        <_>
          <internalNodes>
            0 -1 170 1.0566927492618561e-02</internalNodes>
          <leafValues>
            1.7207697033882141e-01 -1.4192321896553040e-01</leafValues></_>
        <_>
          <internalNodes>
            0 -1 204 2.5209642946720123e-02</internalNodes>
          <leafValues>
            -1.1309064924716949e-01 2.2412155568599701e-01</leafValues></_>
        <_>
          <internalNodes>
            0 -1 494 2.8399343136698008e-03</internalNodes>
          <leafValues>
            -8.2291293144226074e-01 2.5342319160699844e-02</leafValues></_>
        <_>
          <internalNodes>
            0 -1 256 1.1738887056708336e-02</internalNodes>
          <leafValues>
            1.6644522547721863e-01 -1.6174408793449402e-01</leafValues></_>
        <_>
          <internalNodes>
            0 -1 10 1.6589637845754623e-02</internalNodes>
          <leafValues>
            1.3739201426506042e-01 -1.6786631941795349e-01</leafValues></_>
        <_>
          <internalNodes>
            0 -1 349 4.1098739951848984e-02</internalNodes>
          <leafValues>
            -8.3103165030479431e-02 2.9402104020118713e-01</leafValues></_>
        <_>
          <internalNodes>
            0 -1 54 3.7823006510734558e-02</internalNodes>
          <leafValues>
            -1.1844610422849655e-01 1.8367289006710052e-01</leafValues></_>
        <_>
          <internalNodes>
            0 -1 157 4.7276943922042847e-02</internalNodes>
          <leafValues>
            -6.5992228686809540e-02 4.0014728903770447e-01</leafValues></_>
        <_>
          <internalNodes>
            0 -1 441 6.0551734641194344e-03</internalNodes>
          <leafValues>
            -7.7371770143508911e-01 2.4804515764117241e-02</leafValues></_>
        <_>
          <internalNodes>
            0 -1 48 3.4956051968038082e-03</internalNodes>
          <leafValues>
            3.7982243299484253e-01 -6.4468659460544586e-02</leafValues></_>
        <_>
          <internalNodes>
            0 -1 335 4.5762099325656891e-03</internalNodes>
          <leafValues>
            -5.2635526657104492e-01 6.1053339391946793e-02</leafValues></_>
        <_>
          <internalNodes>
            0 -1 187 4.7710724174976349e-02</internalNodes>
          <leafValues>
            4.7606121748685837e-02 -4.6880307793617249e-01</leafValues></_>
        <_>
          <internalNodes>
            0 -1 215 6.2779821455478668e-02</internalNodes>
          <leafValues>
            2.3358024656772614e-02 -9.1118097305297852e-01</leafValues></_>
        <_>
          <internalNodes>
            0 -1 279 3.2636199146509171e-02</internalNodes>
          <leafValues>
            6.6319547593593597e-02 -2.7951484918594360e-01</leafValues></_>
        <_>
          <internalNodes>
            0 -1 402 9.2605156823992729e-03</internalNodes>
          <leafValues>
            -4.9420574307441711e-01 4.2387161403894424e-02</leafValues></_>
        <_>
          <internalNodes>
            0 -1 3 1.7977468669414520e-02</internalNodes>
          <leafValues>
            1.2129221111536026e-01 -1.6640752553939819e-01</leafValues></_>
        <_>
          <internalNodes>
            0 -1 424 7.3515638709068298e-02</internalNodes>
          <leafValues>
            -3.0664732679724693e-02 7.1980756521224976e-01</leafValues></_>
        <_>
          <internalNodes>
            0 -1 98 1.0499145835638046e-02</internalNodes>
          <leafValues>
            -3.3873507380485535e-01 6.8706713616847992e-02</leafValues></_>
        <_>
          <internalNodes>
            0 -1 183 1.4700429514050484e-02</internalNodes>
          <leafValues>
            2.2933897376060486e-01 -8.3910055458545685e-02</leafValues></_>
        <_>
          <internalNodes>
            0 -1 208 2.1664224565029144e-02</internalNodes>
          <leafValues>
            1.3872088491916656e-01 -1.3772910833358765e-01</leafValues></_>
        <_>
          <internalNodes>
            0 -1 343 1.6626916825771332e-02</internalNodes>
          <leafValues>
            2.2382302582263947e-01 -8.9996591210365295e-02</leafValues></_>
        <_>
          <internalNodes>
            0 -1 454 2.2441633045673370e-02</internalNodes>
          <leafValues>
            -1.9182550907135010e-01 1.2190590053796768e-01</leafValues></_>
        <_>
          <internalNodes>
            0 -1 408 4.3423190712928772e-02</internalNodes>
          <leafValues>
            5.4523639380931854e-02 -3.4507870674133301e-01</leafValues></_>
        <_>
          <internalNodes>
            0 -1 84 1.6439251601696014e-02</internalNodes>
          <leafValues>
            1.8504418432712555e-01 -1.2643139064311981e-01</leafValues></_>
        <_>
          <internalNodes>
            0 -1 344 5.5282795801758766e-03</internalNodes>
          <leafValues>
            -6.2827414274215698e-01 3.5240285098552704e-02</leafValues></_>
        <_>
          <internalNodes>
            0 -1 173 6.7355303326621652e-04</internalNodes>
          <leafValues>
            6.9923597574234009e-01 -3.3989220857620239e-02</leafValues></_>
        <_>
          <internalNodes>
            0 -1 311 6.7431017756462097e-02</internalNodes>
          <leafValues>
            3.8625072687864304e-02 -6.4586973190307617e-01</leafValues></_>
        <_>
          <internalNodes>
            0 -1 220 3.0115360394120216e-02</internalNodes>
          <leafValues>
            -1.1123237758874893e-01 1.8135471642017365e-01</leafValues></_>
        <_>
          <internalNodes>
            0 -1 324 4.4974712654948235e-03</internalNodes>
          <leafValues>
            3.5341337323188782e-01 -5.5715005844831467e-02</leafValues></_>
        <_>
          <internalNodes>
            0 -1 393 3.5528354346752167e-02</internalNodes>
          <leafValues>
            -1.1704056710004807e-01 1.7318144440650940e-01</leafValues></_>
        <_>
          <internalNodes>
            0 -1 176 7.3617473244667053e-02</internalNodes>
          <leafValues>
            3.1295787543058395e-02 -7.0279699563980103e-01</leafValues></_>
        <_>
          <internalNodes>
            0 -1 246 1.5294875949621201e-02</internalNodes>
          <leafValues>
            -2.5699904561042786e-01 7.7032759785652161e-02</leafValues></_>
        <_>
          <internalNodes>
            0 -1 422 1.6645997762680054e-02</internalNodes>
          <leafValues>
            3.5414159297943115e-01 -6.2622487545013428e-02</leafValues></_>
        <_>
          <internalNodes>
            0 -1 268 3.8890256546437740e-03</internalNodes>
          <leafValues>
            3.6781364679336548e-01 -5.6416433304548264e-02</leafValues></_>
        <_>
          <internalNodes>
            0 -1 494 6.2154391780495644e-03</internalNodes>
          <leafValues>
            -4.5184367895126343e-01 5.2266195416450500e-02</leafValues></_>
        <_>
          <internalNodes>
            0 -1 214 1.1597045231610537e-03</internalNodes>
          <leafValues>
            6.6293317079544067e-01 -4.3759092688560486e-02</leafValues></_>
        <_>
          <internalNodes>
            0 -1 154 1.1121707037091255e-02</internalNodes>
          <leafValues>
            -3.4660664200782776e-01 6.4366318285465240e-02</leafValues></_>
        <_>
          <internalNodes>
            0 -1 144 6.3247665762901306e-02</internalNodes>
          <leafValues>
            -3.9588179439306259e-02 6.0037052631378174e-01</leafValues></_>
        <_>
          <internalNodes>
            0 -1 462 7.7011617831885815e-03</internalNodes>
          <leafValues>
            -5.3051930665969849e-01 5.1868546754121780e-02</leafValues></_>
        <_>
          <internalNodes>
            0 -1 291 1.4268910512328148e-02</internalNodes>
          <leafValues>
            1.9132883846759796e-01 -1.2594345211982727e-01</leafValues></_>
        <_>
          <internalNodes>
            0 -1 482 3.6072365939617157e-02</internalNodes>
          <leafValues>
            -7.8696191310882568e-02 2.8107213973999023e-01</leafValues></_>
        <_>
          <internalNodes>
            0 -1 211 1.1714220978319645e-02</internalNodes>
          <leafValues>
            1.8323920667171478e-01 -1.2990793585777283e-01</leafValues></_>
        <_>
          <internalNodes>
            0 -1 481 7.4268560856580734e-03</internalNodes>
          <leafValues>
            -4.8253339529037476e-01 4.0233954787254333e-02</leafValues></_>
        <_>
          <internalNodes>
            0 -1 78 2.1197642199695110e-03</internalNodes>
          <leafValues>
            -8.8912224769592285e-01 2.1328642964363098e-02</leafValues></_>
        <_>
          <internalNodes>
            0 -1 310 3.7671055179089308e-03</internalNodes>
          <leafValues>
            5.5390536785125732e-01 -4.1042529046535492e-02</leafValues></_>
        <_>
          <internalNodes>
            0 -1 285 1.0319873690605164e-01</internalNodes>
          <leafValues>
            -1.8337089568376541e-02 7.0686644315719604e-01</leafValues></_>
        <_>
          <internalNodes>
            0 -1 235 2.5002740323543549e-02</internalNodes>
          <leafValues>
            -1.1223475635051727e-01 1.6129337251186371e-01</leafValues></_>
        <_>
          <internalNodes>
            0 -1 69 3.3034935593605042e-02</internalNodes>
          <leafValues>
            6.8039715290069580e-02 -2.7001455426216125e-01</leafValues></_>
        <_>
          <internalNodes>
            0 -1 358 3.5337686538696289e-02</internalNodes>
          <leafValues>
            -8.2493402063846588e-02 2.9268804192543030e-01</leafValues></_>
        <_>
          <internalNodes>
            0 -1 392 5.3213644772768021e-02</internalNodes>
          <leafValues>
            3.0068110674619675e-02 -7.6582527160644531e-01</leafValues></_>
        <_>
          <internalNodes>
            0 -1 469 7.5437501072883606e-02</internalNodes>
          <leafValues>
            1.8797365948557854e-02 -8.2006245851516724e-01</leafValues></_>
        <_>
          <internalNodes>
            0 -1 389 2.3086454719305038e-02</internalNodes>
          <leafValues>
            9.3220695853233337e-02 -2.0556142926216125e-01</leafValues></_>
        <_>
          <internalNodes>
            0 -1 390 2.5555079802870750e-02</internalNodes>
          <leafValues>
            -1.2258243560791016e-01 1.6931149363517761e-01</leafValues></_>
        <_>
          <internalNodes>
            0 -1 493 6.3313171267509460e-03</internalNodes>
          <leafValues>
            -4.2752850055694580e-01 4.4347643852233887e-02</leafValues></_>
        <_>
          <internalNodes>
            0 -1 142 1.1186794377863407e-02</internalNodes>
          <leafValues>
            3.0287292599678040e-01 -6.3301369547843933e-02</leafValues></_>
        <_>
          <internalNodes>
            0 -1 143 5.0577960908412933e-02</internalNodes>
          <leafValues>
            -7.0691384375095367e-02 3.2091152667999268e-01</leafValues></_>
        <_>
          <internalNodes>
            0 -1 141 2.1225470118224621e-03</internalNodes>
          <leafValues>
            -9.7197377681732178e-01 1.6800645738840103e-02</leafValues></_>
        <_>
          <internalNodes>
            0 -1 327 1.5033580362796783e-02</internalNodes>
          <leafValues>
            1.1253549158573151e-01 -1.5878602862358093e-01</leafValues></_>
        <_>
          <internalNodes>
            0 -1 212 1.2147000059485435e-02</internalNodes>
          <leafValues>
            2.4592535197734833e-01 -8.0045327544212341e-02</leafValues></_>
        <_>
          <internalNodes>
            0 -1 7 8.9994929730892181e-03</internalNodes>
          <leafValues>
            -4.9016085267066956e-01 3.5363398492336273e-02</leafValues></_>
        <_>
          <internalNodes>
            0 -1 480 5.7132527232170105e-02</internalNodes>
          <leafValues>
            -2.7198290452361107e-02 7.4951440095901489e-01</leafValues></_>
        <_>
          <internalNodes>
            0 -1 519 2.6142418384552002e-02</internalNodes>
          <leafValues>
            1.0228379815816879e-01 -1.9073270261287689e-01</leafValues></_>
        <_>
          <internalNodes>
            0 -1 11 1.0955724865198135e-03</internalNodes>
          <leafValues>
            6.1844646930694580e-01 -3.2902896404266357e-02</leafValues></_>
        <_>
          <internalNodes>
            0 -1 512 1.8218224868178368e-02</internalNodes>
          <leafValues>
            -2.3764951527118683e-01 9.2283360660076141e-02</leafValues></_>
        <_>
          <internalNodes>
            0 -1 68 2.8116194531321526e-02</internalNodes>
          <leafValues>
            9.7825795412063599e-02 -2.0156694948673248e-01</leafValues></_>
        <_>
          <internalNodes>
            0 -1 5 3.0759189277887344e-02</internalNodes>
          <leafValues>
            -8.9772567152976990e-02 2.3244261741638184e-01</leafValues></_>
        <_>
          <internalNodes>
            0 -1 351 2.2004563361406326e-02</internalNodes>
          <leafValues>
            1.6301716864109039e-01 -1.2893182039260864e-01</leafValues></_>
        <_>
          <internalNodes>
            0 -1 385 1.7939414829015732e-03</internalNodes>
          <leafValues>
            -7.9405224323272705e-01 2.3684034124016762e-02</leafValues></_>
        <_>
          <internalNodes>
            0 -1 66 9.9999718368053436e-03</internalNodes>
          <leafValues>
            2.4098253250122070e-01 -9.6406303346157074e-02</leafValues></_>
        <_>
          <internalNodes>
            0 -1 470 6.5061450004577637e-03</internalNodes>
          <leafValues>
            -6.1598134040832520e-01 3.3571556210517883e-02</leafValues></_>
        <_>
          <internalNodes>
            0 -1 67 6.7806571722030640e-02</internalNodes>
          <leafValues>
            1.7465222626924515e-02 -7.8498452901840210e-01</leafValues></_>
        <_>
          <internalNodes>
            0 -1 191 6.1172753572463989e-02</internalNodes>
          <leafValues>
            -3.5812962800264359e-02 5.7516825199127197e-01</leafValues></_>
        <_>
          <internalNodes>
            0 -1 420 4.5123148709535599e-02</internalNodes>
          <leafValues>
            5.7353254407644272e-02 -3.7837654352188110e-01</leafValues></_>
        <_>
          <internalNodes>
            0 -1 283 3.2348308712244034e-02</internalNodes>
          <leafValues>
            -1.1196287721395493e-01 1.7072211205959320e-01</leafValues></_>
        <_>
          <internalNodes>
            0 -1 367 1.7069747671484947e-02</internalNodes>
          <leafValues>
            2.3227795958518982e-01 -9.3319728970527649e-02</leafValues></_>
        <_>
          <internalNodes>
            0 -1 263 4.4449184089899063e-02</internalNodes>
          <leafValues>
            3.6589965224266052e-02 -5.2458089590072632e-01</leafValues></_>
        <_>
          <internalNodes>
            0 -1 22 8.2412078976631165e-02</internalNodes>
          <leafValues>
            -4.2649280279874802e-02 5.7296121120452881e-01</leafValues></_>
        <_>
          <internalNodes>
            0 -1 518 1.9877348095178604e-02</internalNodes>
          <leafValues>
            -1.7033728957176208e-01 1.1914755403995514e-01</leafValues></_>
        <_>
          <internalNodes>
            0 -1 360 4.3412894010543823e-02</internalNodes>
          <leafValues>
            -9.6469141542911530e-02 2.5349742174148560e-01</leafValues></_>
        <_>
          <internalNodes>
            0 -1 461 7.4679635465145111e-02</internalNodes>
          <leafValues>
            3.4446462988853455e-02 -7.4457097053527832e-01</leafValues></_>
        <_>
          <internalNodes>
            0 -1 196 6.6352006979286671e-03</internalNodes>
          <leafValues>
            -5.9899735450744629e-01 3.0778141692280769e-02</leafValues></_>
        <_>
          <internalNodes>
            0 -1 128 8.0908536911010742e-03</internalNodes>
          <leafValues>
            4.1694167256355286e-01 -5.5043287575244904e-02</leafValues></_>
        <_>
          <internalNodes>
            0 -1 315 7.3734551668167114e-02</internalNodes>
          <leafValues>
            -3.2658897340297699e-02 5.3368085622787476e-01</leafValues></_>
        <_>
          <internalNodes>
            0 -1 227 3.5789035260677338e-02</internalNodes>
          <leafValues>
            -7.0728898048400879e-02 2.6307442784309387e-01</leafValues></_>
        <_>
          <internalNodes>
            0 -1 477 1.5330355614423752e-02</internalNodes>
          <leafValues>
            3.0284193158149719e-01 -6.9881126284599304e-02</leafValues></_>
        <_>
          <internalNodes>
            0 -1 132 1.8014581874012947e-02</internalNodes>
          <leafValues>
            1.8683242797851563e-01 -1.0263741761445999e-01</leafValues></_>
        <_>
          <internalNodes>
            0 -1 485 4.4607605785131454e-02</internalNodes>
          <leafValues>
            -4.4412516057491302e-02 4.4178661704063416e-01</leafValues></_>
        <_>
          <internalNodes>
            0 -1 86 3.4951423294842243e-03</internalNodes>
          <leafValues>
            -8.8732671737670898e-01 2.3719646036624908e-02</leafValues></_>
        <_>
          <internalNodes>
            0 -1 313 3.0044693499803543e-02</internalNodes>
          <leafValues>
            6.7800723016262054e-02 -2.7804896235466003e-01</leafValues></_></weakClassifiers></_>
    <!-- stage 5 -->
    <_>
      <maxWeakCount>100</maxWeakCount>
      <stageThreshold>-7.4264740943908691e-01</stageThreshold>
      <weakClassifiers>
        <_>
          <internalNodes>
            0 -1 47 2.0258933305740356e-02</internalNodes>
          <leafValues>
            -4.8525470495223999e-01 -1.0756972432136536e-01</leafValues></_>
        <_>
          <internalNodes>
            0 -1 302 3.3744297921657562e-02</internalNodes>
          <leafValues>
            -1.6070196032524109e-01 2.2054918110370636e-01</leafValues></_>
        <_>
          <internalNodes>
            0 -1 472 1.6452796757221222e-02</internalNodes>
          <leafValues>
            -2.9823094606399536e-01 1.0024726390838623e-01</leafValues></_>
        <_>
          <internalNodes>
            0 -1 457 5.0483527593314648e-03</internalNodes>
          <leafValues>
            -8.7500423192977905e-01 6.6492654383182526e-02</leafValues></_>
        <_>
          <internalNodes>
            0 -1 320 3.3164046704769135e-02</internalNodes>
          <leafValues>
            -1.4159065485000610e-01 2.1858848631381989e-01</leafValues></_>
        <_>
          <internalNodes>
            0 -1 16 2.6893038302659988e-03</internalNodes>
          <leafValues>
            4.7751644253730774e-01 -2.4687200784683228e-02</leafValues></_>
        <_>
          <internalNodes>
            0 -1 188 8.0869637429714203e-02</internalNodes>
          <leafValues>
            -4.7109857201576233e-02 4.3258976936340332e-01</leafValues></_>
        <_>
          <internalNodes>
            0 -1 498 2.0999319851398468e-02</internalNodes>
          <leafValues>
            -3.9345765113830566e-01 5.8061413466930389e-02</leafValues></_>
        <_>
          <internalNodes>
            0 -1 514 1.8378233537077904e-02</internalNodes>
          <leafValues>
            -2.4051500856876373e-01 1.0720670968294144e-01</leafValues></_>
        <_>
          <internalNodes>
            0 -1 464 1.2074488215148449e-02</internalNodes>
          <leafValues>
            -4.0214145183563232e-01 4.3640170246362686e-02</leafValues></_>
        <_>
          <internalNodes>
            0 -1 475 3.8758300244808197e-02</internalNodes>
          <leafValues>
            1.0466310381889343e-01 -2.4111165106296539e-01</leafValues></_>
        <_>
          <internalNodes>
            0 -1 58 1.8728677183389664e-02</internalNodes>
          <leafValues>
            9.6671991050243378e-02 -2.1761447191238403e-01</leafValues></_>
        <_>
          <internalNodes>
            0 -1 352 2.9124116525053978e-02</internalNodes>
          <leafValues>
            -1.2383712828159332e-01 2.1560569107532501e-01</leafValues></_>
        <_>
          <internalNodes>
            0 -1 387 8.7912753224372864e-03</internalNodes>
          <leafValues>
            -4.6806970238685608e-01 4.6847697347402573e-02</leafValues></_>
        <_>
          <internalNodes>
            0 -1 292 5.2916267886757851e-03</internalNodes>
          <leafValues>
            -5.2364140748977661e-01 3.6845531314611435e-02</leafValues></_>
        <_>
          <internalNodes>
            0 -1 281 1.5994172543287277e-02</internalNodes>
          <leafValues>
            2.0452190935611725e-01 -1.0110436379909515e-01</leafValues></_>
        <_>
          <internalNodes>
            0 -1 33 1.9673008471727371e-02</internalNodes>
          <leafValues>
            -1.8087314069271088e-01 1.0445739328861237e-01</leafValues></_>
        <_>
          <internalNodes>
            0 -1 32 6.5224125981330872e-02</internalNodes>
          <leafValues>
            -5.8636352419853210e-02 3.6895650625228882e-01</leafValues></_>
        <_>
          <internalNodes>
            0 -1 198 6.6268488764762878e-02</internalNodes>
          <leafValues>
            -4.3110433965921402e-02 4.1908350586891174e-01</leafValues></_>
        <_>
          <internalNodes>
            0 -1 118 2.8758840635418892e-03</internalNodes>
          <leafValues>
            -5.5635166168212891e-01 3.3464983105659485e-02</leafValues></_>
        <_>
          <internalNodes>
            0 -1 431 4.2169086635112762e-02</internalNodes>
          <leafValues>
            -7.0227861404418945e-02 2.7206876873970032e-01</leafValues></_>
        <_>
          <internalNodes>
            0 -1 93 3.3615097403526306e-02</internalNodes>
          <leafValues>
            -1.2364577502012253e-01 1.6265158355236053e-01</leafValues></_>
        <_>
          <internalNodes>
            0 -1 58 4.0334295481443405e-03</internalNodes>
          <leafValues>
            2.9180338978767395e-01 -7.5814068317413330e-02</leafValues></_>
        <_>
          <internalNodes>
            0 -1 294 3.3792890608310699e-03</internalNodes>
          <leafValues>
            -5.7831466197967529e-01 3.4932419657707214e-02</leafValues></_>
        <_>
          <internalNodes>
            0 -1 165 3.2976031303405762e-02</internalNodes>
          <leafValues>
            -8.5726425051689148e-02 2.4693277478218079e-01</leafValues></_>
        <_>
          <internalNodes>
            0 -1 124 3.1095413491129875e-02</internalNodes>
          <leafValues>
            7.3494091629981995e-02 -2.8595051169395447e-01</leafValues></_>
        <_>
          <internalNodes>
            0 -1 318 5.0617538392543793e-02</internalNodes>
          <leafValues>
            -5.0993133336305618e-02 4.1527345776557922e-01</leafValues></_>
        <_>
          <internalNodes>
            0 -1 62 4.4189073145389557e-02</internalNodes>
          <leafValues>
            4.4730331748723984e-02 -4.7276416420936584e-01</leafValues></_>
        <_>
          <internalNodes>
            0 -1 119 1.2649030983448029e-01</internalNodes>
          <leafValues>
            2.1348461508750916e-02 -6.9541656970977783e-01</leafValues></_>
        <_>
          <internalNodes>
            0 -1 273 9.0034574270248413e-02</internalNodes>
          <leafValues>
            1.7640847712755203e-02 -8.0108588933944702e-01</leafValues></_>
        <_>
          <internalNodes>
            0 -1 242 5.3250223398208618e-02</internalNodes>
          <leafValues>
            4.1234623640775681e-02 -3.9957511425018311e-01</leafValues></_>
        <_>
          <internalNodes>
            0 -1 284 5.7737316936254501e-02</internalNodes>
          <leafValues>
            -4.7110244631767273e-02 4.4633623957633972e-01</leafValues></_>
        <_>
          <internalNodes>
            0 -1 17 2.4530041962862015e-02</internalNodes>
          <leafValues>
            9.9062234163284302e-02 -1.9212342798709869e-01</leafValues></_>
        <_>
          <internalNodes>
            0 -1 317 1.7832633107900620e-02</internalNodes>
          <leafValues>
            1.0026798397302628e-01 -1.8386004865169525e-01</leafValues></_>
        <_>
          <internalNodes>
            0 -1 243 1.2853501364588737e-02</internalNodes>
          <leafValues>
            -2.2823710739612579e-01 8.6953550577163696e-02</leafValues></_>
        <_>
          <internalNodes>
            0 -1 301 1.2618084251880646e-01</internalNodes>
          <leafValues>
            1.9682332873344421e-02 -1.</leafValues></_>
        <_>
          <internalNodes>
            0 -1 36 7.9957558773458004e-04</internalNodes>
          <leafValues>
            7.6053786277770996e-01 -3.0485840514302254e-02</leafValues></_>
        <_>
          <internalNodes>
            0 -1 335 5.7237115688621998e-03</internalNodes>
          <leafValues>
            -4.2420458793640137e-01 4.8296444118022919e-02</leafValues></_>
        <_>
          <internalNodes>
            0 -1 320 4.4578518718481064e-02</internalNodes>
          <leafValues>
            -6.0520190745592117e-02 2.9388374090194702e-01</leafValues></_>
        <_>
          <internalNodes>
            0 -1 45 1.8756911158561707e-02</internalNodes>
          <leafValues>
            1.5580695867538452e-01 -1.2506102025508881e-01</leafValues></_>
        <_>
          <internalNodes>
            0 -1 34 3.1734402291476727e-03</internalNodes>
          <leafValues>
            -5.6557393074035645e-01 3.5905774682760239e-02</leafValues></_>
        <_>
          <internalNodes>
            0 -1 408 6.6675230860710144e-02</internalNodes>
          <leafValues>
            1.9869480282068253e-02 -7.8765869140625000e-01</leafValues></_>
        <_>
          <internalNodes>
            0 -1 460 1.2713945470750332e-02</internalNodes>
          <leafValues>
            2.1507869660854340e-01 -9.4250962138175964e-02</leafValues></_>
        <_>
          <internalNodes>
            0 -1 413 1.0336800478398800e-02</internalNodes>
          <leafValues>
            -3.5148057341575623e-01 6.0352545231580734e-02</leafValues></_>
        <_>
          <internalNodes>
            0 -1 502 4.8960475251078606e-03</internalNodes>
          <leafValues>
            7.1826606988906860e-01 -3.1020389869809151e-02</leafValues></_>
        <_>
          <internalNodes>
            0 -1 429 7.1506708860397339e-02</internalNodes>
          <leafValues>
            2.2346800193190575e-02 -1.</leafValues></_>
        <_>
          <internalNodes>
            0 -1 163 4.7533519566059113e-02</internalNodes>
          <leafValues>
            -4.5491483062505722e-02 4.8723995685577393e-01</leafValues></_>
        <_>
          <internalNodes>
            0 -1 94 2.8201099485158920e-02</internalNodes>
          <leafValues>
            -1.0426300019025803e-01 1.9721668958663940e-01</leafValues></_>
        <_>
          <internalNodes>
            0 -1 300 3.6052339710295200e-03</internalNodes>
          <leafValues>
            -6.1415296792984009e-01 3.7262670695781708e-02</leafValues></_>
        <_>
          <internalNodes>
            0 -1 301 2.0390706136822701e-02</internalNodes>
          <leafValues>
            1.8304933607578278e-01 -1.0979834944009781e-01</leafValues></_>
        <_>
          <internalNodes>
            0 -1 208 3.3605195581912994e-02</internalNodes>
          <leafValues>
            -9.7747363150119781e-02 2.1020652353763580e-01</leafValues></_>
        <_>
          <internalNodes>
            0 -1 50 3.6968111991882324e-02</internalNodes>
          <leafValues>
            9.5867589116096497e-02 -2.2201013565063477e-01</leafValues></_>
        <_>
          <internalNodes>
            0 -1 57 1.0132791474461555e-02</internalNodes>
          <leafValues>
            1.6099050641059875e-01 -1.3165524601936340e-01</leafValues></_>
        <_>
          <internalNodes>
            0 -1 290 2.4072574451565742e-03</internalNodes>
          <leafValues>
            -1. 1.9760612398386002e-02</leafValues></_>
        <_>
          <internalNodes>
            0 -1 397 1.9271951168775558e-02</internalNodes>
          <leafValues>
            -3.2116097211837769e-01 5.4424390196800232e-02</leafValues></_>
        <_>
          <internalNodes>
            0 -1 199 2.1006306633353233e-03</internalNodes>
          <leafValues>
            8.1159847974777222e-01 -2.7670443058013916e-02</leafValues></_>
        <_>
          <internalNodes>
            0 -1 391 1.9199970411136746e-03</internalNodes>
          <leafValues>
            -9.2755734920501709e-01 2.3695833981037140e-02</leafValues></_>
        <_>
          <internalNodes>
            0 -1 225 8.8165104389190674e-02</internalNodes>
          <leafValues>
            -2.7073781937360764e-02 8.9304095506668091e-01</leafValues></_>
        <_>
          <internalNodes>
            0 -1 91 2.8707891702651978e-02</internalNodes>
          <leafValues>
            -1.1060563474893570e-01 1.9483095407485962e-01</leafValues></_>
        <_>
          <internalNodes>
            0 -1 399 1.7478972673416138e-02</internalNodes>
          <leafValues>
            -3.1011196970939636e-01 7.1767233312129974e-02</leafValues></_>
        <_>
          <internalNodes>
            0 -1 409 1.9595701247453690e-02</internalNodes>
          <leafValues>
            2.1586699783802032e-01 -1.1564017832279205e-01</leafValues></_>
        <_>
          <internalNodes>
            0 -1 74 1.2189795263111591e-02</internalNodes>
          <leafValues>
            2.6952484250068665e-01 -8.1462815403938293e-02</leafValues></_>
        <_>
          <internalNodes>
            0 -1 223 3.2019820064306259e-03</internalNodes>
          <leafValues>
            -6.1192697286605835e-01 3.7890676409006119e-02</leafValues></_>
        <_>
          <internalNodes>
            0 -1 365 4.2197577655315399e-02</internalNodes>
          <leafValues>
            -5.8371737599372864e-02 3.8008159399032593e-01</leafValues></_>
        <_>
          <internalNodes>
            0 -1 253 6.5916441380977631e-03</internalNodes>
          <leafValues>
            -4.4179391860961914e-01 5.0588157027959824e-02</leafValues></_>
        <_>
          <internalNodes>
            0 -1 328 1.7152611166238785e-02</internalNodes>
          <leafValues>
            1.5819235146045685e-01 -1.3284941017627716e-01</leafValues></_>
        <_>
          <internalNodes>
            0 -1 278 2.5660015642642975e-02</internalNodes>
          <leafValues>
            9.7297638654708862e-02 -2.1233719587326050e-01</leafValues></_>
        <_>
          <internalNodes>
            0 -1 505 3.7314120680093765e-02</internalNodes>
          <leafValues>
            -7.1404710412025452e-02 2.7025520801544189e-01</leafValues></_>
        <_>
          <internalNodes>
            0 -1 258 4.2147383093833923e-02</internalNodes>
          <leafValues>
            -6.2722615897655487e-02 3.2552415132522583e-01</leafValues></_>
        <_>
          <internalNodes>
            0 -1 69 3.5834491252899170e-02</internalNodes>
          <leafValues>
            6.4011923968791962e-02 -3.2814759016036987e-01</leafValues></_>
        <_>
          <internalNodes>
            0 -1 247 2.4464644957333803e-03</internalNodes>
          <leafValues>
            -7.7336770296096802e-01 2.0637869834899902e-02</leafValues></_>
        <_>
          <internalNodes>
            0 -1 248 2.7399281971156597e-03</internalNodes>
          <leafValues>
            5.4595017433166504e-01 -4.5497391372919083e-02</leafValues></_>
        <_>
          <internalNodes>
            0 -1 232 4.3187066912651062e-03</internalNodes>
          <leafValues>
            -6.3327223062515259e-01 3.9373937994241714e-02</leafValues></_>
        <_>
          <internalNodes>
            0 -1 366 8.7778791785240173e-02</internalNodes>
          <leafValues>
            1.2878583744168282e-02 -8.6704415082931519e-01</leafValues></_>
        <_>
          <internalNodes>
            0 -1 483 3.7211269140243530e-02</internalNodes>
          <leafValues>
            6.4695790410041809e-02 -2.7901536226272583e-01</leafValues></_>
        <_>
          <internalNodes>
            0 -1 366 1.4035120606422424e-02</internalNodes>
          <leafValues>
            -4.1057798266410828e-01 4.3857943266630173e-02</leafValues></_>
        <_>
          <internalNodes>
            0 -1 348 3.8371648639440536e-02</internalNodes>
          <leafValues>
            5.6608550250530243e-02 -2.9195627570152283e-01</leafValues></_>
        <_>
          <internalNodes>
            0 -1 509 5.5692665278911591e-02</internalNodes>
          <leafValues>
            -3.3050775527954102e-02 5.9402120113372803e-01</leafValues></_>
        <_>
          <internalNodes>
            0 -1 15 1.4438913203775883e-03</internalNodes>
          <leafValues>
            4.9788406491279602e-01 -3.3884961158037186e-02</leafValues></_>
        <_>
          <internalNodes>
            0 -1 147 3.2492250204086304e-02</internalNodes>
          <leafValues>
            -1.0458203405141830e-01 1.7333817481994629e-01</leafValues></_>
        <_>
          <internalNodes>
            0 -1 177 3.4185104072093964e-02</internalNodes>
          <leafValues>
            7.1605905890464783e-02 -3.0567246675491333e-01</leafValues></_>
        <_>
          <internalNodes>
            0 -1 398 4.1711870580911636e-02</internalNodes>
          <leafValues>
            5.5595096200704575e-02 -3.4708401560783386e-01</leafValues></_>
        <_>
          <internalNodes>
            0 -1 162 2.2338198032230139e-03</internalNodes>
          <leafValues>
            -8.2822382450103760e-01 2.1628053858876228e-02</leafValues></_>
        <_>
          <internalNodes>
            0 -1 458 5.4007895290851593e-02</internalNodes>
          <leafValues>
            -3.5871747881174088e-02 5.6883990764617920e-01</leafValues></_>
        <_>
          <internalNodes>
            0 -1 222 5.1626257598400116e-02</internalNodes>
          <leafValues>
            -3.7016544491052628e-02 4.6040034294128418e-01</leafValues></_>
        <_>
          <internalNodes>
            0 -1 20 3.7346985191106796e-03</internalNodes>
          <leafValues>
            -5.9750688076019287e-01 3.1580697745084763e-02</leafValues></_>
        <_>
          <internalNodes>
            0 -1 20 5.9229195117950439e-02</internalNodes>
          <leafValues>
            3.2035212963819504e-02 -4.6831265091896057e-01</leafValues></_>
        <_>
          <internalNodes>
            0 -1 44 1.1043701320886612e-02</internalNodes>
          <leafValues>
            1.9754412770271301e-01 -8.8735058903694153e-02</leafValues></_>
        <_>
          <internalNodes>
            0 -1 102 1.4905958436429501e-02</internalNodes>
          <leafValues>
            -1.9839839637279510e-01 1.1877016723155975e-01</leafValues></_>
        <_>
          <internalNodes>
            0 -1 403 4.1311338543891907e-02</internalNodes>
          <leafValues>
            -5.0406899303197861e-02 3.6423465609550476e-01</leafValues></_>
        <_>
          <internalNodes>
            0 -1 392 3.8095258176326752e-02</internalNodes>
          <leafValues>
            5.8635823428630829e-02 -3.3216395974159241e-01</leafValues></_>
        <_>
          <internalNodes>
            0 -1 175 1.5316951088607311e-02</internalNodes>
          <leafValues>
            -1.8224523961544037e-01 1.0136748850345612e-01</leafValues></_>
        <_>
          <internalNodes>
            0 -1 444 8.4514338523149490e-03</internalNodes>
          <leafValues>
            3.8032072782516479e-01 -4.6965334564447403e-02</leafValues></_>
        <_>
          <internalNodes>
            0 -1 127 8.6598046123981476e-02</internalNodes>
          <leafValues>
            2.4110816419124603e-02 -7.9923164844512939e-01</leafValues></_>
        <_>
          <internalNodes>
            0 -1 155 5.1566183567047119e-02</internalNodes>
          <leafValues>
            4.6172231435775757e-02 -3.6481279134750366e-01</leafValues></_>
        <_>
          <internalNodes>
            0 -1 488 2.1299757063388824e-02</internalNodes>
          <leafValues>
            -1.9568178057670593e-01 9.1714493930339813e-02</leafValues></_>
        <_>
          <internalNodes>
            0 -1 104 1.2485519051551819e-02</internalNodes>
          <leafValues>
            2.6804104447364807e-01 -7.4305199086666107e-02</leafValues></_>
        <_>
          <internalNodes>
            0 -1 255 2.0268931984901428e-02</internalNodes>
          <leafValues>
            9.1496236622333527e-02 -1.9861245155334473e-01</leafValues></_>
        <_>
          <internalNodes>
            0 -1 250 1.7040198668837547e-02</internalNodes>
          <leafValues>
            2.3430885374546051e-01 -8.0760419368743896e-02</leafValues></_>
        <_>
          <internalNodes>
            0 -1 250 2.9223233461380005e-02</internalNodes>
          <leafValues>
            -1.5063403546810150e-01 1.5146248042583466e-01</leafValues></_></weakClassifiers></_>
    <!-- stage 6 -->
    <_>
      <maxWeakCount>100</maxWeakCount>
      <stageThreshold>-4.3015545606613159e-01</stageThreshold>
      <weakClassifiers>
        <_>
          <internalNodes>
            0 -1 492 1.8573785200715065e-02</internalNodes>
          <leafValues>
            -4.3362832069396973e-01 1.5965167433023453e-02</leafValues></_>
        <_>
          <internalNodes>
            0 -1 303 4.3089434504508972e-02</internalNodes>
          <leafValues>
            -1.2659743428230286e-01 2.6034504175186157e-01</leafValues></_>
        <_>
          <internalNodes>
            0 -1 256 1.4433937147259712e-02</internalNodes>
          <leafValues>
            1.3906104862689972e-01 -1.9854576885700226e-01</leafValues></_>
        <_>
          <internalNodes>
            0 -1 494 2.8456121683120728e-02</internalNodes>
          <leafValues>
            -8.6858771741390228e-02 3.4380143880844116e-01</leafValues></_>
        <_>
          <internalNodes>
            0 -1 296 9.9204331636428833e-03</internalNodes>
          <leafValues>
            -4.3730786442756653e-01 2.3583639413118362e-02</leafValues></_>
        <_>
          <internalNodes>
            0 -1 171 1.4894653111696243e-02</internalNodes>
          <leafValues>
            1.7069146037101746e-01 -1.5759684145450592e-01</leafValues></_>
        <_>
          <internalNodes>
            0 -1 299 7.1580521762371063e-03</internalNodes>
          <leafValues>
            4.2677119374275208e-01 -6.9660797715187073e-02</leafValues></_>
        <_>
          <internalNodes>
            0 -1 143 7.7840261161327362e-02</internalNodes>
          <leafValues>
            -6.5101720392704010e-02 4.7041484713554382e-01</leafValues></_>
        <_>
          <internalNodes>
            0 -1 218 3.7951327860355377e-02</internalNodes>
          <leafValues>
            7.7031418681144714e-02 -2.5967234373092651e-01</leafValues></_>
        <_>
          <internalNodes>
            0 -1 503 6.3086142763495445e-03</internalNodes>
          <leafValues>
            -1. 3.8045872002840042e-02</leafValues></_>
        <_>
          <internalNodes>
            0 -1 264 3.7733529461547732e-04</internalNodes>
          <leafValues>
            8.5863900184631348e-01 -3.0730290338397026e-02</leafValues></_>
        <_>
          <internalNodes>
            0 -1 6 3.9310757070779800e-02</internalNodes>
          <leafValues>
            -1.0193107277154922e-01 2.0234803855419159e-01</leafValues></_>
        <_>
          <internalNodes>
            0 -1 407 3.2915480434894562e-02</internalNodes>
          <leafValues>
            -1.1568789929151535e-01 1.7864501476287842e-01</leafValues></_>
        <_>
          <internalNodes>
            0 -1 118 1.8507204949855804e-02</internalNodes>
          <leafValues>
            -1.6089005768299103e-01 1.2946937978267670e-01</leafValues></_>
        <_>
          <internalNodes>
            0 -1 51 5.4732944816350937e-02</internalNodes>
          <leafValues>
            -4.2176157236099243e-02 4.7972801327705383e-01</leafValues></_>
        <_>
          <internalNodes>
            0 -1 509 7.5007028877735138e-02</internalNodes>
          <leafValues>
            2.3083789274096489e-02 -1.</leafValues></_>
        <_>
          <internalNodes>
            0 -1 282 8.5178148001432419e-03</internalNodes>
          <leafValues>
            3.9102131128311157e-01 -5.6779034435749054e-02</leafValues></_>
        <_>
          <internalNodes>
            0 -1 382 8.9579224586486816e-03</internalNodes>
          <leafValues>
            -4.9770075082778931e-01 4.5360129326581955e-02</leafValues></_>
        <_>
          <internalNodes>
            0 -1 267 1.1875094845890999e-02</internalNodes>
          <leafValues>
            2.0532296597957611e-01 -1.1342088878154755e-01</leafValues></_>
        <_>
          <internalNodes>
            0 -1 217 2.0280830562114716e-02</internalNodes>
          <leafValues>
            1.7024613916873932e-01 -1.2434861809015274e-01</leafValues></_>
        <_>
          <internalNodes>
            0 -1 134 8.7947174906730652e-02</internalNodes>
          <leafValues>
            3.9414167404174805e-02 -6.4902639389038086e-01</leafValues></_>
        <_>
          <internalNodes>
            0 -1 75 7.5023710727691650e-02</internalNodes>
          <leafValues>
            -4.3248917907476425e-02 6.0385692119598389e-01</leafValues></_>
        <_>
          <internalNodes>
            0 -1 389 6.9015189073979855e-03</internalNodes>
          <leafValues>
            -3.3073243498802185e-01 7.2132252156734467e-02</leafValues></_>
        <_>
          <internalNodes>
            0 -1 158 4.5489050447940826e-02</internalNodes>
          <leafValues>
            -8.7503418326377869e-02 2.7585515379905701e-01</leafValues></_>
        <_>
          <internalNodes>
            0 -1 13 7.7178566716611385e-03</internalNodes>
          <leafValues>
            -5.8264386653900146e-01 4.3204434216022491e-02</leafValues></_>
        <_>
          <internalNodes>
            0 -1 121 2.9611716046929359e-02</internalNodes>
          <leafValues>
            5.5661998689174652e-02 -3.3370700478553772e-01</leafValues></_>
        <_>
          <internalNodes>
            0 -1 152 3.6014162003993988e-02</internalNodes>
          <leafValues>
            -7.2383165359497070e-02 3.5170799493789673e-01</leafValues></_>
        <_>
          <internalNodes>
            0 -1 52 6.8097330629825592e-02</internalNodes>
          <leafValues>
            -4.6238452196121216e-02 5.1463675498962402e-01</leafValues></_>
        <_>
          <internalNodes>
            0 -1 417 2.2092834115028381e-02</internalNodes>
          <leafValues>
            1.4467592537403107e-01 -1.7841750383377075e-01</leafValues></_>
        <_>
          <internalNodes>
            0 -1 136 1.9962500780820847e-02</internalNodes>
          <leafValues>
            -1.4715287089347839e-01 1.5238286554813385e-01</leafValues></_>
        <_>
          <internalNodes>
            0 -1 226 1.8616208806633949e-02</internalNodes>
          <leafValues>
            1.8798935413360596e-01 -1.4378389716148376e-01</leafValues></_>
        <_>
          <internalNodes>
            0 -1 174 1.9820235669612885e-02</internalNodes>
          <leafValues>
            1.2915077805519104e-01 -1.7087602615356445e-01</leafValues></_>
        <_>
          <internalNodes>
            0 -1 455 2.5614861398935318e-02</internalNodes>
          <leafValues>
            -1.4192587137222290e-01 1.5372863411903381e-01</leafValues></_>
        <_>
          <internalNodes>
            0 -1 138 3.8410659879446030e-02</internalNodes>
          <leafValues>
            -7.6235234737396240e-02 2.9451283812522888e-01</leafValues></_>
        <_>
          <internalNodes>
            0 -1 259 7.9529330134391785e-02</internalNodes>
          <leafValues>
            -2.4433288723230362e-02 7.1292114257812500e-01</leafValues></_>
        <_>
          <internalNodes>
            0 -1 340 1.6371551901102066e-02</internalNodes>
          <leafValues>
            -2.3894253373146057e-01 9.0642280876636505e-02</leafValues></_>
        <_>
          <internalNodes>
            0 -1 38 7.6756179332733154e-02</internalNodes>
          <leafValues>
            -4.1629929095506668e-02 7.6005941629409790e-01</leafValues></_>
        <_>
          <internalNodes>
            0 -1 149 1.5363519079983234e-02</internalNodes>
          <leafValues>
            2.1400694549083710e-01 -8.9864499866962433e-02</leafValues></_>
        <_>
          <internalNodes>
            0 -1 437 5.3485468029975891e-02</internalNodes>
          <leafValues>
            -2.4736452847719193e-02 8.0644690990447998e-01</leafValues></_>
        <_>
          <internalNodes>
            0 -1 468 1.1025181040167809e-02</internalNodes>
          <leafValues>
            -3.9945331215858459e-01 5.1982492208480835e-02</leafValues></_>
        <_>
          <internalNodes>
            0 -1 195 4.2275683954358101e-03</internalNodes>
          <leafValues>
            6.7684268951416016e-01 -4.2785480618476868e-02</leafValues></_>
        <_>
          <internalNodes>
            0 -1 185 3.6494497209787369e-02</internalNodes>
          <leafValues>
            -5.8666307479143143e-02 2.8069758415222168e-01</leafValues></_>
        <_>
          <internalNodes>
            0 -1 7 3.1783852726221085e-02</internalNodes>
          <leafValues>
            -1.6067351400852203e-01 1.3754233717918396e-01</leafValues></_>
        <_>
          <internalNodes>
            0 -1 311 4.0898256003856659e-02</internalNodes>
          <leafValues>
            7.5222767889499664e-02 -2.5139170885086060e-01</leafValues></_>
        <_>
          <internalNodes>
            0 -1 337 4.7974888235330582e-02</internalNodes>
          <leafValues>
            -7.4418090283870697e-02 2.9808303713798523e-01</leafValues></_>
