<?xml version="1.0"?>
<opencv_storage>
<!-- Created using Computer Vision System Toolbox(tm) for MATLAB(R) -->
<!-- Version 8.6.0.235573 (R2015b) -->
<!-- Compatible with OpenCV 2.4 -->
<cascade>
  <stageType>BOOST</stageType>
  <featureType>HOG</featureType>
  <height>32</height>
  <width>38</width>
  <stageParams>
    <boostType>GAB</boostType>
    <minHitRate>9.9500000476837158e-01</minHitRate>
    <maxFalseAlarm>1.0000000149011612e-01</maxFalseAlarm>
    <weightTrimRate>9.4999999999999996e-01</weightTrimRate>
    <maxDepth>1</maxDepth>
    <maxWeakCount>100</maxWeakCount></stageParams>
  <featureParams>
    <maxCatCount>0</maxCatCount>
    <featSize>36</featSize></featureParams>
  <stageNum>12</stageNum>
  <stages>
    <!-- stage 0 -->
    <_>
      <maxWeakCount>29</maxWeakCount>
      <stageThreshold>-8.9108467102050781e-01</stageThreshold>
      <weakClassifiers>
        <_>
          <internalNodes>
            0 -1 505 1.6266215592622757e-02</internalNodes>
          <leafValues>
            3.4306567907333374e-01 -6.7277169227600098e-01</leafValues></_>
        <_>
          <internalNodes>
            0 -1 571 1.7355512827634811e-02</internalNodes>
          <leafValues>
            4.6176362037658691e-01 -4.7512024641036987e-01</leafValues></_>
        <_>
          <internalNodes>
            0 -1 117 3.3387780189514160e-02</internalNodes>
          <leafValues>
            -3.1457340717315674e-01 5.1699280738830566e-01</leafValues></_>
        <_>
          <internalNodes>
            0 -1 577 3.2567486166954041e-02</internalNodes>
          <leafValues>
            -3.3534982800483704e-01 4.2460757493972778e-01</leafValues></_>
        <_>
          <internalNodes>
            0 -1 288 3.5972371697425842e-02</internalNodes>
          <leafValues>
            -2.2353050112724304e-01 4.7564247250556946e-01</leafValues></_>
        <_>
          <internalNodes>
            0 -1 557 3.5787679255008698e-02</internalNodes>
          <leafValues>
            -2.0550355315208435e-01 4.7675731778144836e-01</leafValues></_>
        <_>
          <internalNodes>
            0 -1 593 3.7712700664997101e-02</internalNodes>
          <leafValues>
            -1.2920121848583221e-01 6.4344722032546997e-01</leafValues></_>
        <_>
          <internalNodes>
            0 -1 385 2.3415308445692062e-02</internalNodes>
          <leafValues>
            -3.9420068264007568e-01 2.2334630787372589e-01</leafValues></_>
        <_>
          <internalNodes>
            0 -1 546 2.5632601231336594e-02</internalNodes>
          <leafValues>
            -2.8589096665382385e-01 2.9761958122253418e-01</leafValues></_>
        <_>
          <internalNodes>
            0 -1 34 1.3398821465671062e-02</internalNodes>
          <leafValues>
            3.6310258507728577e-01 -2.8201183676719666e-01</leafValues></_>
        <_>
          <internalNodes>
            0 -1 108 5.8964475989341736e-02</internalNodes>
          <leafValues>
            1.0241118073463440e-01 -9.0160149335861206e-01</leafValues></_>
        <_>
          <internalNodes>
            0 -1 135 1.8133593723177910e-02</internalNodes>
          <leafValues>
            2.4017021059989929e-01 -3.5171103477478027e-01</leafValues></_>
        <_>
          <internalNodes>
            0 -1 582 1.0693600401282310e-02</internalNodes>
          <leafValues>
            -7.6786810159683228e-01 1.0470804572105408e-01</leafValues></_>
        <_>
          <internalNodes>
            0 -1 377 1.8561279401183128e-02</internalNodes>
          <leafValues>
            2.4311518669128418e-01 -3.4127020835876465e-01</leafValues></_>
        <_>
          <internalNodes>
            0 -1 233 4.9030274152755737e-02</internalNodes>
          <leafValues>
            -1.1611531674861908e-01 6.9543021917343140e-01</leafValues></_>
        <_>
          <internalNodes>
            0 -1 306 1.8169209361076355e-02</internalNodes>
          <leafValues>
            2.9837092757225037e-01 -2.7141079306602478e-01</leafValues></_>
        <_>
          <internalNodes>
            0 -1 458 7.7773840166628361e-03</internalNodes>
          <leafValues>
            -9.2124944925308228e-01 7.8372217714786530e-02</leafValues></_>
        <_>
          <internalNodes>
            0 -1 230 1.3386880978941917e-02</internalNodes>
          <leafValues>
            3.4786835312843323e-01 -2.3813891410827637e-01</leafValues></_>
        <_>
          <internalNodes>
            0 -1 110 1.6373049467802048e-02</internalNodes>
          <leafValues>
            -4.2256879806518555e-01 2.0200149714946747e-01</leafValues></_>
        <_>
          <internalNodes>
            0 -1 516 2.8676792979240417e-02</internalNodes>
          <leafValues>
            1.5125906467437744e-01 -4.2484709620475769e-01</leafValues></_>
        <_>
          <internalNodes>
            0 -1 68 5.7222336530685425e-02</internalNodes>
          <leafValues>
            -1.0672871768474579e-01 7.5076264142990112e-01</leafValues></_>
        <_>
          <internalNodes>
            0 -1 113 4.1988465934991837e-02</internalNodes>
          <leafValues>
            -1.0257767140865326e-01 6.1606049537658691e-01</leafValues></_>
        <_>
          <internalNodes>
            0 -1 199 8.9903045445680618e-03</internalNodes>
          <leafValues>
            -6.2317436933517456e-01 1.1804397404193878e-01</leafValues></_>
        <_>
          <internalNodes>
            0 -1 378 1.3118237257003784e-02</internalNodes>
          <leafValues>
            3.7430506944656372e-01 -2.2768115997314453e-01</leafValues></_>
        <_>
          <internalNodes>
            0 -1 491 4.3643780052661896e-02</internalNodes>
          <leafValues>
            1.2301249057054520e-01 -6.6255593299865723e-01</leafValues></_>
        <_>
          <internalNodes>
            0 -1 447 1.8995810300111771e-02</internalNodes>
          <leafValues>
            2.8838410973548889e-01 -2.8804695606231689e-01</leafValues></_>
        <_>
          <internalNodes>
            0 -1 191 3.2498808577656746e-03</internalNodes>
          <leafValues>
            -8.9477258920669556e-01 7.1548983454704285e-02</leafValues></_>
        <_>
          <internalNodes>
            0 -1 284 5.4097995162010193e-02</internalNodes>
          <leafValues>
            -1.2964540719985962e-01 6.3369441032409668e-01</leafValues></_>
        <_>
          <internalNodes>
            0 -1 498 3.9435453712940216e-02</internalNodes>
          <leafValues>
            -1.7389820516109467e-01 4.8029404878616333e-01</leafValues></_></weakClassifiers></_>
    <!-- stage 1 -->
    <_>
      <maxWeakCount>42</maxWeakCount>
      <stageThreshold>-6.7875510454177856e-01</stageThreshold>
      <weakClassifiers>
        <_>
          <internalNodes>
            0 -1 117 5.9029117226600647e-02</internalNodes>
          <leafValues>
            -4.9759384989738464e-01 5.6020945310592651e-01</leafValues></_>
        <_>
          <internalNodes>
            0 -1 177 6.4744199626147747e-03</internalNodes>
          <leafValues>
            4.9046045541763306e-01 -2.1129962801933289e-01</leafValues></_>
        <_>
          <internalNodes>
            0 -1 476 3.0494432896375656e-02</internalNodes>
          <leafValues>
            2.6655811071395874e-01 -3.6558204889297485e-01</leafValues></_>
        <_>
          <internalNodes>
            0 -1 431 2.4984579533338547e-02</internalNodes>
          <leafValues>
            2.5459793210029602e-01 -3.6339205503463745e-01</leafValues></_>
        <_>
          <internalNodes>
            0 -1 289 2.9097633436322212e-02</internalNodes>
          <leafValues>
            -2.5174793601036072e-01 3.2666006684303284e-01</leafValues></_>
        <_>
          <internalNodes>
            0 -1 28 4.9246210604906082e-02</internalNodes>
          <leafValues>
            -1.0286783427000046e-01 5.8937960863113403e-01</leafValues></_>
        <_>
          <internalNodes>
            0 -1 0 2.0426061004400253e-02</internalNodes>
          <leafValues>
            2.1935835480690002e-01 -3.3176675438880920e-01</leafValues></_>
        <_>
          <internalNodes>
            0 -1 281 5.6844606995582581e-02</internalNodes>
          <leafValues>
            1.1844485998153687e-01 -6.8911701440811157e-01</leafValues></_>
        <_>
          <internalNodes>
            0 -1 234 1.1848548427224159e-02</internalNodes>
          <leafValues>
            3.5910236835479736e-01 -2.9938817024230957e-01</leafValues></_>
        <_>
          <internalNodes>
            0 -1 344 4.8616714775562286e-02</internalNodes>
          <leafValues>
            -1.1696060001850128e-01 5.7535439729690552e-01</leafValues></_>
        <_>
          <internalNodes>
            0 -1 67 8.2621285691857338e-03</internalNodes>
          <leafValues>
            4.0845501422882080e-01 -1.4863547682762146e-01</leafValues></_>
        <_>
          <internalNodes>
            0 -1 579 6.6869042813777924e-02</internalNodes>
          <leafValues>
            8.9053817093372345e-02 -8.4956622123718262e-01</leafValues></_>
        <_>
          <internalNodes>
            0 -1 296 1.4166718348860741e-02</internalNodes>
          <leafValues>
            2.4482657015323639e-01 -2.3972818255424500e-01</leafValues></_>
        <_>
          <internalNodes>
            0 -1 6 2.0556425675749779e-02</internalNodes>
          <leafValues>
            -3.5313314199447632e-01 1.6695077717304230e-01</leafValues></_>
        <_>
          <internalNodes>
            0 -1 193 2.8249984607100487e-02</internalNodes>
          <leafValues>
            -2.3821683228015900e-01 3.0485576391220093e-01</leafValues></_>
        <_>
          <internalNodes>
            0 -1 195 1.9305381923913956e-02</internalNodes>
          <leafValues>
            -3.6805871129035950e-01 1.7240563035011292e-01</leafValues></_>
        <_>
          <internalNodes>
            0 -1 95 2.7867868542671204e-02</internalNodes>
          <leafValues>
            2.8235188126564026e-01 -2.5890403985977173e-01</leafValues></_>
        <_>
          <internalNodes>
            0 -1 2 9.4366837292909622e-03</internalNodes>
          <leafValues>
            4.3810963630676270e-01 -1.4242821931838989e-01</leafValues></_>
        <_>
          <internalNodes>
            0 -1 521 1.1889827437698841e-02</internalNodes>
          <leafValues>
            -5.2194130420684814e-01 1.1562961339950562e-01</leafValues></_>
        <_>
          <internalNodes>
            0 -1 496 1.3799376785755157e-02</internalNodes>
          <leafValues>
            -5.6807053089141846e-01 9.0353183448314667e-02</leafValues></_>
        <_>
          <internalNodes>
            0 -1 479 2.9912330210208893e-02</internalNodes>
          <leafValues>
            1.9816775619983673e-01 -2.9663202166557312e-01</leafValues></_>
        <_>
          <internalNodes>
            0 -1 380 4.0997102856636047e-02</internalNodes>
          <leafValues>
            8.6061231791973114e-02 -5.8845198154449463e-01</leafValues></_>
        <_>
          <internalNodes>
            0 -1 73 1.2932308018207550e-02</internalNodes>
          <leafValues>
            3.3805713057518005e-01 -1.7072872817516327e-01</leafValues></_>
        <_>
          <internalNodes>
            0 -1 255 1.8442682921886444e-02</internalNodes>
          <leafValues>
            2.6191213726997375e-01 -1.9794997572898865e-01</leafValues></_>
        <_>
          <internalNodes>
            0 -1 23 1.4301188290119171e-02</internalNodes>
          <leafValues>
            2.3325610160827637e-01 -2.0057895779609680e-01</leafValues></_>
        <_>
          <internalNodes>
            0 -1 257 1.5681443735957146e-02</internalNodes>
          <leafValues>
            -3.6066323518753052e-01 1.5747010707855225e-01</leafValues></_>
        <_>
          <internalNodes>
            0 -1 30 3.6829791497439146e-03</internalNodes>
          <leafValues>
            5.3148281574249268e-01 -9.6359983086585999e-02</leafValues></_>
        <_>
          <internalNodes>
            0 -1 376 1.7156342044472694e-02</internalNodes>
          <leafValues>
            3.8869300484657288e-01 -1.2645281851291656e-01</leafValues></_>
        <_>
          <internalNodes>
            0 -1 54 3.6680735647678375e-02</internalNodes>
          <leafValues>
            -9.8209559917449951e-02 5.1528304815292358e-01</leafValues></_>
        <_>
          <internalNodes>
            0 -1 301 1.1726160533726215e-02</internalNodes>
          <leafValues>
            2.7563524246215820e-01 -2.0560835301876068e-01</leafValues></_>
        <_>
          <internalNodes>
            0 -1 32 4.9150675535202026e-02</internalNodes>
          <leafValues>
            -1.1398998647928238e-01 4.4949829578399658e-01</leafValues></_>
        <_>
          <internalNodes>
            0 -1 146 4.7938590869307518e-03</internalNodes>
          <leafValues>
            -8.2084810733795166e-01 7.1049846708774567e-02</leafValues></_>
        <_>
          <internalNodes>
            0 -1 306 4.5104175806045532e-03</internalNodes>
          <leafValues>
            5.3957766294479370e-01 -9.8456807434558868e-02</leafValues></_>
        <_>
          <internalNodes>
            0 -1 170 2.4935230612754822e-02</internalNodes>
          <leafValues>
            -2.3351934552192688e-01 2.0959226787090302e-01</leafValues></_>
        <_>
          <internalNodes>
            0 -1 135 8.4067238494753838e-03</internalNodes>
          <leafValues>
            3.2493084669113159e-01 -1.4574967324733734e-01</leafValues></_>
        <_>
          <internalNodes>
            0 -1 53 2.4736586958169937e-02</internalNodes>
          <leafValues>
            2.5768354535102844e-01 -1.9997335970401764e-01</leafValues></_>
        <_>
          <internalNodes>
            0 -1 501 1.0249545797705650e-02</internalNodes>
          <leafValues>
            -5.5275619029998779e-01 9.6520312130451202e-02</leafValues></_>
        <_>
          <internalNodes>
            0 -1 40 1.4653125777840614e-02</internalNodes>
          <leafValues>
            3.5147520899772644e-01 -1.5946574509143829e-01</leafValues></_>
        <_>
          <internalNodes>
            0 -1 266 7.0550139062106609e-03</internalNodes>
          <leafValues>
            -5.6808543205261230e-01 9.8363503813743591e-02</leafValues></_>
        <_>
          <internalNodes>
            0 -1 127 4.1387043893337250e-02</internalNodes>
          <leafValues>
            -1.2443852424621582e-01 4.3207487463951111e-01</leafValues></_>
        <_>
          <internalNodes>
            0 -1 525 1.6153741627931595e-02</internalNodes>
          <leafValues>
            -4.2534363269805908e-01 1.1699977517127991e-01</leafValues></_>
        <_>
          <internalNodes>
            0 -1 508 3.3935390412807465e-02</internalNodes>
          <leafValues>
            -1.4393973350524902e-01 3.3463928103446960e-01</leafValues></_></weakClassifiers></_>
    <!-- stage 2 -->
    <_>
      <maxWeakCount>43</maxWeakCount>
      <stageThreshold>-6.9468635320663452e-01</stageThreshold>
      <weakClassifiers>
        <_>
          <internalNodes>
            0 -1 595 1.5258951112627983e-02</internalNodes>
          <leafValues>
            -7.3605948686599731e-01 -2.0231213420629501e-02</leafValues></_>
        <_>
          <internalNodes>
            0 -1 588 1.5221023932099342e-02</internalNodes>
          <leafValues>
            -7.1505355834960938e-01 1.8456426262855530e-01</leafValues></_>
        <_>
          <internalNodes>
            0 -1 450 2.0368359982967377e-02</internalNodes>
          <leafValues>
            -4.4363591074943542e-01 2.6457667350769043e-01</leafValues></_>
        <_>
          <internalNodes>
            0 -1 583 1.0407539084553719e-02</internalNodes>
          <leafValues>
            -7.7587926387786865e-01 1.4348760247230530e-01</leafValues></_>
        <_>
          <internalNodes>
            0 -1 494 3.6611028015613556e-02</internalNodes>
          <leafValues>
            -2.6416197419166565e-01 5.4305380582809448e-01</leafValues></_>
        <_>
          <internalNodes>
            0 -1 384 1.1238656938076019e-02</internalNodes>
          <leafValues>
            -5.8238071203231812e-01 1.3018646836280823e-01</leafValues></_>
        <_>
          <internalNodes>
            0 -1 138 1.2312105856835842e-02</internalNodes>
          <leafValues>
            2.6737359166145325e-01 -2.8008678555488586e-01</leafValues></_>
        <_>
          <internalNodes>
            0 -1 456 1.6015544533729553e-02</internalNodes>
          <leafValues>
            -4.8592638969421387e-01 1.4838749170303345e-01</leafValues></_>
        <_>
          <internalNodes>
            0 -1 438 3.3482637256383896e-02</internalNodes>
          <leafValues>
            -2.1024779975414276e-01 4.1941598057746887e-01</leafValues></_>
        <_>
          <internalNodes>
            0 -1 586 1.5507195144891739e-02</internalNodes>
          <leafValues>
            -4.9696660041809082e-01 1.1220294237136841e-01</leafValues></_>
        <_>
          <internalNodes>
            0 -1 18 2.2863261401653290e-02</internalNodes>
          <leafValues>
            -2.5165084004402161e-01 2.3185682296752930e-01</leafValues></_>
        <_>
          <internalNodes>
            0 -1 302 3.8042135536670685e-02</internalNodes>
          <leafValues>
            -1.5635533630847931e-01 3.3608794212341309e-01</leafValues></_>
        <_>
          <internalNodes>
            0 -1 519 4.3912522494792938e-02</internalNodes>
          <leafValues>
            -1.0629426687955856e-01 5.7733178138732910e-01</leafValues></_>
        <_>
          <internalNodes>
            0 -1 555 6.0579543933272362e-03</internalNodes>
          <leafValues>
            -6.6866666078567505e-01 1.0861665010452271e-01</leafValues></_>
        <_>
          <internalNodes>
            0 -1 294 1.9375404343008995e-02</internalNodes>
          <leafValues>
            1.8150521814823151e-01 -2.8814396262168884e-01</leafValues></_>
        <_>
          <internalNodes>
            0 -1 465 1.5802070498466492e-02</internalNodes>
          <leafValues>
            -3.7827527523040771e-01 1.5100280940532684e-01</leafValues></_>
        <_>
          <internalNodes>
            0 -1 324 1.1147405952215195e-02</internalNodes>
          <leafValues>
            3.3469569683074951e-01 -1.6424226760864258e-01</leafValues></_>
        <_>
          <internalNodes>
            0 -1 391 1.3856527395546436e-02</internalNodes>
          <leafValues>
            -4.6361574530601501e-01 1.4415206015110016e-01</leafValues></_>
        <_>
          <internalNodes>
            0 -1 595 3.0149562284350395e-02</internalNodes>
          <leafValues>
            -1.2905748188495636e-01 3.8593393564224243e-01</leafValues></_>
        <_>
          <internalNodes>
            0 -1 207 3.9844200015068054e-02</internalNodes>
          <leafValues>
            -1.3425642251968384e-01 3.6340445280075073e-01</leafValues></_>
        <_>
          <internalNodes>
            0 -1 41 2.9261834919452667e-02</internalNodes>
          <leafValues>
            1.5282434225082397e-01 -3.5629650950431824e-01</leafValues></_>
        <_>
          <internalNodes>
            0 -1 66 2.2520529106259346e-02</internalNodes>
          <leafValues>
            1.2607213854789734e-01 -4.1168448328971863e-01</leafValues></_>
        <_>
          <internalNodes>
            0 -1 364 1.2167925015091896e-02</internalNodes>
          <leafValues>
            -5.0351917743682861e-01 1.0044512897729874e-01</leafValues></_>
        <_>
          <internalNodes>
            0 -1 381 1.1455168947577477e-02</internalNodes>
          <leafValues>
            -5.3733861446380615e-01 9.1985188424587250e-02</leafValues></_>
        <_>
          <internalNodes>
            0 -1 402 5.0925448536872864e-02</internalNodes>
          <leafValues>
            -8.5270933806896210e-02 6.6123580932617188e-01</leafValues></_>
        <_>
          <internalNodes>
            0 -1 597 6.9586873054504395e-02</internalNodes>
          <leafValues>
            6.2346480786800385e-02 -1.</leafValues></_>
        <_>
          <internalNodes>
            0 -1 489 1.8876694142818451e-02</internalNodes>
          <leafValues>
            3.4228888154029846e-01 -1.5726839005947113e-01</leafValues></_>
        <_>
          <internalNodes>
            0 -1 371 2.1625012159347534e-02</internalNodes>
          <leafValues>
            -2.2453497350215912e-01 2.3070023953914642e-01</leafValues></_>
        <_>
          <internalNodes>
            0 -1 137 1.4123896136879921e-02</internalNodes>
          <leafValues>
            2.0691710710525513e-01 -2.3013816773891449e-01</leafValues></_>
        <_>
          <internalNodes>
            0 -1 589 2.2397592663764954e-02</internalNodes>
          <leafValues>
            -2.4285213649272919e-01 1.8687991797924042e-01</leafValues></_>
        <_>
          <internalNodes>
            0 -1 556 7.3677534237504005e-03</internalNodes>
          <leafValues>
            -8.2722157239913940e-01 5.3113695234060287e-02</leafValues></_>
        <_>
          <internalNodes>
            0 -1 60 1.2917843647301197e-02</internalNodes>
          <leafValues>
            2.8299787640571594e-01 -1.6644333302974701e-01</leafValues></_>
        <_>
          <internalNodes>
            0 -1 506 6.1948262155056000e-03</internalNodes>
          <leafValues>
            -9.4429326057434082e-01 5.4465826600790024e-02</leafValues></_>
        <_>
          <internalNodes>
            0 -1 393 6.2536541372537613e-03</internalNodes>
          <leafValues>
            -8.7280261516571045e-01 3.3256433904170990e-02</leafValues></_>
        <_>
          <internalNodes>
            0 -1 544 3.2735913991928101e-02</internalNodes>
          <leafValues>
            -1.4335003495216370e-01 3.3724176883697510e-01</leafValues></_>
        <_>
          <internalNodes>
            0 -1 524 7.9934503883123398e-03</internalNodes>
          <leafValues>
            -6.0810565948486328e-01 8.2958228886127472e-02</leafValues></_>
        <_>
          <internalNodes>
            0 -1 72 5.0081055611371994e-02</internalNodes>
          <leafValues>
            -1.3533978164196014e-01 3.4600278735160828e-01</leafValues></_>
        <_>
          <internalNodes>
            0 -1 124 1.2619204819202423e-02</internalNodes>
          <leafValues>
            4.4042479991912842e-01 -1.0007624328136444e-01</leafValues></_>
        <_>
          <internalNodes>
            0 -1 386 3.0614964663982391e-02</internalNodes>
          <leafValues>
            -2.8703173995018005e-01 1.5588591992855072e-01</leafValues></_>
        <_>
          <internalNodes>
            0 -1 373 3.9438799023628235e-02</internalNodes>
          <leafValues>
            -9.4337418675422668e-02 5.3459322452545166e-01</leafValues></_>
        <_>
          <internalNodes>
            0 -1 542 1.4760571531951427e-02</internalNodes>
          <leafValues>
            -4.0488940477371216e-01 1.2628841400146484e-01</leafValues></_>
        <_>
          <internalNodes>
            0 -1 228 1.3290278613567352e-02</internalNodes>
          <leafValues>
            2.2479702532291412e-01 -2.0856072008609772e-01</leafValues></_>
        <_>
          <internalNodes>
            0 -1 592 6.1664752662181854e-02</internalNodes>
          <leafValues>
            6.3871227204799652e-02 -7.2201955318450928e-01</leafValues></_></weakClassifiers></_>
    <!-- stage 3 -->
    <_>
      <maxWeakCount>75</maxWeakCount>
      <stageThreshold>-6.4153385162353516e-01</stageThreshold>
      <weakClassifiers>
        <_>
          <internalNodes>
            0 -1 378 1.0402981191873550e-02</internalNodes>
          <leafValues>
            1.7391303554177284e-02 -5.4285717010498047e-01</leafValues></_>
        <_>
          <internalNodes>
            0 -1 382 1.9235428422689438e-02</internalNodes>
          <leafValues>
            2.2724610567092896e-01 -2.7621713280677795e-01</leafValues></_>
        <_>
          <internalNodes>
            0 -1 176 1.0452162474393845e-02</internalNodes>
          <leafValues>
            2.6968446373939514e-01 -1.8828392028808594e-01</leafValues></_>
        <_>
          <internalNodes>
            0 -1 309 2.3852553218603134e-02</internalNodes>
          <leafValues>
            1.3706097006797791e-01 -3.1462574005126953e-01</leafValues></_>
        <_>
          <internalNodes>
            0 -1 157 2.1347742527723312e-02</internalNodes>
          <leafValues>
            2.8178095817565918e-01 -1.5746812522411346e-01</leafValues></_>
        <_>
          <internalNodes>
            0 -1 319 2.1979462355375290e-02</internalNodes>
          <leafValues>
            1.5338943898677826e-01 -2.7086007595062256e-01</leafValues></_>
        <_>
          <internalNodes>
            0 -1 45 3.7825129926204681e-02</internalNodes>
          <leafValues>
            -1.4411389827728271e-01 3.0007043480873108e-01</leafValues></_>
        <_>
          <internalNodes>
            0 -1 295 2.0432159304618835e-02</internalNodes>
          <leafValues>
            1.2583321332931519e-01 -2.8545722365379333e-01</leafValues></_>
        <_>
          <internalNodes>
            0 -1 588 1.9474532455205917e-02</internalNodes>
          <leafValues>
            -3.2793346047401428e-01 1.2089194357395172e-01</leafValues></_>
        <_>
          <internalNodes>
            0 -1 158 4.7791726887226105e-02</internalNodes>
          <leafValues>
            4.9326118081808090e-02 -5.8337789773941040e-01</leafValues></_>
        <_>
          <internalNodes>
            0 -1 35 6.1640618368983269e-03</internalNodes>
          <leafValues>
            4.0488517284393311e-01 -1.1091413348913193e-01</leafValues></_>
        <_>
          <internalNodes>
            0 -1 291 5.6608058512210846e-03</internalNodes>
          <leafValues>
            -8.7484103441238403e-01 6.4579479396343231e-02</leafValues></_>
        <_>
          <internalNodes>
            0 -1 353 3.4176364541053772e-02</internalNodes>
          <leafValues>
            1.0521489381790161e-01 -3.2255116105079651e-01</leafValues></_>
        <_>
          <internalNodes>
            0 -1 377 2.9313702136278152e-02</internalNodes>
          <leafValues>
            1.0641894489526749e-01 -3.8356155157089233e-01</leafValues></_>
        <_>
          <internalNodes>
            0 -1 336 2.7742465957999229e-02</internalNodes>
          <leafValues>
            1.1862129718065262e-01 -3.0443751811981201e-01</leafValues></_>
        <_>
          <internalNodes>
            0 -1 161 7.4995964765548706e-02</internalNodes>
          <leafValues>
            3.2122235745191574e-02 -7.5853550434112549e-01</leafValues></_>
        <_>
          <internalNodes>
            0 -1 528 1.4460427686572075e-02</internalNodes>
          <leafValues>
            -3.2195618748664856e-01 8.3420075476169586e-02</leafValues></_>
        <_>
          <internalNodes>
            0 -1 67 1.5441301278769970e-02</internalNodes>
          <leafValues>
            1.5742310881614685e-01 -2.0962494611740112e-01</leafValues></_>
        <_>
          <internalNodes>
            0 -1 306 3.3467074390500784e-03</internalNodes>
          <leafValues>
            4.2882823944091797e-01 -6.8154267966747284e-02</leafValues></_>
        <_>
          <internalNodes>
            0 -1 461 6.6323140636086464e-03</internalNodes>
          <leafValues>
            -7.6575511693954468e-01 4.7956012189388275e-02</leafValues></_>
        <_>
          <internalNodes>
            0 -1 7 4.3598018586635590e-02</internalNodes>
          <leafValues>
            -1.3213366270065308e-01 2.4542285501956940e-01</leafValues></_>
        <_>
          <internalNodes>
            0 -1 283 4.0091954171657562e-02</internalNodes>
          <leafValues>
            -9.7992591559886932e-02 3.4917581081390381e-01</leafValues></_>
        <_>
          <internalNodes>
            0 -1 404 6.6255149431526661e-03</internalNodes>
          <leafValues>
            -6.6077905893325806e-01 4.9664344638586044e-02</leafValues></_>
        <_>
          <internalNodes>
            0 -1 590 1.2846894562244415e-02</internalNodes>
          <leafValues>
            -7.1981614828109741e-01 2.5433974340558052e-02</leafValues></_>
        <_>
          <internalNodes>
            0 -1 330 2.2166423499584198e-02</internalNodes>
          <leafValues>
            2.0452882349491119e-01 -1.2825402617454529e-01</leafValues></_>
        <_>
          <internalNodes>
            0 -1 178 4.9994457513093948e-03</internalNodes>
          <leafValues>
            3.3965331315994263e-01 -8.0656751990318298e-02</leafValues></_>
        <_>
          <internalNodes>
            0 -1 277 6.3968133181333542e-03</internalNodes>
          <leafValues>
            -4.6678787469863892e-01 6.0519132763147354e-02</leafValues></_>
        <_>
          <internalNodes>
            0 -1 301 4.4854357838630676e-03</internalNodes>
          <leafValues>
            3.3880594372749329e-01 -8.8100232183933258e-02</leafValues></_>
        <_>
          <internalNodes>
            0 -1 489 5.2537027746438980e-02</internalNodes>
          <leafValues>
            5.8917548507452011e-02 -4.9038586020469666e-01</leafValues></_>
        <_>
          <internalNodes>
            0 -1 11 2.3821331560611725e-03</internalNodes>
          <leafValues>
            -7.4627000093460083e-01 2.7870235964655876e-02</leafValues></_>
        <_>
          <internalNodes>
            0 -1 181 1.9673563539981842e-02</internalNodes>
          <leafValues>
            1.5761543810367584e-01 -1.7304837703704834e-01</leafValues></_>
        <_>
          <internalNodes>
            0 -1 76 1.9974712282419205e-02</internalNodes>
          <leafValues>
            1.4637315273284912e-01 -1.9963201880455017e-01</leafValues></_>
        <_>
          <internalNodes>
            0 -1 319 4.9570254981517792e-02</internalNodes>
          <leafValues>
            3.9075922220945358e-02 -7.1988165378570557e-01</leafValues></_>
        <_>
          <internalNodes>
            0 -1 407 1.0287177562713623e-01</internalNodes>
          <leafValues>
            2.4388445541262627e-02 -9.2261487245559692e-01</leafValues></_>
        <_>
          <internalNodes>
            0 -1 87 1.5686307102441788e-02</internalNodes>
          <leafValues>
            2.3822669684886932e-01 -1.2150202691555023e-01</leafValues></_>
        <_>
          <internalNodes>
            0 -1 509 2.0843654870986938e-02</internalNodes>
          <leafValues>
            1.3706266880035400e-01 -2.1310378611087799e-01</leafValues></_>
        <_>
          <internalNodes>
            0 -1 122 2.5601865723729134e-02</internalNodes>
          <leafValues>
            -1.4158412814140320e-01 2.1583075821399689e-01</leafValues></_>
        <_>
          <internalNodes>
            0 -1 68 6.1530075967311859e-02</internalNodes>
          <leafValues>
            -5.1096409559249878e-02 4.8168209195137024e-01</leafValues></_>
        <_>
          <internalNodes>
            0 -1 129 2.8150747530162334e-03</internalNodes>
          <leafValues>
            -9.0209954977035522e-01 3.3444318920373917e-02</leafValues></_>
        <_>
          <internalNodes>
            0 -1 187 3.5108931362628937e-02</internalNodes>
          <leafValues>
            6.4072735607624054e-02 -3.8593840599060059e-01</leafValues></_>
        <_>
          <internalNodes>
            0 -1 69 1.5343138948082924e-02</internalNodes>
          <leafValues>
            1.4634647965431213e-01 -1.9801510870456696e-01</leafValues></_>
        <_>
          <internalNodes>
            0 -1 442 2.8436386957764626e-02</internalNodes>
          <leafValues>
            8.7148994207382202e-02 -3.2985812425613403e-01</leafValues></_>
        <_>
          <internalNodes>
            0 -1 101 1.1340517550706863e-02</internalNodes>
          <leafValues>
            -3.7699246406555176e-01 7.9740233719348907e-02</leafValues></_>
        <_>
          <internalNodes>
            0 -1 543 4.4079653918743134e-02</internalNodes>
          <leafValues>
            6.4076468348503113e-02 -4.6570220589637756e-01</leafValues></_>
        <_>
          <internalNodes>
            0 -1 136 1.3196037150919437e-02</internalNodes>
          <leafValues>
            3.3926552534103394e-01 -9.7030051052570343e-02</leafValues></_>
        <_>
          <internalNodes>
            0 -1 422 4.3039374053478241e-02</internalNodes>
          <leafValues>
            -5.0083070993423462e-02 5.3065741062164307e-01</leafValues></_>
        <_>
          <internalNodes>
            0 -1 463 3.2002948224544525e-02</internalNodes>
          <leafValues>
            -1.6012702882289886e-01 1.9866873323917389e-01</leafValues></_>
        <_>
          <internalNodes>
            0 -1 541 2.8244005516171455e-02</internalNodes>
          <leafValues>
            1.7574547231197357e-01 -1.7752125859260559e-01</leafValues></_>
        <_>
          <internalNodes>
            0 -1 179 7.3459269478917122e-03</internalNodes>
          <leafValues>
            3.0813047289848328e-01 -9.9955454468727112e-02</leafValues></_>
        <_>
          <internalNodes>
            0 -1 596 4.5539446175098419e-02</internalNodes>
          <leafValues>
            7.0448204874992371e-02 -4.5680892467498779e-01</leafValues></_>
        <_>
          <internalNodes>
            0 -1 98 1.0059764608740807e-03</internalNodes>
          <leafValues>
            8.8017189502716064e-01 -4.6035673469305038e-02</leafValues></_>
        <_>
          <internalNodes>
            0 -1 396 6.9803129881620407e-03</internalNodes>
          <leafValues>
            -8.9366835355758667e-01 4.5347649604082108e-02</leafValues></_>
        <_>
          <internalNodes>
            0 -1 106 2.9176628217101097e-02</internalNodes>
          <leafValues>
            9.2857651412487030e-02 -2.7007660269737244e-01</leafValues></_>
        <_>
          <internalNodes>
            0 -1 581 6.1178463511168957e-03</internalNodes>
          <leafValues>
            -1. 2.9642883688211441e-02</leafValues></_>
        <_>
          <internalNodes>
            0 -1 471 4.6113602817058563e-02</internalNodes>
          <leafValues>
            -8.5900686681270599e-02 4.2362111806869507e-01</leafValues></_>
        <_>
          <internalNodes>
            0 -1 1 2.1522633731365204e-02</internalNodes>
          <leafValues>
            1.4212816953659058e-01 -2.0142535865306854e-01</leafValues></_>
        <_>
          <internalNodes>
            0 -1 514 1.2677413411438465e-02</internalNodes>
          <leafValues>
            -2.9766047000885010e-01 8.3197034895420074e-02</leafValues></_>
        <_>
          <internalNodes>
            0 -1 446 1.4888361096382141e-02</internalNodes>
          <leafValues>
            2.3012870550155640e-01 -1.3886711001396179e-01</leafValues></_>
        <_>
          <internalNodes>
            0 -1 102 1.9825123250484467e-02</internalNodes>
          <leafValues>
            -1.7898628115653992e-01 1.4525933563709259e-01</leafValues></_>
        <_>
          <internalNodes>
            0 -1 135 7.9370606690645218e-03</internalNodes>
          <leafValues>
            2.3446176946163177e-01 -1.2629699707031250e-01</leafValues></_>
        <_>
          <internalNodes>
            0 -1 411 5.3456932306289673e-02</internalNodes>
          <leafValues>
            5.5186059325933456e-02 -5.0344812870025635e-01</leafValues></_>
        <_>
          <internalNodes>
            0 -1 573 6.7994922399520874e-02</internalNodes>
          <leafValues>
            3.0494695529341698e-02 -7.0840060710906982e-01</leafValues></_>
        <_>
          <internalNodes>
            0 -1 444 4.4868715107440948e-02</internalNodes>
          <leafValues>
            -7.9371422529220581e-02 3.0434584617614746e-01</leafValues></_>
        <_>
          <internalNodes>
            0 -1 306 3.3547915518283844e-02</internalNodes>
          <leafValues>
            6.0622278600931168e-02 -4.0911832451820374e-01</leafValues></_>
        <_>
          <internalNodes>
            0 -1 414 2.4536512792110443e-02</internalNodes>
          <leafValues>
            -1.5239340066909790e-01 1.6202642023563385e-01</leafValues></_>
        <_>
          <internalNodes>
            0 -1 51 6.8617485463619232e-02</internalNodes>
          <leafValues>
            -2.7809653431177139e-02 8.7745761871337891e-01</leafValues></_>
        <_>
          <internalNodes>
            0 -1 123 3.2142163254320621e-03</internalNodes>
          <leafValues>
            -7.9318284988403320e-01 3.8954969495534897e-02</leafValues></_>
        <_>
          <internalNodes>
            0 -1 144 3.9740176871418953e-03</internalNodes>
          <leafValues>
            4.9016916751861572e-01 -5.6991241872310638e-02</leafValues></_>
        <_>
          <internalNodes>
            0 -1 418 1.8921300768852234e-02</internalNodes>
          <leafValues>
            1.7762473225593567e-01 -1.4214500784873962e-01</leafValues></_>
        <_>
          <internalNodes>
            0 -1 413 1.4294739812612534e-02</internalNodes>
          <leafValues>
            -5.1681458950042725e-01 4.1243270039558411e-02</leafValues></_>
        <_>
          <internalNodes>
            0 -1 269 3.2790079712867737e-02</internalNodes>
          <leafValues>
            1.1778929829597473e-01 -2.3750290274620056e-01</leafValues></_>
        <_>
          <internalNodes>
            0 -1 37 1.4677161350846291e-02</internalNodes>
          <leafValues>
            2.6925048232078552e-01 -8.8704824447631836e-02</leafValues></_>
        <_>
          <internalNodes>
            0 -1 355 1.2361558154225349e-02</internalNodes>
          <leafValues>
            2.0681418478488922e-01 -1.1046587675809860e-01</leafValues></_>
        <_>
          <internalNodes>
            0 -1 537 5.9478115290403366e-03</internalNodes>
          <leafValues>
            -8.9474868774414063e-01 3.0536221340298653e-02</leafValues></_>
        <_>
          <internalNodes>
            0 -1 552 2.9277430847287178e-02</internalNodes>
          <leafValues>
            1.1003420501947403e-01 -2.3113970458507538e-01</leafValues></_></weakClassifiers></_>
    <!-- stage 4 -->
    <_>
      <maxWeakCount>93</maxWeakCount>
      <stageThreshold>-6.1156564950942993e-01</stageThreshold>
      <weakClassifiers>
        <_>
          <internalNodes>
            0 -1 216 7.4260905385017395e-02</internalNodes>
          <leafValues>
            -4.2616823315620422e-01 2.8749999403953552e-01</leafValues></_>
        <_>
          <internalNodes>
            0 -1 33 1.8098622560501099e-02</internalNodes>
          <leafValues>
            1.7945772409439087e-01 -2.4869735538959503e-01</leafValues></_>
        <_>
          <internalNodes>
            0 -1 311 3.1266853213310242e-02</internalNodes>
          <leafValues>
            -1.5494035184383392e-01 2.4686177074909210e-01</leafValues></_>
        <_>
          <internalNodes>
            0 -1 328 3.1875129789113998e-02</internalNodes>
          <leafValues>
            -1.5781579911708832e-01 2.3192231357097626e-01</leafValues></_>
        <_>
          <internalNodes>
            0 -1 3 2.7783798053860664e-02</internalNodes>
          <leafValues>
            1.0128326714038849e-01 -4.0136861801147461e-01</leafValues></_>
        <_>
          <internalNodes>
            0 -1 435 7.8875524923205376e-03</internalNodes>
          <leafValues>
            -5.8146172761917114e-01 7.5488828122615814e-02</leafValues></_>
        <_>
          <internalNodes>
            0 -1 230 5.6693586520850658e-03</internalNodes>
          <leafValues>
            3.6641803383827209e-01 -1.0683976858854294e-01</leafValues></_>
        <_>
          <internalNodes>
            0 -1 465 1.0193742811679840e-02</internalNodes>
          <leafValues>
            -4.1625669598579407e-01 7.7212564647197723e-02</leafValues></_>
        <_>
          <internalNodes>
            0 -1 577 3.4672491252422333e-02</internalNodes>
          <leafValues>
            -1.9284339249134064e-01 1.5030528604984283e-01</leafValues></_>
        <_>
          <internalNodes>
            0 -1 567 2.2743079811334610e-02</internalNodes>
          <leafValues>
            -1.3362210988998413e-01 2.2927822172641754e-01</leafValues></_>
        <_>
          <internalNodes>
            0 -1 301 1.8357988446950912e-02</internalNodes>
          <leafValues>
            1.1131463944911957e-01 -2.3498216271400452e-01</leafValues></_>
        <_>
          <internalNodes>
            0 -1 493 1.2358065694570541e-02</internalNodes>
          <leafValues>
            -3.2958447933197021e-01 9.4769529998302460e-02</leafValues></_>
        <_>
          <internalNodes>
            0 -1 138 2.5305476039648056e-02</internalNodes>
          <leafValues>
            8.7954275310039520e-02 -3.2271331548690796e-01</leafValues></_>
        <_>
          <internalNodes>
            0 -1 486 2.8048165142536163e-02</internalNodes>
          <leafValues>
            -1.2501277029514313e-01 2.5442969799041748e-01</leafValues></_>
        <_>
          <internalNodes>
            0 -1 362 5.3582772612571716e-02</internalNodes>
          <leafValues>
            -1.0518095642328262e-01 2.9540860652923584e-01</leafValues></_>
        <_>
          <internalNodes>
            0 -1 224 1.5160032548010349e-02</internalNodes>
          <leafValues>
            -2.9006749391555786e-01 9.8317421972751617e-02</leafValues></_>
        <_>
          <internalNodes>
            0 -1 548 8.2859709858894348e-02</internalNodes>
          <leafValues>
            2.2788902744650841e-02 -1.</leafValues></_>
        <_>
          <internalNodes>
            0 -1 144 2.5870842859148979e-02</internalNodes>
          <leafValues>
            9.7039006650447845e-02 -2.5520455837249756e-01</leafValues></_>
        <_>
          <internalNodes>
            0 -1 564 4.0529031306505203e-02</internalNodes>
          <leafValues>
            9.2994160950183868e-02 -2.6646941900253296e-01</leafValues></_>
        <_>
          <internalNodes>
            0 -1 314 1.4529908075928688e-02</internalNodes>
          <leafValues>
            1.9049540162086487e-01 -1.3235400617122650e-01</leafValues></_>
        <_>
          <internalNodes>
            0 -1 282 3.2923470716923475e-03</internalNodes>
          <leafValues>
            -7.0867663621902466e-01 3.1020186841487885e-02</leafValues></_>
        <_>
          <internalNodes>
            0 -1 321 2.6391470804810524e-02</internalNodes>
          <leafValues>
            1.0694225132465363e-01 -2.2756777703762054e-01</leafValues></_>
        <_>
          <internalNodes>
            0 -1 591 2.4295348674058914e-02</internalNodes>
          <leafValues>
            -2.3412972688674927e-01 1.6738456487655640e-01</leafValues></_>
        <_>
          <internalNodes>
            0 -1 225 5.1365621387958527e-02</internalNodes>
          <leafValues>
            -5.2132032811641693e-02 4.7017878293991089e-01</leafValues></_>
        <_>
          <internalNodes>
            0 -1 515 3.2693605870008469e-02</internalNodes>
          <leafValues>
            7.5435563921928406e-02 -3.5430872440338135e-01</leafValues></_>
        <_>
          <internalNodes>
            0 -1 433 4.1254822164773941e-02</internalNodes>
          <leafValues>
            6.2063712626695633e-02 -3.5079941153526306e-01</leafValues></_>
        <_>
          <internalNodes>
            0 -1 525 1.0519233532249928e-02</internalNodes>
          <leafValues>
            -5.0934457778930664e-01 4.4114522635936737e-02</leafValues></_>
        <_>
          <internalNodes>
            0 -1 337 1.8011737614870071e-02</internalNodes>
          <leafValues>
            1.6575166583061218e-01 -1.4445382356643677e-01</leafValues></_>
        <_>
          <internalNodes>
            0 -1 461 9.7541771829128265e-03</internalNodes>
          <leafValues>
            -4.1343927383422852e-01 5.2434515208005905e-02</leafValues></_>
        <_>
          <internalNodes>
            0 -1 78 3.2988645136356354e-02</internalNodes>
          <leafValues>
            6.8857856094837189e-02 -3.4265190362930298e-01</leafValues></_>
        <_>
          <internalNodes>
            0 -1 50 6.2958500348031521e-03</internalNodes>
          <leafValues>
            -5.1956999301910400e-01 3.8929253816604614e-02</leafValues></_>
        <_>
          <internalNodes>
            0 -1 366 6.6338609904050827e-03</internalNodes>
          <leafValues>
            -4.9117690324783325e-01 4.0721621364355087e-02</leafValues></_>
        <_>
          <internalNodes>
            0 -1 434 2.8659112751483917e-02</internalNodes>
          <leafValues>
            9.5318771898746490e-02 -2.3410557210445404e-01</leafValues></_>
        <_>
          <internalNodes>
            0 -1 534 1.8679205328226089e-02</internalNodes>
          <leafValues>
            1.8890862166881561e-01 -1.3309517502784729e-01</leafValues></_>
        <_>
          <internalNodes>
            0 -1 353 6.5174810588359833e-02</internalNodes>
          <leafValues>
            3.0380824580788612e-02 -6.5257591009140015e-01</leafValues></_>
        <_>
          <internalNodes>
            0 -1 570 2.0661097019910812e-02</internalNodes>
          <leafValues>
            1.0872557759284973e-01 -2.2521701455116272e-01</leafValues></_>
        <_>
          <internalNodes>
            0 -1 73 4.4349499046802521e-02</internalNodes>
          <leafValues>
            -5.9361342340707779e-02 3.9409658312797546e-01</leafValues></_>
        <_>
          <internalNodes>
            0 -1 227 1.8698360770940781e-02</internalNodes>
          <leafValues>
            1.1836893856525421e-01 -2.0611391961574554e-01</leafValues></_>
        <_>
          <internalNodes>
            0 -1 508 2.7860399335622787e-02</internalNodes>
          <leafValues>
            -1.1708072572946548e-01 2.1467304229736328e-01</leafValues></_>
        <_>
          <internalNodes>
            0 -1 56 1.5662813559174538e-02</internalNodes>
          <leafValues>
            -1.9227962195873260e-01 1.2212099879980087e-01</leafValues></_>
        <_>
          <internalNodes>
            0 -1 118 4.5546679757535458e-03</internalNodes>
          <leafValues>
            4.0205994248390198e-01 -6.8742521107196808e-02</leafValues></_>
        <_>
          <internalNodes>
            0 -1 188 7.3637679219245911e-02</internalNodes>
          <leafValues>
            3.8210142403841019e-02 -6.6683667898178101e-01</leafValues></_>
        <_>
          <internalNodes>
            0 -1 367 4.7901528887450695e-03</internalNodes>
          <leafValues>
            -6.2579357624053955e-01 3.0701447278261185e-02</leafValues></_>
        <_>
          <internalNodes>
            0 -1 354 1.3772609643638134e-02</internalNodes>
          <leafValues>
            2.1374258399009705e-01 -1.3865797221660614e-01</leafValues></_>
        <_>
          <internalNodes>
            0 -1 485 3.7838049232959747e-02</internalNodes>
          <leafValues>
            1.1184754222631454e-01 -2.1622528135776520e-01</leafValues></_>
        <_>
          <internalNodes>
            0 -1 31 4.3982313945889473e-04</internalNodes>
          <leafValues>
            8.9541465044021606e-01 -2.7585351839661598e-02</leafValues></_>
        <_>
          <internalNodes>
            0 -1 478 4.1841547936201096e-02</internalNodes>
          <leafValues>
            6.0861200094223022e-02 -3.9739227294921875e-01</leafValues></_>
        <_>
          <internalNodes>
            0 -1 372 1.1459996458142996e-03</internalNodes>
          <leafValues>
            5.9793835878372192e-01 -4.2536117136478424e-02</leafValues></_>
        <_>
          <internalNodes>
            0 -1 79 1.5892207622528076e-02</internalNodes>
          <leafValues>
            -2.0738549530506134e-01 1.1286122351884842e-01</leafValues></_>
        <_>
          <internalNodes>
            0 -1 28 7.8374862670898438e-02</internalNodes>
          <leafValues>
            -4.0515176951885223e-02 5.3269833326339722e-01</leafValues></_>
        <_>
          <internalNodes>
            0 -1 397 1.6638180240988731e-02</internalNodes>
          <leafValues>
            2.1736218035221100e-01 -1.0162428766489029e-01</leafValues></_>
        <_>
          <internalNodes>
            0 -1 114 5.7585582137107849e-02</internalNodes>
          <leafValues>
            -5.5901907384395599e-02 4.4069036841392517e-01</leafValues></_>
        <_>
          <internalNodes>
            0 -1 473 1.0470001026988029e-02</internalNodes>
          <leafValues>
            -4.1809797286987305e-01 6.0026559978723526e-02</leafValues></_>
        <_>
          <internalNodes>
            0 -1 574 6.0107661411166191e-03</internalNodes>
          <leafValues>
            6.3360446691513062e-01 -4.1389122605323792e-02</leafValues></_>
        <_>
          <internalNodes>
            0 -1 97 1.9826681818813086e-03</internalNodes>
          <leafValues>
            -6.4891827106475830e-01 4.0784545242786407e-02</leafValues></_>
        <_>
          <internalNodes>
            0 -1 389 1.3369204476475716e-02</internalNodes>
          <leafValues>
            1.8877115845680237e-01 -1.1441497504711151e-01</leafValues></_>
        <_>
          <internalNodes>
            0 -1 388 3.5454928874969482e-02</internalNodes>
          <leafValues>
            -8.5452482104301453e-02 3.1696480512619019e-01</leafValues></_>
        <_>
          <internalNodes>
            0 -1 482 5.9521973133087158e-02</internalNodes>
          <leafValues>
            3.3011145889759064e-02 -7.1307921409606934e-01</leafValues></_>
        <_>
          <internalNodes>
            0 -1 91 2.0173547789454460e-02</internalNodes>
          <leafValues>
            2.6563417911529541e-01 -8.3595007658004761e-02</leafValues></_>
        <_>
          <internalNodes>
            0 -1 492 7.6005076989531517e-03</internalNodes>
          <leafValues>
            -5.2274984121322632e-01 3.7212911993265152e-02</leafValues></_>
        <_>
          <internalNodes>
            0 -1 558 1.6469646245241165e-02</internalNodes>
          <leafValues>
            -2.7969002723693848e-01 6.9382913410663605e-02</leafValues></_>
        <_>
          <internalNodes>
            0 -1 63 6.1797291040420532e-02</internalNodes>
          <leafValues>
            -6.6796414554119110e-02 3.8752681016921997e-01</leafValues></_>
        <_>
          <internalNodes>
            0 -1 475 2.9730901122093201e-02</internalNodes>
          <leafValues>
            -9.6135847270488739e-02 2.3068138957023621e-01</leafValues></_>
        <_>
          <internalNodes>
            0 -1 337 4.7152392566204071e-02</internalNodes>
          <leafValues>
            -5.7126492261886597e-02 3.7852171063423157e-01</leafValues></_>
        <_>
          <internalNodes>
            0 -1 467 3.7269342690706253e-02</internalNodes>
          <leafValues>
            6.8201005458831787e-02 -3.3581513166427612e-01</leafValues></_>
        <_>
          <internalNodes>
            0 -1 99 5.6791458278894424e-02</internalNodes>
          <leafValues>
            -4.3795306235551834e-02 5.0824898481369019e-01</leafValues></_>
        <_>
          <internalNodes>
            0 -1 17 7.8161403536796570e-02</internalNodes>
          <leafValues>
            -3.8336910307407379e-02 4.4697692990303040e-01</leafValues></_>
        <_>
          <internalNodes>
            0 -1 343 2.1740432828664780e-02</internalNodes>
          <leafValues>
            1.9619758427143097e-01 -1.1128405481576920e-01</leafValues></_>
        <_>
          <internalNodes>
            0 -1 345 2.1484188735485077e-02</internalNodes>
          <leafValues>
            1.5847136080265045e-01 -1.5425099432468414e-01</leafValues></_>
        <_>
          <internalNodes>
            0 -1 274 1.2101858854293823e-02</internalNodes>
          <leafValues>
            -3.1184843182563782e-01 7.4669070541858673e-02</leafValues></_>
        <_>
          <internalNodes>
            0 -1 420 1.0978535749018192e-02</internalNodes>
          <leafValues>
            3.2858985662460327e-01 -7.4858091771602631e-02</leafValues></_>
        <_>
          <internalNodes>
            0 -1 503 5.3955265320837498e-03</internalNodes>
          <leafValues>
            -3.9707013964653015e-01 5.6643504649400711e-02</leafValues></_>
        <_>
          <internalNodes>
            0 -1 9 4.7955054789781570e-02</internalNodes>
          <leafValues>
            5.3088519722223282e-02 -4.8660537600517273e-01</leafValues></_>
        <_>
          <internalNodes>
            0 -1 141 2.3849997669458389e-02</internalNodes>
          <leafValues>
            1.2387224286794662e-01 -2.0140403509140015e-01</leafValues></_>
        <_>
          <internalNodes>
            0 -1 399 6.3521802425384521e-02</internalNodes>
          <leafValues>
            -2.5951765477657318e-02 8.9506077766418457e-01</leafValues></_>
        <_>
          <internalNodes>
            0 -1 409 2.2212821990251541e-02</internalNodes>
          <leafValues>
            1.2646910548210144e-01 -1.9373963773250580e-01</leafValues></_>
        <_>
          <internalNodes>
            0 -1 288 4.3014567345380783e-02</internalNodes>
          <leafValues>
            -1.1001147329807281e-01 2.4971979856491089e-01</leafValues></_>
        <_>
          <internalNodes>
            0 -1 210 3.3802285790443420e-02</internalNodes>
          <leafValues>
            -1.0729260742664337e-01 2.6093235611915588e-01</leafValues></_>
        <_>
          <internalNodes>
            0 -1 356 6.5115571022033691e-02</internalNodes>
          <leafValues>
            -2.6372106745839119e-02 8.8078802824020386e-01</leafValues></_>
        <_>
          <internalNodes>
            0 -1 272 5.0835791043937206e-03</internalNodes>
          <leafValues>
            -8.5279142856597900e-01 3.5087250173091888e-02</leafValues></_>
        <_>
          <internalNodes>
            0 -1 209 1.1483177542686462e-02</internalNodes>
          <leafValues>
            -3.1708037853240967e-01 5.8352891355752945e-02</leafValues></_>
        <_>
          <internalNodes>
            0 -1 34 1.4063175767660141e-02</internalNodes>
          <leafValues>
            1.5406461060047150e-01 -1.4099670946598053e-01</leafValues></_>
        <_>
          <internalNodes>
            0 -1 170 8.4732450544834137e-02</internalNodes>
          <leafValues>
            2.3778930306434631e-02 -8.8490408658981323e-01</leafValues></_>
        <_>
          <internalNodes>
            0 -1 449 5.9599980711936951e-02</internalNodes>
          <leafValues>
            1.3780978508293629e-02 -1.</leafValues></_>
        <_>
          <internalNodes>
            0 -1 173 1.2391069903969765e-03</internalNodes>
          <leafValues>
            4.7283124923706055e-01 -4.7754839062690735e-02</leafValues></_>
        <_>
          <internalNodes>
            0 -1 449 3.0573558062314987e-02</internalNodes>
          <leafValues>
            -7.7501527965068817e-02 2.5443476438522339e-01</leafValues></_>
        <_>
          <internalNodes>
            0 -1 186 3.4642815589904785e-02</internalNodes>
          <leafValues>
            5.8773107826709747e-02 -3.1724941730499268e-01</leafValues></_>
        <_>
          <internalNodes>
            0 -1 452 3.3120762556791306e-02</internalNodes>
          <leafValues>
            7.6450861990451813e-02 -2.6623916625976563e-01</leafValues></_>
        <_>
          <internalNodes>
            0 -1 244 8.6270973086357117e-02</internalNodes>
          <leafValues>
            2.5422150269150734e-02 -8.1171292066574097e-01</leafValues></_>
        <_>
          <internalNodes>
            0 -1 331 3.3541254699230194e-02</internalNodes>
          <leafValues>
            -1.0808555036783218e-01 2.1618749201297760e-01</leafValues></_>
        <_>
          <internalNodes>
            0 -1 305 4.3992836028337479e-02</internalNodes>
          <leafValues>
            3.8090553134679794e-02 -5.1576095819473267e-01</leafValues></_>
        <_>
          <internalNodes>
            0 -1 560 6.5929040312767029e-02</internalNodes>
          <leafValues>
            2.7950331568717957e-02 -6.4236670732498169e-01</leafValues></_>
        <_>
          <internalNodes>
            0 -1 293 2.0897520706057549e-02</internalNodes>
          <leafValues>
            1.1486125737428665e-01 -1.8097734451293945e-01</leafValues></_></weakClassifiers></_>
    <!-- stage 5 -->
    <_>
      <maxWeakCount>100</maxWeakCount>
      <stageThreshold>-6.6982775926589966e-01</stageThreshold>
      <weakClassifiers>
        <_>
          <internalNodes>
            0 -1 344 6.4168192446231842e-02</internalNodes>
          <leafValues>
            -4.0225562453269958e-01 1.1656441539525986e-01</leafValues></_>
        <_>
          <internalNodes>
            0 -1 389 5.5168005637824535e-03</internalNodes>
          <leafValues>
            -5.1676183938980103e-01 5.6857734918594360e-02</leafValues></_>
        <_>
          <internalNodes>
            0 -1 94 1.2447623535990715e-02</internalNodes>
          <leafValues>
            -2.8721421957015991e-01 9.5170579850673676e-02</leafValues></_>
        <_>
          <internalNodes>
            0 -1 389 5.5942134931683540e-03</internalNodes>
          <leafValues>
            7.2783255577087402e-01 -5.8854315429925919e-03</leafValues></_>
        <_>
          <internalNodes>
            0 -1 389 5.7275085709989071e-03</internalNodes>
          <leafValues>
            -6.1560761928558350e-01 3.2478889916092157e-03</leafValues></_>
        <_>
          <internalNodes>
            0 -1 296 1.4196636155247688e-02</internalNodes>
          <leafValues>
            1.6696015000343323e-01 -1.9490326941013336e-01</leafValues></_>
        <_>
          <internalNodes>
            0 -1 134 4.9521718174219131e-02</internalNodes>
          <leafValues>
            -8.0526374280452728e-02 3.2177504897117615e-01</leafValues></_>
        <_>
          <internalNodes>
            0 -1 270 5.1524389535188675e-02</internalNodes>
          <leafValues>
            8.7723627686500549e-02 -3.4844955801963806e-01</leafValues></_>
        <_>
          <internalNodes>
            0 -1 360 8.6660869419574738e-03</internalNodes>
          <leafValues>
            -4.7420513629913330e-01 4.2594924569129944e-02</leafValues></_>
        <_>
          <internalNodes>
            0 -1 511 1.6070846468210220e-03</internalNodes>
          <leafValues>
            -9.1805207729339600e-01 1.5947660431265831e-02</leafValues></_>
        <_>
          <internalNodes>
            0 -1 151 5.4335176944732666e-02</internalNodes>
          <leafValues>
            3.0677121132612228e-02 -5.9564232826232910e-01</leafValues></_>
        <_>
          <internalNodes>
            0 -1 414 4.3551024049520493e-02</internalNodes>
          <leafValues>
            -5.0240095704793930e-02 3.8062608242034912e-01</leafValues></_>
        <_>
          <internalNodes>
            0 -1 451 4.1616573929786682e-02</internalNodes>
          <leafValues>
            -1.2737162411212921e-01 1.9873711466789246e-01</leafValues></_>
        <_>
          <internalNodes>
            0 -1 468 9.6122305840253830e-03</internalNodes>
          <leafValues>
            -4.7004356980323792e-01 5.1005572080612183e-02</leafValues></_>
        <_>
          <internalNodes>
            0 -1 488 4.6648323535919189e-02</internalNodes>
          <leafValues>
            6.0796506702899933e-02 -3.9263239502906799e-01</leafValues></_>
        <_>
          <internalNodes>
            0 -1 98 3.5231509245932102e-03</internalNodes>
          <leafValues>
            5.1530271768569946e-01 -4.9494210630655289e-02</leafValues></_>
        <_>
          <internalNodes>
            0 -1 320 6.9947890937328339e-02</internalNodes>
          <leafValues>
            4.5784972608089447e-02 -4.5607227087020874e-01</leafValues></_>
        <_>
          <internalNodes>
            0 -1 526 4.5203864574432373e-02</internalNodes>
          <leafValues>
            -8.9834757149219513e-02 2.5084871053695679e-01</leafValues></_>
        <_>
          <internalNodes>
            0 -1 208 5.7549320161342621e-02</internalNodes>
          <leafValues>
            7.1939863264560699e-02 -4.5225784182548523e-01</leafValues></_>
        <_>
          <internalNodes>
            0 -1 520 4.3255962431430817e-02</internalNodes>
          <leafValues>
            -9.8369538784027100e-02 2.1144101023674011e-01</leafValues></_>
        <_>
          <internalNodes>
            0 -1 58 2.8927344828844070e-02</internalNodes>
          <leafValues>
            9.9675223231315613e-02 -1.9300602376461029e-01</leafValues></_>
        <_>
          <internalNodes>
            0 -1 232 3.8135647773742676e-02</internalNodes>
          <leafValues>
            -8.6859896779060364e-02 2.6523771882057190e-01</leafValues></_>
        <_>
          <internalNodes>
            0 -1 377 4.5455060899257660e-02</internalNodes>
          <leafValues>
            4.1453514248132706e-02 -5.0858229398727417e-01</leafValues></_>
        <_>
          <internalNodes>
            0 -1 538 2.2378854453563690e-02</internalNodes>
          <leafValues>
            -1.8702773749828339e-01 1.1551561206579208e-01</leafValues></_>
        <_>
          <internalNodes>
            0 -1 149 1.5097510069608688e-02</internalNodes>
          <leafValues>
            -3.1766068935394287e-01 6.1263080686330795e-02</leafValues></_>
        <_>
          <internalNodes>
            0 -1 46 1.6712231561541557e-02</internalNodes>
          <leafValues>
            2.2074514627456665e-01 -1.0165338218212128e-01</leafValues></_>
        <_>
          <internalNodes>
            0 -1 198 8.1424415111541748e-02</internalNodes>
          <leafValues>
            3.9023205637931824e-02 -5.8001726865768433e-01</leafValues></_>
        <_>
          <internalNodes>
            0 -1 592 1.1383548378944397e-02</internalNodes>
          <leafValues>
            -5.8294069766998291e-01 2.7165878564119339e-02</leafValues></_>
        <_>
          <internalNodes>
            0 -1 354 1.8513502553105354e-02</internalNodes>
          <leafValues>
            1.2103667855262756e-01 -1.5760786831378937e-01</leafValues></_>
        <_>
          <internalNodes>
            0 -1 300 4.6929776668548584e-02</internalNodes>
          <leafValues>
            -5.5191393941640854e-02 3.3235982060432434e-01</leafValues></_>
        <_>
          <internalNodes>
            0 -1 430 6.4855098724365234e-02</internalNodes>
          <leafValues>
            3.3913537859916687e-02 -5.7066035270690918e-01</leafValues></_>
        <_>
          <internalNodes>
            0 -1 421 2.4014264345169067e-02</internalNodes>
          <leafValues>
            1.0529752820730209e-01 -1.7964832484722137e-01</leafValues></_>
        <_>
          <internalNodes>
            0 -1 308 1.1304100975394249e-02</internalNodes>
          <leafValues>
            2.0521198213100433e-01 -9.8817110061645508e-02</leafValues></_>
        <_>
          <internalNodes>
            0 -1 445 3.2488438300788403e-03</internalNodes>
          <leafValues>
            -6.4623159170150757e-01 2.9393818229436874e-02</leafValues></_>
        <_>
          <internalNodes>
            0 -1 483 5.1148268394172192e-03</internalNodes>
          <leafValues>
            6.4294540882110596e-01 -3.6769177764654160e-02</leafValues></_>
        <_>
          <internalNodes>
            0 -1 304 4.2901970446109772e-02</internalNodes>
          <leafValues>
            4.3513976037502289e-02 -5.0876200199127197e-01</leafValues></_>
        <_>
          <internalNodes>
            0 -1 19 8.3256475627422333e-03</internalNodes>
          <leafValues>
            -4.2891916632652283e-01 4.6126559376716614e-02</leafValues></_>
        <_>
          <internalNodes>
            0 -1 29 3.6042146384716034e-02</internalNodes>
          <leafValues>
            -8.9686542749404907e-02 2.2399878501892090e-01</leafValues></_>
        <_>
          <internalNodes>
            0 -1 278 9.1215923428535461e-02</internalNodes>
          <leafValues>
            -2.6560030877590179e-02 8.0967503786087036e-01</leafValues></_>
        <_>
          <internalNodes>
            0 -1 416 1.0794629342854023e-02</internalNodes>
          <leafValues>
            -4.9930596351623535e-01 4.7949213534593582e-02</leafValues></_>
        <_>
          <internalNodes>
            0 -1 216 1.2025348097085953e-01</internalNodes>
          <leafValues>
            -3.1808488070964813e-02 6.8476134538650513e-01</leafValues></_>
        <_>
          <internalNodes>
            0 -1 484 1.1719768866896629e-02</internalNodes>
          <leafValues>
            -4.3231627345085144e-01 5.5509481579065323e-02</leafValues></_>
        <_>
          <internalNodes>
            0 -1 286 7.5925532728433609e-03</internalNodes>
          <leafValues>
            -5.5509656667709351e-01 3.0579641461372375e-02</leafValues></_>
        <_>
          <internalNodes>
            0 -1 572 4.3671045452356339e-02</internalNodes>
          <leafValues>
            4.0604330599308014e-02 -4.6190333366394043e-01</leafValues></_>
        <_>
          <internalNodes>
            0 -1 174 5.3899321705102921e-02</internalNodes>
          <leafValues>
            -4.9576960504055023e-02 4.5812875032424927e-01</leafValues></_>
        <_>
          <internalNodes>
            0 -1 517 2.1579250693321228e-02</internalNodes>
          <leafValues>
            -1.8802303075790405e-01 1.0942537337541580e-01</leafValues></_>
        <_>
          <internalNodes>
            0 -1 100 1.5145292505621910e-02</internalNodes>
          <leafValues>
            2.3481531441211700e-01 -9.9783077836036682e-02</leafValues></_>
        <_>
          <internalNodes>
            0 -1 90 3.4840159118175507e-02</internalNodes>
          <leafValues>
            -8.5375122725963593e-02 2.4934323132038116e-01</leafValues></_>
        <_>
          <internalNodes>
            0 -1 341 1.7448695376515388e-02</internalNodes>
          <leafValues>
            1.6890490055084229e-01 -1.2359260022640228e-01</leafValues></_>
        <_>
          <internalNodes>
            0 -1 348 7.0991612970829010e-02</internalNodes>
          <leafValues>
            2.4844259023666382e-02 -6.8293893337249756e-01</leafValues></_>
        <_>
          <internalNodes>
            0 -1 486 6.8723991513252258e-02</internalNodes>
          <leafValues>
            2.6358596980571747e-02 -7.0678627490997314e-01</leafValues></_>
        <_>
          <internalNodes>
            0 -1 472 1.7225695773959160e-02</internalNodes>
          <leafValues>
            2.8722655773162842e-01 -7.7826008200645447e-02</leafValues></_>
        <_>
          <internalNodes>
            0 -1 472 9.5867365598678589e-03</internalNodes>
          <leafValues>
            -8.6258512735366821e-01 3.2875150442123413e-02</leafValues></_>
        <_>
          <internalNodes>
            0 -1 397 1.3169691897928715e-02</internalNodes>
          <leafValues>
            2.4732258915901184e-01 -8.9389786124229431e-02</leafValues></_>
        <_>
          <internalNodes>
            0 -1 529 8.6275003850460052e-03</internalNodes>
          <leafValues>
            -8.1751704216003418e-01 2.6154266670346260e-02</leafValues></_>
        <_>
          <internalNodes>
            0 -1 457 8.1391960382461548e-02</internalNodes>
          <leafValues>
            3.1718876212835312e-02 -5.7900834083557129e-01</leafValues></_>
        <_>
          <internalNodes>
            0 -1 464 4.4862277805805206e-02</internalNodes>
          <leafValues>
            -1.0363391786813736e-01 2.0972645282745361e-01</leafValues></_>
        <_>
          <internalNodes>
            0 -1 318 6.6569350659847260e-02</internalNodes>
          <leafValues>
            -2.3550225421786308e-02 8.6851364374160767e-01</leafValues></_>
        <_>
          <internalNodes>
            0 -1 67 9.4436097424477339e-04</internalNodes>
          <leafValues>
            -5.8020508289337158e-01 4.0199618786573410e-02</leafValues></_>
        <_>
          <internalNodes>
            0 -1 551 5.9062466025352478e-02</internalNodes>
          <leafValues>
            -3.9702963083982468e-02 5.8258759975433350e-01</leafValues></_>
        <_>
          <internalNodes>
            0 -1 279 1.8364470452070236e-02</internalNodes>
          <leafValues>
            1.4096924662590027e-01 -1.4518123865127563e-01</leafValues></_>
        <_>
          <internalNodes>
            0 -1 424 4.1474249213933945e-02</internalNodes>
          <leafValues>
            3.7071447819471359e-02 -5.0342988967895508e-01</leafValues></_>
        <_>
          <internalNodes>
            0 -1 220 2.8518799692392349e-02</internalNodes>
          <leafValues>
            -7.7655099332332611e-02 2.8756469488143921e-01</leafValues></_>
        <_>
          <internalNodes>
            0 -1 175 1.2171158567070961e-02</internalNodes>
          <leafValues>
            1.7910398542881012e-01 -1.0910741984844208e-01</leafValues></_>
        <_>
          <internalNodes>
            0 -1 580 1.0786344297230244e-02</internalNodes>
          <leafValues>
            -4.4225761294364929e-01 5.2121311426162720e-02</leafValues></_>
        <_>
          <internalNodes>
            0 -1 124 3.1129155308008194e-02</internalNodes>
          <leafValues>
            1.1633598059415817e-01 -1.7293724417686462e-01</leafValues></_>
        <_>
          <internalNodes>
            0 -1 357 3.1332232058048248e-02</internalNodes>
          <leafValues>
            -8.2452386617660522e-02 2.4359878897666931e-01</leafValues></_>
        <_>
          <internalNodes>
            0 -1 510 2.5213688611984253e-02</internalNodes>
          <leafValues>
            8.5164777934551239e-02 -2.5274640321731567e-01</leafValues></_>
        <_>
          <internalNodes>
            0 -1 235 4.8495060764253139e-03</internalNodes>
          <leafValues>
            -4.6244707703590393e-01 4.2186900973320007e-02</leafValues></_>
        <_>
          <internalNodes>
            0 -1 96 3.8313516415655613e-03</internalNodes>
          <leafValues>
            4.1070726513862610e-01 -5.1245771348476410e-02</leafValues></_>
        <_>
          <internalNodes>
            0 -1 431 3.5285200923681259e-02</internalNodes>
          <leafValues>
            6.2019575387239456e-02 -3.4650731086730957e-01</leafValues></_>
        <_>
          <internalNodes>
            0 -1 248 6.2586762011051178e-02</internalNodes>
          <leafValues>
            -3.4471206367015839e-02 6.9669562578201294e-01</leafValues></_>
        <_>
          <internalNodes>
            0 -1 281 7.7874325215816498e-03</internalNodes>
          <leafValues>
            -4.6469196677207947e-01 4.5366700738668442e-02</leafValues></_>
        <_>
          <internalNodes>
            0 -1 340 4.3181575834751129e-02</internalNodes>
          <leafValues>
            -8.6915694177150726e-02 2.5501126050949097e-01</leafValues></_>
        <_>
          <internalNodes>
            0 -1 549 8.0332741141319275e-02</internalNodes>
          <leafValues>
            2.4418875575065613e-02 -8.3116036653518677e-01</leafValues></_>
        <_>
          <internalNodes>
            0 -1 480 6.7269830033183098e-03</internalNodes>
          <leafValues>
            6.9384360313415527e-01 -3.5223510116338730e-02</leafValues></_>
        <_>
          <internalNodes>
            0 -1 72 5.8687489479780197e-02</internalNodes>
          <leafValues>
            -6.4395502209663391e-02 2.7277120947837830e-01</leafValues></_>
        <_>
          <internalNodes>
            0 -1 387 3.8400720804929733e-02</internalNodes>
          <leafValues>
            9.0198725461959839e-02 -2.3589543998241425e-01</leafValues></_>
        <_>
          <internalNodes>
            0 -1 392 9.0665087103843689e-02</internalNodes>
          <leafValues>
            -2.6858231052756310e-02 7.3514240980148315e-01</leafValues></_>
        <_>
          <internalNodes>
            0 -1 231 5.4735079407691956e-02</internalNodes>
          <leafValues>
            5.0545662641525269e-02 -3.9091736078262329e-01</leafValues></_>
        <_>
          <internalNodes>
            0 -1 299 1.9065201282501221e-02</internalNodes>
          <leafValues>
            -1.8228663504123688e-01 1.0980571061372757e-01</leafValues></_>
        <_>
          <internalNodes>
            0 -1 93 1.0787915438413620e-02</internalNodes>
          <leafValues>
            -3.2243579626083374e-01 5.2998684346675873e-02</leafValues></_>
        <_>
          <internalNodes>
            0 -1 82 1.8923088908195496e-02</internalNodes>
          <leafValues>
            1.2032951414585114e-01 -1.4392796158790588e-01</leafValues></_>
        <_>
          <internalNodes>
            0 -1 466 5.9309555217623711e-03</internalNodes>
          <leafValues>
            -5.8338361978530884e-01 3.1269665807485580e-02</leafValues></_>
        <_>
          <internalNodes>
            0 -1 314 5.0462998449802399e-02</internalNodes>
          <leafValues>
            -3.8905397057533264e-02 5.1381987333297729e-01</leafValues></_>
        <_>
          <internalNodes>
            0 -1 57 1.5412284061312675e-02</internalNodes>
          <leafValues>
            2.5259158015251160e-01 -7.1132622659206390e-02</leafValues></_>
        <_>
          <internalNodes>
            0 -1 57 5.1651550456881523e-03</internalNodes>
          <leafValues>
            -6.2209957838058472e-01 2.6722835376858711e-02</leafValues></_>
        <_>
          <internalNodes>
            0 -1 21 2.4540204554796219e-02</internalNodes>
          <leafValues>
            9.3091621994972229e-02 -1.9463783502578735e-01</leafValues></_>
        <_>
          <internalNodes>
            0 -1 388 2.2718252614140511e-02</internalNodes>
          <leafValues>
            -1.1824974417686462e-01 1.6307227313518524e-01</leafValues></_>
        <_>
          <internalNodes>
            0 -1 502 5.6164547801017761e-02</internalNodes>
          <leafValues>
            2.7697343379259109e-02 -5.9427243471145630e-01</leafValues></_>
        <_>
          <internalNodes>
            0 -1 256 4.6779014170169830e-02</internalNodes>
          <leafValues>
            -6.7129284143447876e-02 2.7302321791648865e-01</leafValues></_>
        <_>
          <internalNodes>
            0 -1 462 2.8247758746147156e-02</internalNodes>
          <leafValues>
            -1.1963902413845062e-01 1.8385720252990723e-01</leafValues></_>
        <_>
          <internalNodes>
            0 -1 246 6.3503175973892212e-02</internalNodes>
          <leafValues>
            3.1169109046459198e-02 -6.7769849300384521e-01</leafValues></_>
        <_>
          <internalNodes>
            0 -1 342 1.9023846834897995e-02</internalNodes>
          <leafValues>
            1.6504012048244476e-01 -1.1934711039066315e-01</leafValues></_>
        <_>
          <internalNodes>
            0 -1 121 8.7945405393838882e-03</internalNodes>
          <leafValues>
            2.0173940062522888e-01 -9.8602660000324249e-02</leafValues></_>
        <_>
          <internalNodes>
            0 -1 55 1.7530437558889389e-02</internalNodes>
          <leafValues>
            -1.2934586405754089e-01 1.7111113667488098e-01</leafValues></_>
        <_>
          <internalNodes>
            0 -1 585 1.5702348202466965e-02</internalNodes>
          <leafValues>
            -2.7443775534629822e-01 7.7085427939891815e-02</leafValues></_>
        <_>
          <internalNodes>
            0 -1 190 8.9608412235975266e-03</internalNodes>
          <leafValues>
            2.7070811390876770e-01 -8.8559240102767944e-02</leafValues></_>
        <_>
          <internalNodes>
            0 -1 523 4.8939688131213188e-03</internalNodes>
          <leafValues>
            -9.4551390409469604e-01 2.0235195755958557e-02</leafValues></_>
        <_>
          <internalNodes>
            0 -1 116 5.9218320995569229e-02</internalNodes>
          <leafValues>
            4.3125014752149582e-02 -3.8384544849395752e-01</leafValues></_></weakClassifiers></_>
    <!-- stage 6 -->
    <_>
      <maxWeakCount>100</maxWeakCount>
      <stageThreshold>-7.7128636837005615e-01</stageThreshold>
      <weakClassifiers>
        <_>
          <internalNodes>
            0 -1 406 5.7853147387504578e-02</internalNodes>
          <leafValues>
            -3.9122486114501953e-01 2.5423729419708252e-01</leafValues></_>
        <_>
          <internalNodes>
            0 -1 358 2.0701069384813309e-02</internalNodes>
          <leafValues>
            -2.5314381718635559e-01 1.0793676227331161e-01</leafValues></_>
        <_>
          <internalNodes>
            0 -1 453 8.1051532179117203e-03</internalNodes>
          <leafValues>
            -3.7721446156501770e-01 5.8792244642972946e-02</leafValues></_>
        <_>
          <internalNodes>
            0 -1 228 1.8642518669366837e-02</internalNodes>
          <leafValues>
            1.2662361562252045e-01 -1.9486141204833984e-01</leafValues></_>
        <_>
          <internalNodes>
            0 -1 28 5.0067082047462463e-02</internalNodes>
          <leafValues>
            -7.4616827070713043e-02 2.6393941044807434e-01</leafValues></_>
        <_>
          <internalNodes>
            0 -1 303 1.8552057445049286e-02</internalNodes>
          <leafValues>
            -2.9116123914718628e-01 6.7710563540458679e-02</leafValues></_>
        <_>
          <internalNodes>
            0 -1 518 2.0679596811532974e-02</internalNodes>
          <leafValues>
            -2.2469359636306763e-01 9.9792070686817169e-02</leafValues></_>
        <_>
          <internalNodes>
            0 -1 383 8.8464021682739258e-03</internalNodes>
          <leafValues>
            2.7092048525810242e-01 -7.2160892188549042e-02</leafValues></_>
        <_>
          <internalNodes>
            0 -1 373 3.7026762962341309e-02</internalNodes>
          <leafValues>
            -8.2216002047061920e-02 2.6192802190780640e-01</leafValues></_>
        <_>
          <internalNodes>
            0 -1 342 3.6582848988473415e-03</internalNodes>
          <leafValues>
            -6.2633126974105835e-01 3.7074469029903412e-02</leafValues></_>
        <_>
          <internalNodes>
            0 -1 159 1.1121333576738834e-02</internalNodes>
          <leafValues>
            -3.4421867132186890e-01 5.4158374667167664e-02</leafValues></_>
        <_>
          <internalNodes>
            0 -1 206 4.5864563435316086e-03</internalNodes>
          <leafValues>
            6.4452302455902100e-01 -4.6621616929769516e-02</leafValues></_>
        <_>
          <internalNodes>
            0 -1 301 1.1930045671761036e-02</internalNodes>
          <leafValues>
            1.3889962434768677e-01 -1.2650129199028015e-01</leafValues></_>
        <_>
          <internalNodes>
            0 -1 401 6.6399261355400085e-02</internalNodes>
          <leafValues>
            2.9435088858008385e-02 -6.0229498147964478e-01</leafValues></_>
        <_>
          <internalNodes>
            0 -1 429 2.6925411075353622e-02</internalNodes>
          <leafValues>
            -1.2028547376394272e-01 1.6923266649246216e-01</leafValues></_>
        <_>
          <internalNodes>
            0 -1 250 3.2488428987562656e-03</internalNodes>
          <leafValues>
            -4.7733786702156067e-01 4.5929413288831711e-02</leafValues></_>
        <_>
          <internalNodes>
            0 -1 587 4.9787305295467377e-02</internalNodes>
          <leafValues>
            -6.4850032329559326e-02 3.2344436645507813e-01</leafValues></_>
        <_>
          <internalNodes>
            0 -1 553 3.2369855791330338e-02</internalNodes>
          <leafValues>
            9.3852475285530090e-02 -1.9509693980216980e-01</leafValues></_>
        <_>
          <internalNodes>
            0 -1 103 5.3097151219844818e-02</internalNodes>
          <leafValues>
            -5.0491303205490112e-02 4.8129463195800781e-01</leafValues></_>
        <_>
          <internalNodes>
            0 -1 565 2.2349312901496887e-02</internalNodes>
          <leafValues>
            -1.1055927723646164e-01 1.6986353695392609e-01</leafValues></_>
        <_>
          <internalNodes>
            0 -1 379 1.3160794042050838e-03</internalNodes>
          <leafValues>
            4.8041966557502747e-01 -4.5247334986925125e-02</leafValues></_>
        <_>
          <internalNodes>
            0 -1 440 4.7670766711235046e-02</internalNodes>
          <leafValues>
            3.7874996662139893e-02 -5.3044790029525757e-01</leafValues></_>
        <_>
          <internalNodes>
            0 -1 321 3.4899987280368805e-02</internalNodes>
          <leafValues>
            6.2329091131687164e-02 -2.8192499279975891e-01</leafValues></_>
        <_>
          <internalNodes>
            0 -1 567 5.4626851342618465e-03</internalNodes>
          <leafValues>
            -4.5175233483314514e-01 4.0927417576313019e-02</leafValues></_>
        <_>
          <internalNodes>
            0 -1 238 9.7203731536865234e-02</internalNodes>
          <leafValues>
            2.2799808531999588e-02 -7.4065196514129639e-01</leafValues></_>
        <_>
          <internalNodes>
            0 -1 450 3.4913104027509689e-02</internalNodes>
          <leafValues>
            -1.1907187104225159e-01 1.5011316537857056e-01</leafValues></_>
        <_>
          <internalNodes>
            0 -1 447 6.2428144738078117e-03</internalNodes>
          <leafValues>
            -3.4571644663810730e-01 5.4102003574371338e-02</leafValues></_>
        <_>
          <internalNodes>
            0 -1 1 9.9887223914265633e-03</internalNodes>
          <leafValues>
            2.0171204209327698e-01 -1.0914866626262665e-01</leafValues></_>
        <_>
          <internalNodes>
            0 -1 395 1.0987279005348682e-02</internalNodes>
          <leafValues>
            -4.3796122074127197e-01 5.0055980682373047e-02</leafValues></_>
        <_>
          <internalNodes>
            0 -1 92 6.6467158496379852e-02</internalNodes>
          <leafValues>
            -6.5648533403873444e-02 2.9877507686614990e-01</leafValues></_>
        <_>
          <internalNodes>
            0 -1 403 4.9964249134063721e-02</internalNodes>
          <leafValues>
            2.6104915887117386e-02 -5.5565673112869263e-01</leafValues></_>
        <_>
          <internalNodes>
            0 -1 217 3.9091434329748154e-02</internalNodes>
          <leafValues>
            7.9442203044891357e-02 -2.2491808235645294e-01</leafValues></_>
        <_>
          <internalNodes>
            0 -1 312 1.2084236368536949e-02</internalNodes>
          <leafValues>
            -2.8219175338745117e-01 6.8980135023593903e-02</leafValues></_>
        <_>
          <internalNodes>
            0 -1 322 9.6419826149940491e-02</internalNodes>
          <leafValues>
            -2.6319652795791626e-02 7.8240150213241577e-01</leafValues></_>
        <_>
          <internalNodes>
            0 -1 471 8.7760053575038910e-03</internalNodes>
          <leafValues>
            -6.1405080556869507e-01 3.4398268908262253e-02</leafValues></_>
        <_>
          <internalNodes>
            0 -1 219 2.6446186006069183e-02</internalNodes>
          <leafValues>
            -9.5881879329681396e-02 1.9118604063987732e-01</leafValues></_>
        <_>
          <internalNodes>
            0 -1 61 6.2822148203849792e-02</internalNodes>
          <leafValues>
            -5.4284222424030304e-02 3.4019693732261658e-01</leafValues></_>
        <_>
          <internalNodes>
            0 -1 145 1.1052086018025875e-02</internalNodes>
          <leafValues>
            2.8188797831535339e-01 -6.7218266427516937e-02</leafValues></_>
        <_>
          <internalNodes>
            0 -1 71 1.9417526200413704e-02</internalNodes>
          <leafValues>
            -1.6287016868591309e-01 1.0595075786113739e-01</leafValues></_>
        <_>
          <internalNodes>
            0 -1 369 6.7723803222179413e-02</internalNodes>
          <leafValues>
            -3.1794548034667969e-02 5.6044983863830566e-01</leafValues></_>
        <_>
          <internalNodes>
            0 -1 582 3.7932056933641434e-02</internalNodes>
          <leafValues>
            7.4493996798992157e-02 -3.5020953416824341e-01</leafValues></_>
        <_>
          <internalNodes>
            0 -1 88 2.7982987463474274e-02</internalNodes>
          <leafValues>
            -1.4156292378902435e-01 1.3542002439498901e-01</leafValues></_>
        <_>
          <internalNodes>
            0 -1 167 1.2877119705080986e-02</internalNodes>
          <leafValues>
            -2.1525576710700989e-01 9.3093566596508026e-02</leafValues></_>
        <_>
          <internalNodes>
            0 -1 139 1.5129985287785530e-02</internalNodes>
          <leafValues>
            1.5773242712020874e-01 -1.2912747263908386e-01</leafValues></_>
        <_>
          <internalNodes>
            0 -1 417 5.3274245001375675e-03</internalNodes>
          <leafValues>
            -6.9186204671859741e-01 2.3626415058970451e-02</leafValues></_>
        <_>
          <internalNodes>
            0 -1 194 1.8453015014529228e-02</internalNodes>
          <leafValues>
            1.7969308793544769e-01 -1.0254576057195663e-01</leafValues></_>
        <_>
          <internalNodes>
            0 -1 85 5.6214366108179092e-02</internalNodes>
          <leafValues>
            -5.1088273525238037e-02 3.4686353802680969e-01</leafValues></_>
        <_>
          <internalNodes>
            0 -1 306 3.3147034700959921e-03</internalNodes>
          <leafValues>
            3.1152048707008362e-01 -5.6124538183212280e-02</leafValues></_>
        <_>
          <internalNodes>
            0 -1 349 3.4330725669860840e-02</internalNodes>
          <leafValues>
            -1.0115616768598557e-01 1.8402138352394104e-01</leafValues></_>
        <_>
          <internalNodes>
            0 -1 171 1.9212545827031136e-02</internalNodes>
          <leafValues>
            -1.9705803692340851e-01 1.0328201204538345e-01</leafValues></_>
        <_>
          <internalNodes>
            0 -1 252 4.1929557919502258e-02</internalNodes>
          <leafValues>
            7.5898878276348114e-02 -2.6785829663276672e-01</leafValues></_>
        <_>
          <internalNodes>
            0 -1 551 8.3358138799667358e-02</internalNodes>
          <leafValues>
            -2.6204163208603859e-02 8.3005374670028687e-01</leafValues></_>
        <_>
          <internalNodes>
            0 -1 155 3.5518392920494080e-02</internalNodes>
          <leafValues>
            6.8708106875419617e-02 -3.0887624621391296e-01</leafValues></_>
        <_>
          <internalNodes>
            0 -1 163 3.1822159886360168e-02</internalNodes>
          <leafValues>
            -9.9949695169925690e-02 1.9971254467964172e-01</leafValues></_>
        <_>
          <internalNodes>
            0 -1 512 8.7936054915189743e-03</internalNodes>
          <leafValues>
            -5.7793849706649780e-01 3.0542464926838875e-02</leafValues></_>
        <_>
          <internalNodes>
            0 -1 463 9.0504065155982971e-02</internalNodes>
          <leafValues>
            2.0301200449466705e-02 -8.8753795623779297e-01</leafValues></_>
        <_>
          <internalNodes>
            0 -1 16 7.9806894063949585e-02</internalNodes>
          <leafValues>
            -5.0931796431541443e-02 4.2663508653640747e-01</leafValues></_>
        <_>
          <internalNodes>
            0 -1 352 2.6255339384078979e-02</internalNodes>
          <leafValues>
            1.1005221307277679e-01 -1.7670042812824249e-01</leafValues></_>
        <_>
          <internalNodes>
            0 -1 423 9.6749849617481232e-03</internalNodes>
          <leafValues>
            -5.8019518852233887e-01 3.2668516039848328e-02</leafValues></_>
        <_>
          <internalNodes>
            0 -1 39 4.4346395879983902e-03</internalNodes>
          <leafValues>
            -4.5627859234809875e-01 3.7839878350496292e-02</leafValues></_>
        <_>
          <internalNodes>
            0 -1 131 4.4712456874549389e-03</internalNodes>
          <leafValues>
            4.7591295838356018e-01 -4.3627064675092697e-02</leafValues></_>
        <_>
          <internalNodes>
            0 -1 503 1.5152107924222946e-02</internalNodes>
          <leafValues>
            -1.5807606279850006e-01 1.2334139645099640e-01</leafValues></_>
        <_>
          <internalNodes>
            0 -1 425 6.3952781260013580e-02</internalNodes>
          <leafValues>
            -3.7271097302436829e-02 6.1891436576843262e-01</leafValues></_>
        <_>
          <internalNodes>
            0 -1 120 2.0446628332138062e-02</internalNodes>
          <leafValues>
            1.3402725756168365e-01 -1.7319217324256897e-01</leafValues></_>
        <_>
          <internalNodes>
            0 -1 550 3.4893345087766647e-02</internalNodes>
          <leafValues>
            -6.5494373440742493e-02 3.2802033424377441e-01</leafValues></_>
        <_>
          <internalNodes>
            0 -1 328 8.3387210965156555e-02</internalNodes>
          <leafValues>
            -3.4541506320238113e-02 5.1807552576065063e-01</leafValues></_>
        <_>
          <internalNodes>
            0 -1 189 6.8747118115425110e-02</internalNodes>
          <leafValues>
            -3.1817220151424408e-02 5.3155350685119629e-01</leafValues></_>
        <_>
          <internalNodes>
            0 -1 237 3.2678131014108658e-02</internalNodes>
          <leafValues>
            -1.3263766467571259e-01 1.4094695448875427e-01</leafValues></_>
        <_>
          <internalNodes>
            0 -1 261 3.8066163659095764e-02</internalNodes>
          <leafValues>
            -6.3360020518302917e-02 2.8981223702430725e-01</leafValues></_>
        <_>
          <internalNodes>
            0 -1 112 2.4890336208045483e-03</internalNodes>
          <leafValues>
            -6.5940469503402710e-01 2.6372019201517105e-02</leafValues></_>
        <_>
          <internalNodes>
            0 -1 368 5.9019651263952255e-02</internalNodes>
          <leafValues>
            -3.2822955399751663e-02 6.8358767032623291e-01</leafValues></_>
        <_>
          <internalNodes>
            0 -1 566 2.2522412240505219e-02</internalNodes>
          <leafValues>
            9.4420820474624634e-02 -2.2020083665847778e-01</leafValues></_>
        <_>
          <internalNodes>
            0 -1 313 6.2831036746501923e-02</internalNodes>
          <leafValues>
            -4.4045265763998032e-02 4.4371837377548218e-01</leafValues></_>
        <_>
          <internalNodes>
            0 -1 531 1.2416420504450798e-02</internalNodes>
          <leafValues>
            -4.0431523323059082e-01 5.1400113850831985e-02</leafValues></_>
        <_>
          <internalNodes>
            0 -1 156 1.6174178570508957e-02</internalNodes>
          <leafValues>
            -1.8329046666622162e-01 9.7848430275917053e-02</leafValues></_>
        <_>
          <internalNodes>
            0 -1 60 8.9296445250511169e-02</internalNodes>
          <leafValues>
            -3.6155797541141510e-02 6.1379283666610718e-01</leafValues></_>
        <_>
          <internalNodes>
            0 -1 148 5.0538375973701477e-02</internalNodes>
          <leafValues>
            4.1013948619365692e-02 -4.9765577912330627e-01</leafValues></_>
        <_>
          <internalNodes>
            0 -1 279 4.8223100602626801e-02</internalNodes>
          <leafValues>
            -4.9490340054035187e-02 4.2407453060150146e-01</leafValues></_>
        <_>
          <internalNodes>
            0 -1 439 6.5187178552150726e-02</internalNodes>
          <leafValues>
            1.8729198724031448e-02 -1.</leafValues></_>
        <_>
          <internalNodes>
            0 -1 154 2.9241438023746014e-03</internalNodes>
          <leafValues>
            -6.9570481777191162e-01 1.7816977575421333e-02</leafValues></_>
        <_>
          <internalNodes>
            0 -1 264 1.2150293216109276e-02</internalNodes>
          <leafValues>
            -2.6795119047164917e-01 5.3695857524871826e-02</leafValues></_>
        <_>
          <internalNodes>
            0 -1 243 4.3387025594711304e-02</internalNodes>
          <leafValues>
            -5.7610809803009033e-02 3.2247778773307800e-01</leafValues></_>
        <_>
          <internalNodes>
            0 -1 32 6.1846431344747543e-03</internalNodes>
          <leafValues>
            4.6151554584503174e-01 -3.8071069866418839e-02</leafValues></_>
        <_>
          <internalNodes>
            0 -1 205 2.7053641155362129e-02</internalNodes>
          <leafValues>
            1.2107825279235840e-01 -1.4068919420242310e-01</leafValues></_>
        <_>
          <internalNodes>
            0 -1 205 1.0062355548143387e-02</internalNodes>
          <leafValues>
            -4.5993119478225708e-01 4.6580594033002853e-02</leafValues></_>
        <_>
          <internalNodes>
            0 -1 297 1.3728089630603790e-02</internalNodes>
          <leafValues>
            1.3609649240970612e-01 -1.3076287508010864e-01</leafValues></_>
        <_>
          <internalNodes>
            0 -1 187 9.1508012264966965e-03</internalNodes>
          <leafValues>
            -2.9520261287689209e-01 6.0992740094661713e-02</leafValues></_>
        <_>
          <internalNodes>
            0 -1 185 3.7698104977607727e-02</internalNodes>
          <leafValues>
            4.5152977108955383e-02 -4.0554475784301758e-01</leafValues></_>
        <_>
          <internalNodes>
            0 -1 51 3.4342117607593536e-02</internalNodes>
          <leafValues>
            -6.4065366983413696e-02 2.9026892781257629e-01</leafValues></_>
        <_>
          <internalNodes>
            0 -1 500 1.2935033068060875e-02</internalNodes>
          <leafValues>
            1.5118366479873657e-01 -1.3920998573303223e-01</leafValues></_>
        <_>
          <internalNodes>
            0 -1 374 2.0619675517082214e-02</internalNodes>
          <leafValues>
            -1.3626345992088318e-01 1.3762061297893524e-01</leafValues></_>
        <_>
          <internalNodes>
            0 -1 363 4.2608920484781265e-02</internalNodes>
          <leafValues>
            -8.1676229834556580e-02 2.0076458156108856e-01</leafValues></_>
        <_>
          <internalNodes>
            0 -1 258 3.5921283066272736e-02</internalNodes>
          <leafValues>
            7.1979381144046783e-02 -2.2627316415309906e-01</leafValues></_>
        <_>
          <internalNodes>
            0 -1 177 5.0994277000427246e-02</internalNodes>
          <leafValues>
            -3.0299011617898941e-02 5.8533418178558350e-01</leafValues></_>
        <_>
          <internalNodes>
            0 -1 326 9.0569211170077324e-03</internalNodes>
          <leafValues>
            3.2442498207092285e-01 -5.1652278751134872e-02</leafValues></_>
        <_>
          <internalNodes>
            0 -1 259 6.3649311661720276e-02</internalNodes>
          <leafValues>
            -3.6665167659521103e-02 4.6491584181785583e-01</leafValues></_>
        <_>
          <internalNodes>
            0 -1 437 1.1787257157266140e-02</internalNodes>
          <leafValues>
            -3.9690673351287842e-01 5.2462842315435410e-02</leafValues></_>
        <_>
          <internalNodes>
            0 -1 426 1.0226070880889893e-02</internalNodes>
          <leafValues>
            3.9375707507133484e-01 -5.0749331712722778e-02</leafValues></_>
        <_>
          <internalNodes>
            0 -1 133 2.4530831724405289e-03</internalNodes>
          <leafValues>
            -8.0425494909286499e-01 1.9454149529337883e-02</leafValues></_>
        <_>
          <internalNodes>
            0 -1 0 3.3093814272433519e-03</internalNodes>
          <leafValues>
            3.3043888211250305e-01 -5.3111068904399872e-02</leafValues></_></weakClassifiers></_>
    <!-- stage 7 -->
    <_>
      <maxWeakCount>84</maxWeakCount>
      <stageThreshold>-3.2312041521072388e-01</stageThreshold>
      <weakClassifiers>
        <_>
          <internalNodes>
            0 -1 377 1.6901506111025810e-02</internalNodes>
          <leafValues>
            1.2185686826705933e-01 -2.8571429848670959e-01</leafValues></_>
        <_>
          <internalNodes>
            0 -1 430 1.5545779839158058e-02</internalNodes>
          <leafValues>
            -3.0021432042121887e-01 1.1406881362199783e-01</leafValues></_>
        <_>
          <internalNodes>
            0 -1 66 1.0616277344524860e-02</internalNodes>
          <leafValues>
            1.9988068938255310e-01 -1.4781193435192108e-01</leafValues></_>
        <_>
          <internalNodes>
            0 -1 59 1.7811112105846405e-02</internalNodes>
          <leafValues>
            -2.2262169420719147e-01 1.1731159687042236e-01</leafValues></_>
        <_>
          <internalNodes>
            0 -1 332 1.5917066484689713e-02</internalNodes>
          <leafValues>
            2.1016407012939453e-01 -1.2631437182426453e-01</leafValues></_>
        <_>
          <internalNodes>
            0 -1 537 3.2605078071355820e-02</internalNodes>
          <leafValues>
            7.7389337122440338e-02 -2.9710513353347778e-01</leafValues></_>
        <_>
          <internalNodes>
            0 -1 222 3.7516944110393524e-02</internalNodes>
          <leafValues>
            1.3480898737907410e-01 -2.5112807750701904e-01</leafValues></_>
        <_>
          <internalNodes>
            0 -1 107 7.4952811002731323e-02</internalNodes>
          <leafValues>
            -3.4804888069629669e-02 9.3813335895538330e-01</leafValues></_>
        <_>
          <internalNodes>
            0 -1 315 1.7981223762035370e-02</internalNodes>
          <leafValues>
            -1.8389178812503815e-01 1.2847429513931274e-01</leafValues></_>
        <_>
          <internalNodes>
            0 -1 20 2.3235226981341839e-03</internalNodes>
          <leafValues>
            5.0239372253417969e-01 -4.6162612736225128e-02</leafValues></_>
        <_>
          <internalNodes>
            0 -1 597 3.4451209008693695e-02</internalNodes>
          <leafValues>
            8.1876799464225769e-02 -3.2856780290603638e-01</leafValues></_>
        <_>
          <internalNodes>
            0 -1 44 4.2005358263850212e-03</internalNodes>
          <leafValues>
            -6.0573756694793701e-01 1.0845069773495197e-02</leafValues></_>
        <_>
          <internalNodes>
            0 -1 75 1.5651721507310867e-02</internalNodes>
          <leafValues>
            -2.2362010180950165e-01 1.1491835117340088e-01</leafValues></_>
        <_>
          <internalNodes>
            0 -1 143 9.1310739517211914e-03</internalNodes>
          <leafValues>
            3.5112002491950989e-01 -6.9234199821949005e-02</leafValues></_>
        <_>
          <internalNodes>
            0 -1 26 1.7971033230423927e-02</internalNodes>
          <leafValues>
            -2.0717717707157135e-01 1.2995515763759613e-01</leafValues></_>
        <_>
          <internalNodes>
            0 -1 324 1.8927766010165215e-02</internalNodes>
          <leafValues>
